<?xml version="1.0"?>
<opencv_storage>
<cascade>
  <stageType>BOOST</stageType>
  <featureType>LBP</featureType>
  <height>60</height>
  <width>50</width>
  <stageParams>
    <boostType>GAB</boostType>
    <minHitRate>9.9900001287460327e-01</minHitRate>
    <maxFalseAlarm>5.0000000000000000e-01</maxFalseAlarm>
    <weightTrimRate>9.4999999999999996e-01</weightTrimRate>
    <maxDepth>1</maxDepth>
    <maxWeakCount>100</maxWeakCount></stageParams>
  <featureParams>
    <maxCatCount>256</maxCatCount>
    <featSize>1</featSize></featureParams>
  <stageNum>20</stageNum>
  <stages>
    <!-- stage 0 -->
    <_>
      <maxWeakCount>3</maxWeakCount>
      <stageThreshold>-9.3181174993515015e-01</stageThreshold>
      <weakClassifiers>
        <_>
          <internalNodes>
            0 -1 22 -169872385 -748988077 826611539 1428144899
            1342755259 -1122303991 1535632043 1461695403</internalNodes>
          <leafValues>
            -9.1941392421722412e-01 7.8908419609069824e-01</leafValues></_>
        <_>
          <internalNodes>
            0 -1 44 1363531775 385947332 -786056813 2134610197 272924811
            704643226 1433178303 -5260625</internalNodes>
          <leafValues>
            -7.6567190885543823e-01 8.5494822263717651e-01</leafValues></_>
        <_>
          <internalNodes>
            0 -1 37 -134266065 -573746495 -1878912813 -103309089
            1210122305 131587 -725409789 -145812781</internalNodes>
          <leafValues>
            -8.0008059740066528e-01 7.5327408313751221e-01</leafValues></_></weakClassifiers></_>
    <!-- stage 1 -->
    <_>
      <maxWeakCount>3</maxWeakCount>
      <stageThreshold>-1.0744019746780396e+00</stageThreshold>
      <weakClassifiers>
        <_>
          <internalNodes>
            0 -1 0 -6431745 -676071021 1665356423 2136861567 -652483894
            -594704213 1287781119 1331686047</internalNodes>
          <leafValues>
            -8.8010203838348389e-01 7.0788532495498657e-01</leafValues></_>
        <_>
          <internalNodes>
            0 -1 49 1427174367 1398112707 -1878715657 1607304475
            1476442826 1000022190 -1465678886 -67114578</internalNodes>
          <leafValues>
            -6.8752598762512207e-01 6.8249017000198364e-01</leafValues></_>
        <_>
          <internalNodes>
            0 -1 23 -171835940 -7896928 16974800 999542804 -511671409
            998400800 1711442664 2132930528</internalNodes>
          <leafValues>
            -8.3438324928283691e-01 4.9322605133056641e-01</leafValues></_></weakClassifiers></_>
    <!-- stage 2 -->
    <_>
      <maxWeakCount>5</maxWeakCount>
      <stageThreshold>-1.0053653717041016e+00</stageThreshold>
      <weakClassifiers>
        <_>
          <internalNodes>
            0 -1 70 -1926254678 822118656 268505495 486794893 -888411909
            -368693082 -1308391189 -70268721</internalNodes>
          <leafValues>
            -7.4969625473022461e-01 6.6573816537857056e-01</leafValues></_>
        <_>
          <internalNodes>
            0 -1 35 -642651649 -707165567 1073791123 -1660714983
            -1723742049 -105971710 -2138863381 -523018221</internalNodes>
          <leafValues>
            -6.9608342647552490e-01 7.2556191682815552e-01</leafValues></_>
        <_>
          <internalNodes>
            0 -1 32 -573332212 -720273007 1296159231 -676233139 67109389
            167772554 715246270 -74510033</internalNodes>
          <leafValues>
            -7.6557463407516479e-01 6.0410791635513306e-01</leafValues></_>
        <_>
          <internalNodes>
            0 -1 100 -1094714437 128892449 788529151 1156562872
            796917759 -1778918058 1342177279 -905969665</internalNodes>
          <leafValues>
            -6.2537467479705811e-01 6.8164461851119995e-01</leafValues></_>
        <_>
          <internalNodes>
            0 -1 58 -553913605 -208608891 536973463 1459958672
            -1937519670 973308032 894488795 420846218</internalNodes>
          <leafValues>
            -9.1429936885833740e-01 5.2434426546096802e-01</leafValues></_></weakClassifiers></_>
    <!-- stage 3 -->
    <_>
      <maxWeakCount>5</maxWeakCount>
      <stageThreshold>-1.0694472789764404e+00</stageThreshold>
      <weakClassifiers>
        <_>
          <internalNodes>
            0 -1 25 -250356769 -605580324 83935643 2140390183 -241985397
            -40744950 1535224491 2138045407</internalNodes>
          <leafValues>
            -8.3210605382919312e-01 5.4463553428649902e-01</leafValues></_>
        <_>
          <internalNodes>
            0 -1 94 -208429137 -108871680 50397619 -787381894 1032556715
            9535489 281665724 1595882459</internalNodes>
          <leafValues>
            -7.1824830770492554e-01 5.1385319232940674e-01</leafValues></_>
        <_>
          <internalNodes>
            0 -1 30 1418709743 -753710189 75668555 1594953833
            -2012673528 -754384480 -985119928 -3149073</internalNodes>
          <leafValues>
            -6.7537903785705566e-01 5.8506560325622559e-01</leafValues></_>
        <_>
          <internalNodes>
            0 -1 111 -138674525 698583947 -1359841935 384630524 -147457
            2013232510 2147483444 -674236489</internalNodes>
          <leafValues>
            -5.7801979780197144e-01 6.3504570722579956e-01</leafValues></_>
        <_>
          <internalNodes>
            0 -1 3 -648822282 -250371722 594328 390070528 -1954496071
            -1912602479 1093769384 -210658648</internalNodes>
          <leafValues>
            -6.7916560173034668e-01 5.2124047279357910e-01</leafValues></_></weakClassifiers></_>
    <!-- stage 4 -->
    <_>
      <maxWeakCount>5</maxWeakCount>
      <stageThreshold>-1.1166762113571167e+00</stageThreshold>
      <weakClassifiers>
        <_>
          <internalNodes>
            0 -1 17 -136585217 521230557 -1795159985 -1651474430
            1090568447 1497989627 -1377281894 1052680459</internalNodes>
          <leafValues>
            -8.3999997377395630e-01 5.4448980093002319e-01</leafValues></_>
        <_>
          <internalNodes>
            0 -1 86 -787884852 -583957691 155222295 1467302034
            -2105311042 -1732525944 1938332603 530525883</internalNodes>
          <leafValues>
            -7.0739436149597168e-01 5.4279559850692749e-01</leafValues></_>
        <_>
          <internalNodes>
            0 -1 60 1343550974 -585821647 -788527345 -582150138
            -1408307794 -1667760122 -116475474 -1059159862</internalNodes>
          <leafValues>
            -7.1291553974151611e-01 5.1730817556381226e-01</leafValues></_>
        <_>
          <internalNodes>
            0 -1 72 -619854428 2097254605 1090523924 -586604403
            -1073695048 1342210068 -1979610995 -125181824</internalNodes>
          <leafValues>
            -6.5036839246749878e-01 6.0160255432128906e-01</leafValues></_>
        <_>
          <internalNodes>
            0 -1 15 -800604021 -1022242805 69770 -231358390 -788331768
            1614807168 -794555820 -676465766</internalNodes>
          <leafValues>
            -6.6110301017761230e-01 5.6377840042114258e-01</leafValues></_></weakClassifiers></_>
    <!-- stage 5 -->
    <_>
      <maxWeakCount>4</maxWeakCount>
      <stageThreshold>-4.8946535587310791e-01</stageThreshold>
      <weakClassifiers>
        <_>
          <internalNodes>
            0 -1 16 -548057204 -4194369 -1011713 -4161 1431575743
            -1073758209 -335544321 -2113553</internalNodes>
          <leafValues>
            -5.7894736528396606e-01 6.3562750816345215e-01</leafValues></_>
        <_>
          <internalNodes>
            0 -1 97 -222653409 -243171067 285299664 1368981656 40542695
            1350569986 1697185946 857158159</internalNodes>
          <leafValues>
            -7.8965526819229126e-01 5.1332920789718628e-01</leafValues></_>
        <_>
          <internalNodes>
            0 -1 110 -74198112 -2012434431 -1056759680 1699054162
            -1879013157 288489488 -343174959 -1289883505</internalNodes>
          <leafValues>
            -6.1642158031463623e-01 5.4591155052185059e-01</leafValues></_>
        <_>
          <internalNodes>
            0 -1 24 1140901251 -519486177 -2147483249 1155469567
            1207996043 -1962309487 -1988048657 829895307</internalNodes>
          <leafValues>
            -8.8134914636611938e-01 4.3527013063430786e-01</leafValues></_></weakClassifiers></_>
    <!-- stage 6 -->
    <_>
      <maxWeakCount>6</maxWeakCount>
      <stageThreshold>-8.5298669338226318e-01</stageThreshold>
      <weakClassifiers>
        <_>
          <internalNodes>
            0 -1 85 -539094787 -238539743 19923059 1573392474
            -1999757058 1208356996 445350347 527428347</internalNodes>
          <leafValues>
            -7.6978415250778198e-01 5.2697098255157471e-01</leafValues></_>
        <_>
          <internalNodes>
            0 -1 31 -134240114 -650014581 -2130668073 -720289765
            1073749640 -1725848447 -1115567201 -340329845</internalNodes>
          <leafValues>
            -6.7625594139099121e-01 5.4036116600036621e-01</leafValues></_>
        <_>
          <internalNodes>
            0 -1 71 -1392071766 488906820 -753800963 -10659691
            -2112190329 -628391804 -1994321777 1873529497</internalNodes>
          <leafValues>
            -7.6903241872787476e-01 4.1772106289863586e-01</leafValues></_>
        <_>
          <internalNodes>
            0 -1 69 -788033218 -753760768 -1056566016 1963590154
            -401430482 1479592346 -1459435238 1570674922</internalNodes>
          <leafValues>
            -7.0564198493957520e-01 4.7585475444793701e-01</leafValues></_>
        <_>
          <internalNodes>
            0 -1 82 -834153417 424841284 67141651 929403049 33587858
            411041825 30124201 1527761307</internalNodes>
          <leafValues>
            -7.1385645866394043e-01 4.8580268025398254e-01</leafValues></_>
        <_>
          <internalNodes>
            0 -1 109 -2122141190 -1324318718 536871263 -1181388009
            -2147245938 -1845264384 16941762 -1163199590</internalNodes>
          <leafValues>
            -8.4775424003601074e-01 4.1333404183387756e-01</leafValues></_></weakClassifiers></_>
    <!-- stage 7 -->
    <_>
      <maxWeakCount>5</maxWeakCount>
      <stageThreshold>-1.1603380441665649e+00</stageThreshold>
      <weakClassifiers>
        <_>
          <internalNodes>
            0 -1 12 -15514033 -112093329 -1761095401 -781331489
            -1601367543 -1466759017 -171842748 -172133401</internalNodes>
          <leafValues>
            -7.3474800586700439e-01 5.7068061828613281e-01</leafValues></_>
        <_>
          <internalNodes>
            0 -1 28 -538968097 521229791 -214524019 -1112233067
            1482029503 528184216 1288251502 720367887</internalNodes>
          <leafValues>
            -8.7612015008926392e-01 3.8503497838973999e-01</leafValues></_>
        <_>
          <internalNodes>
            0 -1 107 -9338957 -72728730 939490801 -315694016 -524289
            -536887809 1971167190 -570426275</internalNodes>
          <leafValues>
            -5.2974444627761841e-01 6.0641676187515259e-01</leafValues></_>
        <_>
          <internalNodes>
            0 -1 95 -1715039459 -739171438 17841433 -708212985
            -1730641464 461537817 2119215754 458224586</internalNodes>
          <leafValues>
            -7.1984660625457764e-01 4.9747920036315918e-01</leafValues></_>
        <_>
          <internalNodes>
            0 -1 53 -101192946 1347457301 1409537486 -388652717
            -393617073 1592297888 -678721351 -1177698111</internalNodes>
          <leafValues>
            -6.5336591005325317e-01 5.0590687990188599e-01</leafValues></_></weakClassifiers></_>
    <!-- stage 8 -->
    <_>
      <maxWeakCount>5</maxWeakCount>
      <stageThreshold>-7.4785989522933960e-01</stageThreshold>
      <weakClassifiers>
        <_>
          <internalNodes>
            0 -1 45 -34126129 -2049 -9 -2376705 -134508772 1936129019
            -134234209 -75628545</internalNodes>
          <leafValues>
            -5.3121799230575562e-01 6.7063921689987183e-01</leafValues></_>
        <_>
          <internalNodes>
            0 -1 9 -251886372 -251346944 1073745997 -238583808
            -989353813 1107361792 -510665525 -1383202046</internalNodes>
          <leafValues>
            -6.2033891677856445e-01 5.6733208894729614e-01</leafValues></_>
        <_>
          <internalNodes>
            0 -1 21 -1291528414 -41926268 786848 -351989312 -697791537
            -876050413 -1450669918 -4963581</internalNodes>
          <leafValues>
            -6.6424953937530518e-01 4.8967421054840088e-01</leafValues></_>
        <_>
          <internalNodes>
            0 -1 73 -48926212 -179109848 -258948840 -1324973560
            -133059084 -16674806 -1987598086 -50623317</internalNodes>
          <leafValues>
            -5.5822610855102539e-01 5.4844290018081665e-01</leafValues></_>
        <_>
          <internalNodes>
            0 -1 39 -644803318 1935354807 588343325 -1726934783
            278634219 1510122000 545303210 -1144876915</internalNodes>
          <leafValues>
            -6.3442009687423706e-01 5.4297405481338501e-01</leafValues></_></weakClassifiers></_>
    <!-- stage 9 -->
    <_>
      <maxWeakCount>7</maxWeakCount>
      <stageThreshold>-1.0477339029312134e+00</stageThreshold>
      <weakClassifiers>
        <_>
          <internalNodes>
            0 -1 34 -533609748 1427636483 1677721684 1108365590
            1481130124 -1308098550 -299849492 -343243119</internalNodes>
          <leafValues>
            -6.5645807981491089e-01 5.1610094308853149e-01</leafValues></_>
        <_>
          <internalNodes>
            0 -1 116 -2020873424 -1862268528 4195728 50680710 -117179862
            -662028158 545358212 -153627918</internalNodes>
          <leafValues>
            -6.6179090738296509e-01 4.7825893759727478e-01</leafValues></_>
        <_>
          <internalNodes>
            0 -1 84 -686434853 894681361 319078677 420675605 -1668235071
            285278217 169183459 37936419</internalNodes>
          <leafValues>
            -9.2252671718597412e-01 3.2171085476875305e-01</leafValues></_>
        <_>
          <internalNodes>
            0 -1 11 -10427168 1895862291 -1996455656 -1618910970
            1258402760 -536805248 1351879308 532624207</internalNodes>
          <leafValues>
            -7.0876199007034302e-01 4.0888845920562744e-01</leafValues></_>
        <_>
          <internalNodes>
            0 -1 120 -697613925 -747394280 613713906 1160333296
            1366594850 -1091176579 308614082 -1023174725</internalNodes>
          <leafValues>
            -4.2751747369766235e-01 7.8892517089843750e-01</leafValues></_>
        <_>
          <internalNodes>
            0 -1 26 -67116893 -877723934 -1076369883 1910898657
            -311052574 -891289609 360640435 -413144398</internalNodes>
          <leafValues>
            -4.8689764738082886e-01 7.0933836698532104e-01</leafValues></_>
        <_>
          <internalNodes>
            0 -1 41 -258844194 -37257212 -1987536512 1666514956
            -2021617524 -1710618482 -2138560376 557172892</internalNodes>
          <leafValues>
            -7.4062752723693848e-01 4.8919036984443665e-01</leafValues></_></weakClassifiers></_>
    <!-- stage 10 -->
    <_>
      <maxWeakCount>7</maxWeakCount>
      <stageThreshold>-1.0285202264785767e+00</stageThreshold>
      <weakClassifiers>
        <_>
          <internalNodes>
            0 -1 10 -234944499 -917779695 20989277 -1861889901
            -922719509 -939409247 -401872486 -609484924</internalNodes>
          <leafValues>
            -5.9753084182739258e-01 5.3577983379364014e-01</leafValues></_>
        <_>
          <internalNodes>
            0 -1 88 -129112125 -262698878 -2063472361 1959617024
            -1331115793 -1968504638 -897468273 1071489211</internalNodes>
          <leafValues>
            -6.9460189342498779e-01 4.2769390344619751e-01</leafValues></_>
        <_>
          <internalNodes>
            0 -1 76 -976631122 1467990229 885100689 -174632419
            -397873998 2049486848 -2012619548 -17836508</internalNodes>
          <leafValues>
            -6.0949105024337769e-01 4.9314296245574951e-01</leafValues></_>
        <_>
          <internalNodes>
            0 -1 103 -1467888199 -832781155 -2130493415 1444275744
            -369038941 -267746680 -2136211320 -1026848635</internalNodes>
          <leafValues>
            -5.5746537446975708e-01 5.4448610544204712e-01</leafValues></_>
        <_>
          <internalNodes>
            0 -1 50 -691450145 -788316142 1073840168 -384008135
            -351301060 -503254782 1642855071 -146069253</internalNodes>
          <leafValues>
            -5.1332253217697144e-01 5.4590237140655518e-01</leafValues></_>
        <_>
          <internalNodes>
            0 -1 102 -765742373 -1693253631 1157705731 1548963851
            -2088589892 1912963208 537019051 -1090084349</internalNodes>
          <leafValues>
            -5.7283729314804077e-01 5.8350479602813721e-01</leafValues></_>
        <_>
          <internalNodes>
            0 -1 92 -565555046 1496547547 1130604 1430519808 -1073512274
            -2004740984 -669793541 423036427</internalNodes>
          <leafValues>
            -7.6674348115921021e-01 4.3844729661941528e-01</leafValues></_></weakClassifiers></_>
    <!-- stage 11 -->
    <_>
      <maxWeakCount>7</maxWeakCount>
      <stageThreshold>-1.2071285247802734e+00</stageThreshold>
      <weakClassifiers>
        <_>
          <internalNodes>
            0 -1 87 -83183698 1023464453 -1715105456 -578723728
            -1828644197 -1415012180 -1161682082 -1148496924</internalNodes>
          <leafValues>
            -5.9067356586456299e-01 4.9290779232978821e-01</leafValues></_>
        <_>
          <internalNodes>
            0 -1 4 -1246592870 -771637118 1078075418 -217589758
            -1022689142 -527253488 -901103477 -873507638</internalNodes>
          <leafValues>
            -5.6623488664627075e-01 4.8829743266105652e-01</leafValues></_>
        <_>
          <internalNodes>
            0 -1 8 -35716053 688363419 1141989395 365393024 1535181114
            705237385 1216436376 1181613252</internalNodes>
          <leafValues>
            -8.0759114027023315e-01 3.2577499747276306e-01</leafValues></_>
        <_>
          <internalNodes>
            0 -1 54 -491817 -114945 -269582785 -298897423 -998994692
            -269549571 -1212876898 -1191273796</internalNodes>
          <leafValues>
            -4.6115455031394958e-01 6.0939967632293701e-01</leafValues></_>
        <_>
          <internalNodes>
            0 -1 55 454733755 1964061053 411074824 -1961770987
            1108911098 1005242536 -892282149 675070091</internalNodes>
          <leafValues>
            -7.7160191535949707e-01 3.6248686909675598e-01</leafValues></_>
        <_>
          <internalNodes>
            0 -1 52 67502384 562102417 -2095717996 998342658 -2012211057
            -1414708832 -1605690913 -45647573</internalNodes>
          <leafValues>
            -6.0888439416885376e-01 4.6151271462440491e-01</leafValues></_>
        <_>
          <internalNodes>
            0 -1 48 -787249217 -1022771043 71352443 68395080 134807595
            723074 36085825 1447998461</internalNodes>
          <leafValues>
            -6.5944069623947144e-01 4.8055428266525269e-01</leafValues></_></weakClassifiers></_>
    <!-- stage 12 -->
    <_>
      <maxWeakCount>8</maxWeakCount>
      <stageThreshold>-1.0619652271270752e+00</stageThreshold>
      <weakClassifiers>
        <_>
          <internalNodes>
            0 -1 106 -67114317 -72700046 -1477214751 -34756692 -16385
            2139078655 -24579 -41953795</internalNodes>
          <leafValues>
            -3.6411151289939880e-01 6.8882977962493896e-01</leafValues></_>
        <_>
          <internalNodes>
            0 -1 13 -2666989 1666424961 956498454 -649998237 -1441346219
            -1207304175 1361545856 -676857182</internalNodes>
          <leafValues>
            -5.3661847114562988e-01 4.5740652084350586e-01</leafValues></_>
        <_>
          <internalNodes>
            0 -1 1 119602869 761851776 -51478983 -134361295 1550826751
            -805963780 -1778387461 -269630025</internalNodes>
          <leafValues>
            -4.2671003937721252e-01 5.9057360887527466e-01</leafValues></_>
        <_>
          <internalNodes>
            0 -1 40 -36707078 -1256902351 -2134767681 -871366266
            1492426980 -2004709239 1921549193 -10441970</internalNodes>
          <leafValues>
            -5.4280805587768555e-01 4.8181858658790588e-01</leafValues></_>
        <_>
          <internalNodes>
            0 -1 61 -805054753 1360253191 655497 105616069 -2147254103
            805404860 917835 3125405</internalNodes>
          <leafValues>
            -6.5105187892913818e-01 4.0908554196357727e-01</leafValues></_>
        <_>
          <internalNodes>
            0 -1 75 325277318 -668886813 -1996473982 -717041262
            -645807733 -209321849 -1852137109 -174922861</internalNodes>
          <leafValues>
            -5.0651717185974121e-01 5.4214102029800415e-01</leafValues></_>
        <_>
          <internalNodes>
            0 -1 65 47870997 307450965 159748445 -27423897 -1064257139
            -1693842973 1209063652 -605648221</internalNodes>
          <leafValues>
            -5.3506565093994141e-01 5.2537232637405396e-01</leafValues></_>
        <_>
          <internalNodes>
            0 -1 56 -1008907393 -712658780 1363182841 -184287040
            -1711213823 -1316372338 1216930851 -1554259285</internalNodes>
          <leafValues>
            -5.3501772880554199e-01 5.1035529375076294e-01</leafValues></_></weakClassifiers></_>
    <!-- stage 13 -->
    <_>
      <maxWeakCount>6</maxWeakCount>
      <stageThreshold>-1.4619860649108887e+00</stageThreshold>
      <weakClassifiers>
        <_>
          <internalNodes>
            0 -1 2 -537735446 -1114180 2147368959 -137 -8450309
            -1073743873 -813732098 -50403701</internalNodes>
          <leafValues>
            -3.9905214309692383e-01 6.1656802892684937e-01</leafValues></_>
        <_>
          <internalNodes>
            0 -1 83 -1047795209 -1847893775 1410402775 529350913
            1351455416 272635688 1900120767 371929230</internalNodes>
          <leafValues>
            -7.2114008665084839e-01 3.8443699479103088e-01</leafValues></_>
        <_>
          <internalNodes>
            0 -1 112 -115943519 -49643514 -519788048 -476007806
            -536637045 -1165164406 -937276512 -321914087</internalNodes>
          <leafValues>
            -5.3945636749267578e-01 4.9515292048454285e-01</leafValues></_>
        <_>
          <internalNodes>
            0 -1 66 -1465800822 335905844 -1072951094 1568133277
            -917929825 -72709485 -1073741397 1204682889</internalNodes>
          <leafValues>
            -8.2237839698791504e-01 3.5022631287574768e-01</leafValues></_>
        <_>
          <internalNodes>
            0 -1 33 811043912 -1077407727 344033708 1686667349
            1076412552 -1165786926 -1203980054 -16555421</internalNodes>
          <leafValues>
            -6.4920228719711304e-01 3.6011445522308350e-01</leafValues></_>
        <_>
          <internalNodes>
            0 -1 62 -909909029 1495194192 1611284763 -771153536
            -2147466738 16 822165651 -781202691</internalNodes>
          <leafValues>
            -5.3797072172164917e-01 5.1508629322052002e-01</leafValues></_></weakClassifiers></_>
    <!-- stage 14 -->
    <_>
      <maxWeakCount>7</maxWeakCount>
      <stageThreshold>-1.0564393997192383e+00</stageThreshold>
      <weakClassifiers>
        <_>
          <internalNodes>
            0 -1 27 2113588972 -1 -30654467 2147336191 -33556516
            -16793602 -1291936274 -76097733</internalNodes>
          <leafValues>
            -4.6875000000000000e-01 5.1792830228805542e-01</leafValues></_>
        <_>
          <internalNodes>
            0 -1 105 -1153700941 -1450528377 557900278 1413673346
            -658407237 1359030281 1083195497 1590411727</internalNodes>
          <leafValues>
            -6.5148931741714478e-01 3.6910024285316467e-01</leafValues></_>
        <_>
          <internalNodes>
            0 -1 59 -67974769 1442590516 -1409490053 -63438858
            1122127865 2147123167 -537536035 -537203367</internalNodes>
          <leafValues>
            -4.4174039363861084e-01 5.3337895870208740e-01</leafValues></_>
        <_>
          <internalNodes>
            0 -1 20 318796069 -1916779964 -2126016448 1636651994 8917151
            436797443 -1071050073 -1610765663</internalNodes>
          <leafValues>
            -5.3510409593582153e-01 4.9216777086257935e-01</leafValues></_>
        <_>
          <internalNodes>
            0 -1 99 -149732950 -2104981107 96849973 -653425892
            -1610513669 -794949496 -1073487801 -178579829</internalNodes>
          <leafValues>
            -6.1879527568817139e-01 4.1356474161148071e-01</leafValues></_>
        <_>
          <internalNodes>
            0 -1 14 -346829134 1364443418 557924611 294381570
            -1073159262 -1308590080 1616478978 -120664874</internalNodes>
          <leafValues>
            -5.2614784240722656e-01 5.0420272350311279e-01</leafValues></_>
        <_>
          <internalNodes>
            0 -1 91 -740560644 1476411673 67987 -661323629 1225011339
            136527904 595690187 2088628883</internalNodes>
          <leafValues>
            -7.9679971933364868e-01 3.6365282535552979e-01</leafValues></_></weakClassifiers></_>
    <!-- stage 15 -->
    <_>
      <maxWeakCount>8</maxWeakCount>
      <stageThreshold>-1.4428011178970337e+00</stageThreshold>
      <weakClassifiers>
        <_>
          <internalNodes>
            0 -1 38 -539425532 -86564765 -2080370675 -914354159 67385087
            -82672213 1120921995 1523308706</internalNodes>
          <leafValues>
            -6.9468265771865845e-01 3.8344722986221313e-01</leafValues></_>
        <_>
          <internalNodes>
            0 -1 79 -788164226 -753496036 -1186863050 -78501494
            -251487045 1499595202 -670903730 -705736484</internalNodes>
          <leafValues>
            -5.0342607498168945e-01 4.9247631430625916e-01</leafValues></_>
        <_>
          <internalNodes>
            0 -1 119 -144766814 -1146169670 784051233 -281327557
            536315226 526347793 1325524164 -79963529</internalNodes>
          <leafValues>
            -4.6597728133201599e-01 5.5166465044021606e-01</leafValues></_>
        <_>
          <internalNodes>
            0 -1 101 -1793879109 -1026903842 1157649811 1443267885
            1510130376 -2088665088 4268 1429981519</internalNodes>
          <leafValues>
            -6.1155909299850464e-01 4.5916968584060669e-01</leafValues></_>
        <_>
          <internalNodes>
            0 -1 117 -109338238 1570965905 1610645508 1455932538
            1082802563 -931134934 1082737093 -308843553</internalNodes>
          <leafValues>
            -5.2440470457077026e-01 4.9213045835494995e-01</leafValues></_>
        <_>
          <internalNodes>
            0 -1 18 -531649331 -787378127 1208165206 1887519057
            -250893476 -1862123389 -753356022 -148747813</internalNodes>
          <leafValues>
            -6.1467975378036499e-01 4.2002850770950317e-01</leafValues></_>
        <_>
          <internalNodes>
            0 -1 43 -1006123747 -587163455 84623879 -720040951 169478639
            -1039431528 -1450927478 -652130200</internalNodes>
          <leafValues>
            -4.9563339352607727e-01 5.5122798681259155e-01</leafValues></_>
        <_>
          <internalNodes>
            0 -1 51 -1160630486 -19242906 16911401 -1055698934
            1921632927 169468640 -1920773893 -490554479</internalNodes>
          <leafValues>
            -7.2399175167083740e-01 3.9352956414222717e-01</leafValues></_></weakClassifiers></_>
    <!-- stage 16 -->
    <_>
      <maxWeakCount>7</maxWeakCount>
      <stageThreshold>-8.4836119413375854e-01</stageThreshold>
      <weakClassifiers>
        <_>
          <internalNodes>
            0 -1 36 -224702625 -1602205695 -1609348967 -536837983
            -931050311 -402128886 688039658 1795924490</internalNodes>
          <leafValues>
            -5.9879338741302490e-01 4.0177848935127258e-01</leafValues></_>
        <_>
          <internalNodes>
            0 -1 78 -654119882 -721407725 189891860 -541457910
            -1726938631 420537147 -1986487590 -655666022</internalNodes>
          <leafValues>
            -5.9372812509536743e-01 3.9242404699325562e-01</leafValues></_>
        <_>
          <internalNodes>
            0 -1 118 -1289760549 520589560 1078035345 1426915402
            -125574757 1908948992 813957330 1399567131</internalNodes>
          <leafValues>
            -5.3704005479812622e-01 4.2855322360992432e-01</leafValues></_>
        <_>
          <internalNodes>
            0 -1 29 -774156117 -516714494 -2122248167 375097370
            -2008086742 -2147336030 -1993833660 -941102143</internalNodes>
          <leafValues>
            -5.7928812503814697e-01 4.2703813314437866e-01</leafValues></_>
        <_>
          <internalNodes>
            0 -1 19 1410060492 1442142244 -1811815700 -1669201390
            1082245256 -930987696 -635639143 -552828448</internalNodes>
          <leafValues>
            -6.1271941661834717e-01 3.9457586407661438e-01</leafValues></_>
        <_>
          <internalNodes>
            0 -1 5 1392833303 -251621222 -1514012653 -573669245 13406379
            1262911705 145131528 -572014073</internalNodes>
          <leafValues>
            -5.0286948680877686e-01 5.3199183940887451e-01</leafValues></_>
        <_>
          <internalNodes>
            0 -1 63 -1860281327 -1236844578 1744676531 1829092915
            -1632055078 -864550919 -952743941 -5300557</internalNodes>
          <leafValues>
            -3.7623992562294006e-01 6.6002726554870605e-01</leafValues></_></weakClassifiers></_>
    <!-- stage 17 -->
    <_>
      <maxWeakCount>7</maxWeakCount>
      <stageThreshold>-7.9877519607543945e-01</stageThreshold>
      <weakClassifiers>
        <_>
          <internalNodes>
            0 -1 6 -2109832462 -528318464 12714240 805454210 1074151442
            -1610612728 -754253685 -876474</internalNodes>
          <leafValues>
            -5.1499998569488525e-01 4.6545454859733582e-01</leafValues></_>
        <_>
          <internalNodes>
            0 -1 113 -1567423829 -1887239509 92602456 -540888951
            -790560330 -1983752063 1174013104 -221328899</internalNodes>
          <leafValues>
            -5.7925736904144287e-01 4.2364421486854553e-01</leafValues></_>
        <_>
          <internalNodes>
            0 -1 115 -683679053 -1280464973 720912304 -138697102 -643
            -163889 -688521220 -142612085</internalNodes>
          <leafValues>
            -3.6833131313323975e-01 6.5473020076751709e-01</leafValues></_>
        <_>
          <internalNodes>
            0 -1 93 1266911688 1468858595 1128415499 1359069321
            1377544204 2013731202 1082174089 456095482</internalNodes>
          <leafValues>
            -7.8578400611877441e-01 3.2718697190284729e-01</leafValues></_>
        <_>
          <internalNodes>
            0 -1 81 -984911707 -376979029 -1534520879 -11200443
            -1977611951 1101009024 -1039302519 1755881664</internalNodes>
          <leafValues>
            -6.3528501987457275e-01 3.7019872665405273e-01</leafValues></_>
        <_>
          <internalNodes>
            0 -1 104 -175459886 -1281191374 1637938467 -545196520
            -1476394869 -1056308095 -2138652154 -1460033462</internalNodes>
          <leafValues>
            -5.0542527437210083e-01 4.9841544032096863e-01</leafValues></_>
        <_>
          <internalNodes>
            0 -1 74 -59522241 1437918132 1393902830 1599192826
            -262341490 336782218 -1974891077 -796027475</internalNodes>
          <leafValues>
            -3.9853212237358093e-01 6.6272920370101929e-01</leafValues></_></weakClassifiers></_>
    <!-- stage 18 -->
    <_>
      <maxWeakCount>8</maxWeakCount>
      <stageThreshold>-1.4835770130157471e+00</stageThreshold>
      <weakClassifiers>
        <_>
          <internalNodes>
            0 -1 68 -49769058 -719161550 -1996284581 -677506418
            -858681314 135430798 768655534 1575884938</internalNodes>
          <leafValues>
            -6.6783219575881958e-01 3.6295181512832642e-01</leafValues></_>
        <_>
          <internalNodes>
            0 -1 108 -1281559629 -1357328124 -787791867 -59194939
            -1994536754 294174858 1631586473 -619990951</internalNodes>
          <leafValues>
            -5.6317555904388428e-01 4.0745410323143005e-01</leafValues></_>
        <_>
          <internalNodes>
            0 -1 77 -75055708 2098510679 1427135877 -577791663
            -2113811785 174180357 -2146821628 421077081</internalNodes>
          <leafValues>
            -6.1371344327926636e-01 3.5488653182983398e-01</leafValues></_>
        <_>
          <internalNodes>
            0 -1 98 -264138249 -715978879 -2147352295 -788119284
            -2105349925 -1308065088 143205291 525533834</internalNodes>
          <leafValues>
            -6.9547343254089355e-01 3.3526992797851563e-01</leafValues></_>
        <_>
          <internalNodes>
            0 -1 96 -787234007 1429310601 1118957527 1997907323
            1435555268 353633948 -733350370 -232025445</internalNodes>
          <leafValues>
            -3.5796877741813660e-01 7.2218739986419678e-01</leafValues></_>
        <_>
          <internalNodes>
            0 -1 42 -1726352252 -716111855 471408728 -1794035447
            67799546 1896548355 -535868774 -175524695</internalNodes>
          <leafValues>
            -5.5828398466110229e-01 4.5779940485954285e-01</leafValues></_>
        <_>
          <internalNodes>
            0 -1 57 -553012906 353407233 352686797 2098041862 1218021432
            -662069063 687987007 -890109352</internalNodes>
          <leafValues>
            -5.3067141771316528e-01 4.9073573946952820e-01</leafValues></_>
        <_>
          <internalNodes>
            0 -1 64 -65269128 1464306029 -988800888 252510222
            -1761016149 -15105906 1493472185 -2013125685</internalNodes>
          <leafValues>
            -5.1927900314331055e-01 4.8690339922904968e-01</leafValues></_></weakClassifiers></_>
    <!-- stage 19 -->
    <_>
      <maxWeakCount>9</maxWeakCount>
      <stageThreshold>-9.1894418001174927e-01</stageThreshold>
      <weakClassifiers>
        <_>
          <internalNodes>
            0 -1 67 -285212737 712376232 2012987391 -536936578 -41984227
            2146959221 -1258950659 -1813579778</internalNodes>
          <leafValues>
            -4.5622119307518005e-01 4.8062014579772949e-01</leafValues></_>
        <_>
          <internalNodes>
            0 -1 47 -1747732003 -36298601 1360502077 900176588
            1623231119 789776525 430033038 2097231912</internalNodes>
          <leafValues>
            -6.5925908088684082e-01 3.5586747527122498e-01</leafValues></_>
        <_>
          <internalNodes>
            0 -1 89 -1090793737 -524689 2130607668 2120214266 -992641296
            281434017 829697235 -1833444097</internalNodes>
          <leafValues>
            -4.6323940157890320e-01 5.0424838066101074e-01</leafValues></_>
        <_>
          <internalNodes>
            0 -1 119 -165739389 -1146104133 -268718926 524015675
            1601588432 528449049 239297756 -630732045</internalNodes>
          <leafValues>
            -4.3031311035156250e-01 5.6359022855758667e-01</leafValues></_>
        <_>
          <internalNodes>
            0 -1 46 290505387 956404498 50427203 -686815213 1676296718
            -1149108200 1208019899 -1862029165</internalNodes>
          <leafValues>
            -6.0224366188049316e-01 3.9616987109184265e-01</leafValues></_>
        <_>
          <internalNodes>
            0 -1 80 -703178122 -1492270410 286621956 1741000987
            1090619547 37915904 413761803 1463540207</internalNodes>
          <leafValues>
            -7.3162168264389038e-01 3.1908738613128662e-01</leafValues></_>
        <_>
          <internalNodes>
            0 -1 7 1539304107 -1020478132 -1082179808 904920891
            124256160 2137771712 391354475 -948961337</internalNodes>
          <leafValues>
            -5.0091689825057983e-01 5.2691572904586792e-01</leafValues></_>
        <_>
          <internalNodes>
            0 -1 114 -678111471 -767440739 -787656443 1902855110
            -2147368821 -1870528510 -1063153540 699477896</internalNodes>
          <leafValues>
            -5.9996396303176880e-01 4.3078491091728210e-01</leafValues></_>
        <_>
          <internalNodes>
            0 -1 90 -78396893 1701260061 637523413 1431657545 1599404540
            1979520894 1352891623 -714177549</internalNodes>
          <leafValues>
            -4.3507233262062073e-01 6.0518705844879150e-01</leafValues></_></weakClassifiers></_></stages>
  <features>
    <_>
      <rect>
        0 0 16 20</rect></_>
    <_>
      <rect>
        0 1 4 6</rect></_>
    <_>
      <rect>
        0 3 2 19</rect></_>
    <_>
      <rect>
        0 3 12 6</rect></_>
    <_>
      <rect>
        0 4 2 16</rect></_>
    <_>
      <rect>
        0 4 4 8</rect></_>
    <_>
      <rect>
        0 6 1 16</rect></_>
    <_>
      <rect>
        0 10 4 5</rect></_>
    <_>
      <rect>
        0 16 4 9</rect></_>
    <_>
      <rect>
        0 19 2 12</rect></_>
    <_>
      <rect>
        0 19 4 10</rect></_>
    <_>
      <rect>
        0 24 5 12</rect></_>
    <_>
      <rect>
        0 26 6 8</rect></_>
    <_>
      <rect>
        0 27 4 7</rect></_>
    <_>
      <rect>
        0 28 2 5</rect></_>
    <_>
      <rect>
        0 29 4 6</rect></_>
    <_>
      <rect>
        0 29 13 10</rect></_>
    <_>
      <rect>
        0 30 16 8</rect></_>
    <_>
      <rect>
        0 36 5 5</rect></_>
    <_>
      <rect>
        0 48 9 4</rect></_>
    <_>
      <rect>
        1 0 4 5</rect></_>
    <_>
      <rect>
        1 0 9 6</rect></_>
    <_>
      <rect>
        1 0 16 19</rect></_>
    <_>
      <rect>
        1 1 12 9</rect></_>
    <_>
      <rect>
        1 1 15 13</rect></_>
    <_>
      <rect>
        1 2 16 18</rect></_>
    <_>
      <rect>
        1 15 2 3</rect></_>
    <_>
      <rect>
        1 27 5 11</rect></_>
    <_>
      <rect>
        1 27 15 9</rect></_>
    <_>
      <rect>
        1 28 3 5</rect></_>
    <_>
      <rect>
        1 34 6 6</rect></_>
    <_>
      <rect>
        1 40 10 6</rect></_>
    <_>
      <rect>
        1 40 11 4</rect></_>
    <_>
      <rect>
        1 43 7 5</rect></_>
    <_>
      <rect>
        1 44 7 5</rect></_>
    <_>
      <rect>
        2 1 16 10</rect></_>
    <_>
      <rect>
        2 16 9 14</rect></_>
    <_>
      <rect>
        2 26 7 8</rect></_>
    <_>
      <rect>
        2 33 12 9</rect></_>
    <_>
      <rect>
        2 40 14 6</rect></_>
    <_>
      <rect>
        2 45 8 5</rect></_>
    <_>
      <rect>
        3 0 12 7</rect></_>
    <_>
      <rect>
        3 1 11 5</rect></_>
    <_>
      <rect>
        3 2 13 10</rect></_>
    <_>
      <rect>
        3 24 14 12</rect></_>
    <_>
      <rect>
        3 30 5 7</rect></_>
    <_>
      <rect>
        3 40 7 3</rect></_>
    <_>
      <rect>
        4 1 12 11</rect></_>
    <_>
      <rect>
        4 15 5 8</rect></_>
    <_>
      <rect>
        4 27 14 11</rect></_>
    <_>
      <rect>
        4 33 4 6</rect></_>
    <_>
      <rect>
        4 43 13 5</rect></_>
    <_>
      <rect>
        6 0 7 3</rect></_>
    <_>
      <rect>
        6 46 10 4</rect></_>
    <_>
      <rect>
        6 48 4 4</rect></_>
    <_>
      <rect>
        7 32 13 8</rect></_>
    <_>
      <rect>
        7 33 4 5</rect></_>
    <_>
      <rect>
        7 48 7 4</rect></_>
    <_>
      <rect>
        8 6 13 18</rect></_>
    <_>
      <rect>
        9 46 6 4</rect></_>
    <_>
      <rect>
        10 0 13 9</rect></_>
    <_>
      <rect>
        10 3 3 14</rect></_>
    <_>
      <rect>
        10 12 2 7</rect></_>
    <_>
      <rect>
        12 1 3 3</rect></_>
    <_>
      <rect>
        12 27 7 4</rect></_>
    <_>
      <rect>
        13 2 4 3</rect></_>
    <_>
      <rect>
        13 33 12 9</rect></_>
    <_>
      <rect>
        13 45 7 3</rect></_>
    <_>
      <rect>
        14 0 11 10</rect></_>
    <_>
      <rect>
        14 1 11 10</rect></_>
    <_>
      <rect>
        14 34 12 8</rect></_>
    <_>
      <rect>
        14 36 12 8</rect></_>
    <_>
      <rect>
        15 42 11 6</rect></_>
    <_>
      <rect>
        16 3 11 7</rect></_>
    <_>
      <rect>
        16 17 3 9</rect></_>
    <_>
      <rect>
        17 1 11 5</rect></_>
    <_>
      <rect>
        17 42 11 5</rect></_>
    <_>
      <rect>
        17 45 11 5</rect></_>
    <_>
      <rect>
        18 1 10 8</rect></_>
    <_>
      <rect>
        18 3 10 6</rect></_>
    <_>
      <rect>
        18 21 3 4</rect></_>
    <_>
      <rect>
        18 45 8 3</rect></_>
    <_>
      <rect>
        19 22 3 3</rect></_>
    <_>
      <rect>
        19 29 2 1</rect></_>
    <_>
      <rect>
        20 6 10 15</rect></_>
    <_>
      <rect>
        20 26 2 2</rect></_>
    <_>
      <rect>
        20 26 3 2</rect></_>
    <_>
      <rect>
        20 39 9 7</rect></_>
    <_>
      <rect>
        22 25 2 2</rect></_>
    <_>
      <rect>
        24 7 4 2</rect></_>
    <_>
      <rect>
        24 16 3 9</rect></_>
    <_>
      <rect>
        24 26 1 2</rect></_>
    <_>
      <rect>
        24 29 2 2</rect></_>
    <_>
      <rect>
        25 23 2 3</rect></_>
    <_>
      <rect>
        25 26 2 2</rect></_>
    <_>
      <rect>
        25 27 2 2</rect></_>
    <_>
      <rect>
        26 12 2 10</rect></_>
    <_>
      <rect>
        26 27 2 2</rect></_>
    <_>
      <rect>
        26 29 1 1</rect></_>
    <_>
      <rect>
        29 39 6 4</rect></_>
    <_>
      <rect>
        30 27 6 6</rect></_>
    <_>
      <rect>
        32 29 4 6</rect></_>
    <_>
      <rect>
        33 12 4 6</rect></_>
    <_>
      <rect>
        33 37 3 5</rect></_>
    <_>
      <rect>
        34 42 5 6</rect></_>
    <_>
      <rect>
        35 29 4 5</rect></_>
    <_>
      <rect>
        35 31 5 9</rect></_>
    <_>
      <rect>
        35 32 5 8</rect></_>
    <_>
      <rect>
        35 34 3 5</rect></_>
    <_>
      <rect>
        36 1 4 19</rect></_>
    <_>
      <rect>
        38 28 4 8</rect></_>
    <_>
      <rect>
        38 30 4 5</rect></_>
    <_>
      <rect>
        38 30 4 9</rect></_>
    <_>
      <rect>
        41 19 3 6</rect></_>
    <_>
      <rect>
        41 21 3 13</rect></_>
    <_>
      <rect>
        41 24 3 7</rect></_>
    <_>
      <rect>
        41 27 3 7</rect></_>
    <_>
      <rect>
        41 36 3 4</rect></_>
    <_>
      <rect>
        42 36 1 2</rect></_>
    <_>
      <rect>
        44 13 2 6</rect></_>
    <_>
      <rect>
        47 18 1 4</rect></_></features></cascade>
</opencv_storage>
