<?xml version="1.0"?>
<opencv_storage>
<cascade>
  <stageType>BOOST</stageType>
  <featureType>LBP</featureType>
  <height>60</height>
  <width>50</width>
  <stageParams>
    <boostType>GAB</boostType>
    <minHitRate>9.9900001287460327e-01</minHitRate>
    <maxFalseAlarm>5.0000000000000000e-01</maxFalseAlarm>
    <weightTrimRate>9.4999999999999996e-01</weightTrimRate>
    <maxDepth>1</maxDepth>
    <maxWeakCount>100</maxWeakCount></stageParams>
  <featureParams>
    <maxCatCount>256</maxCatCount>
    <featSize>1</featSize></featureParams>
  <stageNum>20</stageNum>
  <stages>
    <!-- stage 0 -->
    <_>
      <maxWeakCount>3</maxWeakCount>
      <stageThreshold>-9.3304222822189331e-01</stageThreshold>
      <weakClassifiers>
        <_>
          <internalNodes>
            0 -1 29 -169872385 -748988077 826611539 1427358467 805884347
            -1122303991 1393025707 1465103243</internalNodes>
          <leafValues>
            -8.8377726078033447e-01 7.7281188964843750e-01</leafValues></_>
        <_>
          <internalNodes>
            0 -1 16 -687474689 1459722176 -785012333 2108657949
            1346928783 151060928 1575752367 -1615885649</internalNodes>
          <leafValues>
            -7.6375395059585571e-01 8.4852999448776245e-01</leafValues></_>
        <_>
          <internalNodes>
            0 -1 25 1506052102 -2285951 -2118086185 -135069345
            1142950665 1210067598 1883900907 -537222165</internalNodes>
          <leafValues>
            -8.3114451169967651e-01 7.1448898315429688e-01</leafValues></_></weakClassifiers></_>
    <!-- stage 1 -->
    <_>
      <maxWeakCount>4</maxWeakCount>
      <stageThreshold>-1.6642053127288818e+00</stageThreshold>
      <weakClassifiers>
        <_>
          <internalNodes>
            0 -1 27 -539100193 -711463007 1665389383 2136204605
            2071849675 -963837821 1766189307 1566440127</internalNodes>
          <leafValues>
            -8.5714286565780640e-01 7.1143376827239990e-01</leafValues></_>
        <_>
          <internalNodes>
            0 -1 23 -580920833 1560346773 -788183817 -14860257
            1140884106 1329596618 -1582965269 -3435345</internalNodes>
          <leafValues>
            -6.7111778259277344e-01 6.8087673187255859e-01</leafValues></_>
        <_>
          <internalNodes>
            0 -1 0 -70000654 -40660588 16974164 -1894690400 -1006580837
            -1076720958 2064038638 -549196892</internalNodes>
          <leafValues>
            -7.1493101119995117e-01 6.5933597087860107e-01</leafValues></_>
        <_>
          <internalNodes>
            0 -1 77 -708063010 -679684710 -1593835386 -41250552
            -649541394 -1125480118 -200898405 -665925410</internalNodes>
          <leafValues>
            -7.8589379787445068e-01 5.7898634672164917e-01</leafValues></_></weakClassifiers></_>
    <!-- stage 2 -->
    <_>
      <maxWeakCount>3</maxWeakCount>
      <stageThreshold>-8.7880074977874756e-01</stageThreshold>
      <weakClassifiers>
        <_>
          <internalNodes>
            0 -1 34 -33685505 387309300 -519356417 -4194433 268541902
            503586782 -762707969 -815800337</internalNodes>
          <leafValues>
            -6.7721521854400635e-01 7.7941179275512695e-01</leafValues></_>
        <_>
          <internalNodes>
            0 -1 2 1499561459 -583826491 49235 -1273765745 -1421506321
            -359268344 -2147123025 -255332149</internalNodes>
          <leafValues>
            -7.1991497278213501e-01 6.8757671117782593e-01</leafValues></_>
        <_>
          <internalNodes>
            0 -1 81 -115346465 -1660439917 352444885 1066911489
            -1845327633 411631752 105215 1044959</internalNodes>
          <leafValues>
            -8.8916230201721191e-01 5.2251446247100830e-01</leafValues></_></weakClassifiers></_>
    <!-- stage 3 -->
    <_>
      <maxWeakCount>3</maxWeakCount>
      <stageThreshold>-8.1717491149902344e-01</stageThreshold>
      <weakClassifiers>
        <_>
          <internalNodes>
            0 -1 76 -1475631704 285282368 1476477275 1996718109
            -381122053 -87941094 -2004623157 -69226045</internalNodes>
          <leafValues>
            -7.3923444747924805e-01 6.7481201887130737e-01</leafValues></_>
        <_>
          <internalNodes>
            0 -1 28 -245640745 -137691129 1361154393 -244887217
            -1584562015 -544505587 -1333408805 -772295685</internalNodes>
          <leafValues>
            -6.6991102695465088e-01 6.9341248273849487e-01</leafValues></_>
        <_>
          <internalNodes>
            0 -1 24 -547945976 -740310633 1224806425 -78134719
            1073744793 -343207927 705610719 -2367061</internalNodes>
          <leafValues>
            -7.7135294675827026e-01 6.0304069519042969e-01</leafValues></_></weakClassifiers></_>
    <!-- stage 4 -->
    <_>
      <maxWeakCount>5</maxWeakCount>
      <stageThreshold>-1.0503257513046265e+00</stageThreshold>
      <weakClassifiers>
        <_>
          <internalNodes>
            0 -1 43 -36702209 353497237 1015271911 -1623502847
            1091600895 992838842 184634571 999936011</internalNodes>
          <leafValues>
            -8.0938833951950073e-01 5.5889725685119629e-01</leafValues></_>
        <_>
          <internalNodes>
            0 -1 50 -414056515 1609761165 1560347788 1057444100
            -783029831 -183271256 155569038 2134215112</internalNodes>
          <leafValues>
            -7.1376889944076538e-01 5.6923419237136841e-01</leafValues></_>
        <_>
          <internalNodes>
            0 -1 90 -738488437 -117266287 1124073491 -772833000
            276994203 252952583 1753968777 1397728219</internalNodes>
          <leafValues>
            -7.0210760831832886e-01 5.3237104415893555e-01</leafValues></_>
        <_>
          <internalNodes>
            0 -1 101 -744230256 -805297664 -1056946112 -947822336
            -1069383546 134283266 1526845450 -586722429</internalNodes>
          <leafValues>
            -6.3755983114242554e-01 6.6414445638656616e-01</leafValues></_>
        <_>
          <internalNodes>
            0 -1 19 -690822932 -1035255805 1073758601 1573441667
            2013790412 65536 269107210 -615650357</internalNodes>
          <leafValues>
            -6.4745628833770752e-01 5.7802021503448486e-01</leafValues></_></weakClassifiers></_>
    <!-- stage 5 -->
    <_>
      <maxWeakCount>5</maxWeakCount>
      <stageThreshold>-9.7946262359619141e-01</stageThreshold>
      <weakClassifiers>
        <_>
          <internalNodes>
            0 -1 83 -687710819 1963229462 -1811873121 487670440
            -1849360245 1085602 -1454702417 185549039</internalNodes>
          <leafValues>
            -7.0955413579940796e-01 5.8923768997192383e-01</leafValues></_>
        <_>
          <internalNodes>
            0 -1 36 -1068173074 -35829569 -533964774 -762920869
            -263110520 -922611190 -88036630 -275846373</internalNodes>
          <leafValues>
            -6.6833275556564331e-01 5.6038725376129150e-01</leafValues></_>
        <_>
          <internalNodes>
            0 -1 12 1448473599 1527896467 -1524934523 -665736350
            1477819375 59777156 -119741469 177850350</internalNodes>
          <leafValues>
            -8.1344181299209595e-01 4.7080367803573608e-01</leafValues></_>
        <_>
          <internalNodes>
            0 -1 8 -4313 1818941932 528482083 1532602084 -1686386753
            -1888004382 -1552431583 -403191145</internalNodes>
          <leafValues>
            -6.1226761341094971e-01 6.4899307489395142e-01</leafValues></_>
        <_>
          <internalNodes>
            0 -1 85 -586838098 1057231056 1073813504 -1618003772 8496271
            1208483978 -911957846 -1903193481</internalNodes>
          <leafValues>
            -6.8883180618286133e-01 5.8674216270446777e-01</leafValues></_></weakClassifiers></_>
    <!-- stage 6 -->
    <_>
      <maxWeakCount>5</maxWeakCount>
      <stageThreshold>-1.2847909927368164e+00</stageThreshold>
      <weakClassifiers>
        <_>
          <internalNodes>
            0 -1 84 -1786521421 429232146 272712789 352780432 -788416359
            437952898 541432456 162466315</internalNodes>
          <leafValues>
            -7.7811551094055176e-01 4.9275362491607666e-01</leafValues></_>
        <_>
          <internalNodes>
            0 -1 45 -100161313 1562314867 705890591 534974993
            -1467864161 714735771 134683291 552026695</internalNodes>
          <leafValues>
            -8.5961365699768066e-01 3.6855614185333252e-01</leafValues></_>
        <_>
          <internalNodes>
            0 -1 48 -183123828 -44859233 156335383 -553574305 268701177
            -66778990 -1148476529 -343228021</internalNodes>
          <leafValues>
            -6.9065713882446289e-01 5.1479613780975342e-01</leafValues></_>
        <_>
          <internalNodes>
            0 -1 58 286319032 1199685762 335741685 362500418 9437595
            -47545206 436838587 -11550587</internalNodes>
          <leafValues>
            -6.3717800378799438e-01 5.8503568172454834e-01</leafValues></_>
        <_>
          <internalNodes>
            0 -1 92 -619269666 -607813592 285278419 2003915274
            1484833001 673220744 1091307912 319785103</internalNodes>
          <leafValues>
            -7.5284981727600098e-01 4.6032693982124329e-01</leafValues></_></weakClassifiers></_>
    <!-- stage 7 -->
    <_>
      <maxWeakCount>5</maxWeakCount>
      <stageThreshold>-1.0348742008209229e+00</stageThreshold>
      <weakClassifiers>
        <_>
          <internalNodes>
            0 -1 13 -11056059 -687612085 -1072671717 1996706058
            -276706531 -1006497397 554797148 1901011271</internalNodes>
          <leafValues>
            -7.5840979814529419e-01 4.7833067178726196e-01</leafValues></_>
        <_>
          <internalNodes>
            0 -1 89 -548930049 1460834749 1359024605 1539883026
            1498916920 -376731503 -1974959178 2027920023</internalNodes>
          <leafValues>
            -7.6049768924713135e-01 4.4705593585968018e-01</leafValues></_>
        <_>
          <internalNodes>
            0 -1 98 -1852049488 -1484615137 101765556 -469051326
            -938698065 -1884744560 1629092057 -3153713</internalNodes>
          <leafValues>
            -6.8878805637359619e-01 5.1588904857635498e-01</leafValues></_>
        <_>
          <internalNodes>
            0 -1 33 -682278891 -1049914365 92691 1603359891 -1023202166
            -368834397 318810008 -1151601792</internalNodes>
          <leafValues>
            -6.3526523113250732e-01 5.8188021183013916e-01</leafValues></_>
        <_>
          <internalNodes>
            0 -1 30 218226994 1340609536 1342669843 -977200894 587532799
            -879853327 -130963029 -806507853</internalNodes>
          <leafValues>
            -6.0414421558380127e-01 6.1622613668441772e-01</leafValues></_></weakClassifiers></_>
    <!-- stage 8 -->
    <_>
      <maxWeakCount>5</maxWeakCount>
      <stageThreshold>-1.0790802240371704e+00</stageThreshold>
      <weakClassifiers>
        <_>
          <internalNodes>
            0 -1 6 -2017281 2060919231 279168415 899900726 -366982401
            2092260279 1116631039 1199527251</internalNodes>
          <leafValues>
            -9.0476191043853760e-01 4.3870013952255249e-01</leafValues></_>
        <_>
          <internalNodes>
            0 -1 102 -646321359 1506292400 1300466500 -276274080
            1630006203 717816338 -1059912859 -14899</internalNodes>
          <leafValues>
            -6.2881803512573242e-01 5.4395014047622681e-01</leafValues></_>
        <_>
          <internalNodes>
            0 -1 91 -684262469 -71077485 272830664 1562653794 1476628657
            -1799255670 329437439 1480007743</internalNodes>
          <leafValues>
            -6.9450962543487549e-01 4.8286718130111694e-01</leafValues></_>
        <_>
          <internalNodes>
            0 -1 86 -258056868 -673082509 143693244 -73657838 -392703926
            -634189667 -1072542134 -1864369713</internalNodes>
          <leafValues>
            -6.1846482753753662e-01 5.7122796773910522e-01</leafValues></_>
        <_>
          <internalNodes>
            0 -1 57 -607274070 1433779061 -1322674169 -8246398
            1283648250 1503373742 2095659465 -33823277</internalNodes>
          <leafValues>
            -5.9498673677444458e-01 6.0134804248809814e-01</leafValues></_></weakClassifiers></_>
    <!-- stage 9 -->
    <_>
      <maxWeakCount>7</maxWeakCount>
      <stageThreshold>-8.5904353857040405e-01</stageThreshold>
      <weakClassifiers>
        <_>
          <internalNodes>
            0 -1 49 -841887779 -40793571 724666744 1059424204 1300875503
            -894400375 -658453812 1868898984</internalNodes>
          <leafValues>
            -7.1639585494995117e-01 4.7833198308944702e-01</leafValues></_>
        <_>
          <internalNodes>
            0 -1 78 -454299729 2000313777 2147476853 -675455523 -2
            2138961781 -134217730 -42076716</internalNodes>
          <leafValues>
            -5.3131198883056641e-01 6.2407886981964111e-01</leafValues></_>
        <_>
          <internalNodes>
            0 -1 41 -184509957 -1756296931 -469673763 -451467263
            -1876238949 -1082013541 -595567365 -536671037</internalNodes>
          <leafValues>
            -6.6033065319061279e-01 5.1717478036880493e-01</leafValues></_>
        <_>
          <internalNodes>
            0 -1 7 -1605596934 -209122240 268567041 -1857652735
            -1073655798 311296 -1023213430 -872496850</internalNodes>
          <leafValues>
            -5.7030266523361206e-01 6.0659313201904297e-01</leafValues></_>
        <_>
          <internalNodes>
            0 -1 47 2110720751 -750661309 1351651677 824378241 -91111087
            -2142926711 -519179617 -209079574</internalNodes>
          <leafValues>
            -6.0167241096496582e-01 5.7765847444534302e-01</leafValues></_>
        <_>
          <internalNodes>
            0 -1 56 -609234009 1673691660 272711697 1137558425
            -584446824 712848 1124713586 -1278490927</internalNodes>
          <leafValues>
            -6.1707717180252075e-01 5.6410133838653564e-01</leafValues></_>
        <_>
          <internalNodes>
            0 -1 26 -71641052 1563918928 -738078636 -664661694 335584488
            956301441 -2071922438 -90121557</internalNodes>
          <leafValues>
            -6.7418003082275391e-01 5.1834595203399658e-01</leafValues></_></weakClassifiers></_>
    <!-- stage 10 -->
    <_>
      <maxWeakCount>5</maxWeakCount>
      <stageThreshold>-7.1213811635971069e-01</stageThreshold>
      <weakClassifiers>
        <_>
          <internalNodes>
            0 -1 62 -145855220 -688139 2012310527 2013233151 1549598653
            -536936452 -55836673 -18186241</internalNodes>
          <leafValues>
            -5.5629879236221313e-01 5.9720838069915771e-01</leafValues></_>
        <_>
          <internalNodes>
            0 -1 40 -1601117254 -851389344 1360003292 -1651130368
            16974015 -1718737784 -1736406537 -90193262</internalNodes>
          <leafValues>
            -6.1771667003631592e-01 5.2969783544540405e-01</leafValues></_>
        <_>
          <internalNodes>
            0 -1 107 -336598901 -2055012349 -1610543084 2057285806
            -653551606 -1734836095 -1070989134 -771043121</internalNodes>
          <leafValues>
            -5.9430295228958130e-01 5.5377048254013062e-01</leafValues></_>
        <_>
          <internalNodes>
            0 -1 99 -128486637 -1862234494 -788376940 1560470272
            -2128377717 -1845460981 -2121991771 -2143923</internalNodes>
          <leafValues>
            -5.9394383430480957e-01 5.4471421241760254e-01</leafValues></_>
        <_>
          <internalNodes>
            0 -1 52 -238566929 1359626432 -2138767279 272859272
            -1065287153 229506 1086554243 1729614589</internalNodes>
          <leafValues>
            -6.2960362434387207e-01 5.1146608591079712e-01</leafValues></_></weakClassifiers></_>
    <!-- stage 11 -->
    <_>
      <maxWeakCount>6</maxWeakCount>
      <stageThreshold>-1.5643882751464844e+00</stageThreshold>
      <weakClassifiers>
        <_>
          <internalNodes>
            0 -1 61 1359219741 -14948681 511920129 981643540 177775039
            -90455413 1556728491 730567374</internalNodes>
          <leafValues>
            -6.8249255418777466e-01 4.5676997303962708e-01</leafValues></_>
        <_>
          <internalNodes>
            0 -1 3 -1967993614 -1114592 -282641 -37 503275007
            -1073783169 -268476929 -10757</internalNodes>
          <leafValues>
            -5.3084969520568848e-01 5.9839600324630737e-01</leafValues></_>
        <_>
          <internalNodes>
            0 -1 73 -665085634 1359089665 -721372907 -36871154
            -326456914 -117432309 2089871550 2112784618</internalNodes>
          <leafValues>
            -6.3368552923202515e-01 4.7153982520103455e-01</leafValues></_>
        <_>
          <internalNodes>
            0 -1 75 -1381313638 286294168 -779828951 324600057
            -930840342 -226164539 -2133999479 1062459645</internalNodes>
          <leafValues>
            -8.0619049072265625e-01 3.9557039737701416e-01</leafValues></_>
        <_>
          <internalNodes>
            0 -1 111 -597737341 -1212991943 -298062028 -8397762
            1316949752 -1084330341 1444377980 -283649901</internalNodes>
          <leafValues>
            -5.3769779205322266e-01 6.0693347454071045e-01</leafValues></_>
        <_>
          <internalNodes>
            0 -1 39 77064390 -749350729 -1072442632 1881145674
            1082265737 1637388428 -1964995332 -1205481267</internalNodes>
          <leafValues>
            -7.0757913589477539e-01 4.2476698756217957e-01</leafValues></_></weakClassifiers></_>
    <!-- stage 12 -->
    <_>
      <maxWeakCount>6</maxWeakCount>
      <stageThreshold>-1.4270404577255249e+00</stageThreshold>
      <weakClassifiers>
        <_>
          <internalNodes>
            0 -1 22 -29374277 -302006425 -8442098 2079981547 -16917160
            -362414087 -164758204 -140771393</internalNodes>
          <leafValues>
            -4.5815899968147278e-01 5.6991523504257202e-01</leafValues></_>
        <_>
          <internalNodes>
            0 -1 108 -71303261 -1421873630 578284098 333499590
            -1350828033 1879043039 1941929922 -281</internalNodes>
          <leafValues>
            -4.6589335799217224e-01 5.8647412061691284e-01</leafValues></_>
        <_>
          <internalNodes>
            0 -1 31 -782800603 1507860544 -1056914403 -1815926764
            -528414439 -1632960347 -1454159611 1072634877</internalNodes>
          <leafValues>
            -8.1479144096374512e-01 3.5171982645988464e-01</leafValues></_>
        <_>
          <internalNodes>
            0 -1 59 119071394 -1358507504 21500185 -2130345856 11026603
            -1744631142 80300255 -542584377</internalNodes>
          <leafValues>
            -5.9169137477874756e-01 4.8342984914779663e-01</leafValues></_>
        <_>
          <internalNodes>
            0 -1 93 -742007623 1363460125 805380553 1973911579
            1090750603 1612832881 1453384171 1596138239</internalNodes>
          <leafValues>
            -7.3914450407028198e-01 3.8292992115020752e-01</leafValues></_>
        <_>
          <internalNodes>
            0 -1 63 -1685335282 -722427904 260112894 -1067876095
            -1618285368 177602701 1929628329 -1615890359</internalNodes>
          <leafValues>
            -6.4594644308090210e-01 4.5144686102867126e-01</leafValues></_></weakClassifiers></_>
    <!-- stage 13 -->
    <_>
      <maxWeakCount>7</maxWeakCount>
      <stageThreshold>-9.8932063579559326e-01</stageThreshold>
      <weakClassifiers>
        <_>
          <internalNodes>
            0 -1 103 -76595533 -202967118 -1073745948 -305599000 -1
            -16385 1610596343 -1050659</internalNodes>
          <leafValues>
            -4.3605235219001770e-01 5.8765161037445068e-01</leafValues></_>
        <_>
          <internalNodes>
            0 -1 4 -1648196966 1480679443 -2147418111 -251473918
            -1031647222 -2147352576 -1056780277 -686914830</internalNodes>
          <leafValues>
            -5.3318935632705688e-01 5.0699144601821899e-01</leafValues></_>
        <_>
          <internalNodes>
            0 -1 97 -1784940645 -1962851006 -1744633714 -998141712
            -2088659771 1358954752 -788430711 1454883899</internalNodes>
          <leafValues>
            -7.1834337711334229e-01 3.8548430800437927e-01</leafValues></_>
        <_>
          <internalNodes>
            0 -1 74 -785975954 1067040778 54547731 -645623270
            -1996277746 187171201 1821160330 -39159670</internalNodes>
          <leafValues>
            -5.7666277885437012e-01 5.2400517463684082e-01</leafValues></_>
        <_>
          <internalNodes>
            0 -1 82 -219647313 487626768 889237533 1436324057
            -2105501139 311984267 1183040671 352049391</internalNodes>
          <leafValues>
            -7.2656238079071045e-01 3.7210127711296082e-01</leafValues></_>
        <_>
          <internalNodes>
            0 -1 1 -250366548 -753825507 -2080335524 -248446644
            -1131773521 -288685687 -115299640 -369625080</internalNodes>
          <leafValues>
            -5.8038294315338135e-01 5.1421105861663818e-01</leafValues></_>
        <_>
          <internalNodes>
            0 -1 46 -102891777 1427473061 -1803550590 1359028234
            436365468 483011109 -1328873335 -827619047</internalNodes>
          <leafValues>
            -6.4025318622589111e-01 5.2758026123046875e-01</leafValues></_></weakClassifiers></_>
    <!-- stage 14 -->
    <_>
      <maxWeakCount>7</maxWeakCount>
      <stageThreshold>-8.0834966897964478e-01</stageThreshold>
      <weakClassifiers>
        <_>
          <internalNodes>
            0 -1 35 1155199228 -615972645 2084602392 -1873012479
            -321681272 -662592885 -341251352 -1373494321</internalNodes>
          <leafValues>
            -6.1344540119171143e-01 4.5362561941146851e-01</leafValues></_>
        <_>
          <internalNodes>
            0 -1 17 -505461997 -442895616 1358971159 1295340085
            -2139071718 -1048526591 453638912 -215254586</internalNodes>
          <leafValues>
            -6.5925842523574829e-01 4.0669539570808411e-01</leafValues></_>
        <_>
          <internalNodes>
            0 -1 60 1527373279 1503466271 489801583 -1917507367
            -916880727 53673987 1753264780 2032238216</internalNodes>
          <leafValues>
            -6.9676077365875244e-01 3.7202897667884827e-01</leafValues></_>
        <_>
          <internalNodes>
            0 -1 104 2146033139 -101940254 -285823388 -303453208
            -8439811 -268451841 -268959760 -1074279683</internalNodes>
          <leafValues>
            -5.0693112611770630e-01 5.6526207923889160e-01</leafValues></_>
        <_>
          <internalNodes>
            0 -1 100 -10516261 -276880665 1831297903 1349725823
            1052175528 108459391 1446948703 -684268689</internalNodes>
          <leafValues>
            -4.8788771033287048e-01 5.6564247608184814e-01</leafValues></_>
        <_>
          <internalNodes>
            0 -1 10 -1686140101 -1947664426 -25199809 -759169036
            -168068167 -1237451918 -143140725 -1033896033</internalNodes>
          <leafValues>
            -4.5472463965415955e-01 6.5562790632247925e-01</leafValues></_>
        <_>
          <internalNodes>
            0 -1 95 1152059412 319914001 277938190 989941773 314740763
            -83770877 -654141301 272219025</internalNodes>
          <leafValues>
            -5.7589668035507202e-01 5.2590733766555786e-01</leafValues></_></weakClassifiers></_>
    <!-- stage 15 -->
    <_>
      <maxWeakCount>9</maxWeakCount>
      <stageThreshold>-9.3774044513702393e-01</stageThreshold>
      <weakClassifiers>
        <_>
          <internalNodes>
            0 -1 38 -642458228 -174947824 17781163 -49958133 46844924
            15897265 -489978902 -1969835720</internalNodes>
          <leafValues>
            -5.7750344276428223e-01 4.4491887092590332e-01</leafValues></_>
        <_>
          <internalNodes>
            0 -1 68 -1521757794 201531674 286716235 630456326 135167422
            -550764226 -2001851989 -1514225494</internalNodes>
          <leafValues>
            -5.9896039962768555e-01 3.9835709333419800e-01</leafValues></_>
        <_>
          <internalNodes>
            0 -1 80 -276118610 2031714577 -486108779 -37003071
            -1966962470 198107300 -1064058866 -208723212</internalNodes>
          <leafValues>
            -5.7608258724212646e-01 4.5289349555969238e-01</leafValues></_>
        <_>
          <internalNodes>
            0 -1 9 -667989 -1882423572 1543503650 2003951484 41615074
            -1484941585 65510675 -606093717</internalNodes>
          <leafValues>
            -4.8533529043197632e-01 5.5287832021713257e-01</leafValues></_>
        <_>
          <internalNodes>
            0 -1 105 -1281370189 18022416 -2147401313 1611859600
            -343096589 170412547 -972963589 1381638234</internalNodes>
          <leafValues>
            -7.2373014688491821e-01 3.5779961943626404e-01</leafValues></_>
        <_>
          <internalNodes>
            0 -1 106 -1365780557 -1349009266 -1543221004 495698062
            -800460049 -1878060928 -662454032 -633869291</internalNodes>
          <leafValues>
            -6.2597018480300903e-01 4.3897107243537903e-01</leafValues></_>
        <_>
          <internalNodes>
            0 -1 54 -1509268690 -453803497 402719000 -214482686
            -1207398151 -670529280 436273547 -1142560010</internalNodes>
          <leafValues>
            -5.5384981632232666e-01 5.1377838850021362e-01</leafValues></_>
        <_>
          <internalNodes>
            0 -1 88 -754335441 1129667309 1296236238 1601533935
            1469917166 688252893 604844403 -1052574821</internalNodes>
          <leafValues>
            -4.5367726683616638e-01 6.6071015596389771e-01</leafValues></_>
        <_>
          <internalNodes>
            0 -1 96 -1593406785 -109265475 -1082410083 2146795345 -769
            -1486897417 2112692223 -1308625835</internalNodes>
          <leafValues>
            -4.9523994326591492e-01 5.7268756628036499e-01</leafValues></_></weakClassifiers></_>
    <!-- stage 16 -->
    <_>
      <maxWeakCount>7</maxWeakCount>
      <stageThreshold>-6.9797134399414063e-01</stageThreshold>
      <weakClassifiers>
        <_>
          <internalNodes>
            0 -1 14 -283161060 -252701945 1073855241 2065768715
            -173818087 -936214015 965327624 457511680</internalNodes>
          <leafValues>
            -7.8217822313308716e-01 3.5483869910240173e-01</leafValues></_>
        <_>
          <internalNodes>
            0 -1 71 -1321133 1037344049 2143025082 -67142088 251531259
            -622002177 1341120232 -813695051</internalNodes>
          <leafValues>
            -4.2951235175132751e-01 5.9515208005905151e-01</leafValues></_>
        <_>
          <internalNodes>
            0 -1 87 -1041499373 -716578103 1342357651 -140148717
            1132580506 -401473535 738247403 304587267</internalNodes>
          <leafValues>
            -6.6115880012512207e-01 3.8196882605552673e-01</leafValues></_>
        <_>
          <internalNodes>
            0 -1 18 -14801 1874853287 2130689306 1933557723 -1145045860
            -1351370754 -739991606 -36306953</internalNodes>
          <leafValues>
            -3.8242068886756897e-01 6.8060702085494995e-01</leafValues></_>
        <_>
          <internalNodes>
            0 -1 66 -1920076394 -48215791 -1155431161 -1794047886
            -385173286 965389506 1166052282 -1850170702</internalNodes>
          <leafValues>
            -6.7098945379257202e-01 4.1548499464988708e-01</leafValues></_>
        <_>
          <internalNodes>
            0 -1 5 -1610961379 2128478044 -268435595 -12599380 -8519681
            1879048188 -16777345 -1619294449</internalNodes>
          <leafValues>
            -5.2790671586990356e-01 5.5523335933685303e-01</leafValues></_>
        <_>
          <internalNodes>
            0 -1 112 -276832238 -1226147590 1065252357 2143256496
            2012676746 1475638772 609488833 -214726721</internalNodes>
          <leafValues>
            -3.9122295379638672e-01 6.8840283155441284e-01</leafValues></_></weakClassifiers></_>
    <!-- stage 17 -->
    <_>
      <maxWeakCount>6</maxWeakCount>
      <stageThreshold>-7.9125559329986572e-01</stageThreshold>
      <weakClassifiers>
        <_>
          <internalNodes>
            0 -1 72 168733114 357896917 -1660034809 -70811387
            -1304720705 -606199557 -1476360050 1930362894</internalNodes>
          <leafValues>
            -6.9594591856002808e-01 3.9143732190132141e-01</leafValues></_>
        <_>
          <internalNodes>
            0 -1 110 -8141968 -243171327 -2121727999 -243152633 182441
            -402587645 -1438464854 -23339056</internalNodes>
          <leafValues>
            -4.7256019711494446e-01 5.1370137929916382e-01</leafValues></_>
        <_>
          <internalNodes>
            0 -1 53 -128499053 -393506802 -1946078465 -1652223522
            -175377599 1107823232 -209082157 -1750171485</internalNodes>
          <leafValues>
            -5.3082704544067383e-01 4.7510716319084167e-01</leafValues></_>
        <_>
          <internalNodes>
            0 -1 11 -1042693875 -2122166014 1359014161 1348028248
            566259801 -1607879542 1086417105 374069957</internalNodes>
          <leafValues>
            -7.3648095130920410e-01 3.6521431803703308e-01</leafValues></_>
        <_>
          <internalNodes>
            0 -1 44 -1945079888 199636880 -1857470003 -1789031792
            1755939227 466976932 -535981499 -805715515</internalNodes>
          <leafValues>
            -7.1900939941406250e-01 3.0880424380302429e-01</leafValues></_>
        <_>
          <internalNodes>
            0 -1 65 1364533013 -101613563 1075314697 -1319788528
            897819049 -33544055 -376930083 842255001</internalNodes>
          <leafValues>
            -7.0014780759811401e-01 3.4949269890785217e-01</leafValues></_></weakClassifiers></_>
    <!-- stage 18 -->
    <_>
      <maxWeakCount>7</maxWeakCount>
      <stageThreshold>-6.8194782733917236e-01</stageThreshold>
      <weakClassifiers>
        <_>
          <internalNodes>
            0 -1 15 -1074282405 2004842611 1324965695 1575875965 -24613
            -603981141 -1062022406 -87377766</internalNodes>
          <leafValues>
            -3.3625987172126770e-01 6.3469117879867554e-01</leafValues></_>
        <_>
          <internalNodes>
            0 -1 51 -85849778 2147353439 -297774766 -377125442
            -1902056961 424050873 421626191 -1198333493</internalNodes>
          <leafValues>
            -5.1879191398620605e-01 4.6776068210601807e-01</leafValues></_>
        <_>
          <internalNodes>
            0 -1 67 -791963685 -2130639742 16670 1363927201 814449165
            32899 16990799 25920169</internalNodes>
          <leafValues>
            -5.9361749887466431e-01 4.0553680062294006e-01</leafValues></_>
        <_>
          <internalNodes>
            0 -1 55 -1668190154 -1047289737 153355536 655450158
            -1266561857 1166737426 100866488 -249038534</internalNodes>
          <leafValues>
            -6.0077399015426636e-01 4.0189591050148010e-01</leafValues></_>
        <_>
          <internalNodes>
            0 -1 21 1962986716 -1324305659 1904214547 1342403075
            1518571480 269071489 -209596850 2046978315</internalNodes>
          <leafValues>
            -5.7372140884399414e-01 4.3132773041725159e-01</leafValues></_>
        <_>
          <internalNodes>
            0 -1 69 -1049097 -2038622372 -2015273089 1811504881
            -1991256857 124132558 -948197518 -1624244263</internalNodes>
          <leafValues>
            -5.0021636486053467e-01 5.3128153085708618e-01</leafValues></_>
        <_>
          <internalNodes>
            0 -1 94 -1811199187 -955776872 268519489 1365999708
            -1676623733 277872776 59146299 -80813665</internalNodes>
          <leafValues>
            -5.1522475481033325e-01 5.1830750703811646e-01</leafValues></_></weakClassifiers></_>
    <!-- stage 19 -->
    <_>
      <maxWeakCount>8</maxWeakCount>
      <stageThreshold>-1.0466331243515015e+00</stageThreshold>
      <weakClassifiers>
        <_>
          <internalNodes>
            0 -1 37 -1120421106 -49016815 290641043 -514256831
            1110882827 2397234 -1040137797 138575887</internalNodes>
          <leafValues>
            -7.7142858505249023e-01 3.3900707960128784e-01</leafValues></_>
        <_>
          <internalNodes>
            0 -1 64 -253435155 2031502197 152326839 -502655730
            -1467874116 -502656989 -1423796834 -1422928591</internalNodes>
          <leafValues>
            -4.8776814341545105e-01 4.4956994056701660e-01</leafValues></_>
        <_>
          <internalNodes>
            0 -1 42 269081103 1096389212 406863895 -862090944
            -2126282737 1359085966 1074417079 1204734632</internalNodes>
          <leafValues>
            -6.3022267818450928e-01 3.5042119026184082e-01</leafValues></_>
        <_>
          <internalNodes>
            0 -1 109 -1037 -437286297 -939722030 2071064305 1584912117
            1996166071 360289781 -1883769609</internalNodes>
          <leafValues>
            -4.1883003711700439e-01 6.0977309942245483e-01</leafValues></_>
        <_>
          <internalNodes>
            0 -1 70 -1341654919 -1791237460 -1866592871 1562853167
            2001063615 -221166013 147178427 -1895334131</internalNodes>
          <leafValues>
            -3.5863131284713745e-01 6.5828287601470947e-01</leafValues></_>
        <_>
          <internalNodes>
            0 -1 32 1390928043 -366122198 1709698517 -1644334529
            -1346390910 643366502 -2025472049 1693386879</internalNodes>
          <leafValues>
            -4.4225773215293884e-01 5.5616635084152222e-01</leafValues></_>
        <_>
          <internalNodes>
            0 -1 20 -74317645 -784105086 1627535632 486629376 1346986114
            -2147483520 -1870553078 -190938686</internalNodes>
          <leafValues>
            -5.4665178060531616e-01 4.9174362421035767e-01</leafValues></_>
        <_>
          <internalNodes>
            0 -1 79 -136579974 1970679737 1475432061 -786580909
            -2087596193 1414871867 -715875126 -1056836690</internalNodes>
          <leafValues>
            -4.1926044225692749e-01 6.7290389537811279e-01</leafValues></_></weakClassifiers></_></stages>
  <features>
    <_>
      <rect>
        0 0 12 9</rect></_>
    <_>
      <rect>
        0 0 15 6</rect></_>
    <_>
      <rect>
        0 0 16 11</rect></_>
    <_>
      <rect>
        0 1 2 18</rect></_>
    <_>
      <rect>
        0 4 1 17</rect></_>
    <_>
      <rect>
        0 5 4 11</rect></_>
    <_>
      <rect>
        0 5 11 16</rect></_>
    <_>
      <rect>
        0 6 2 16</rect></_>
    <_>
      <rect>
        0 9 5 7</rect></_>
    <_>
      <rect>
        0 10 5 5</rect></_>
    <_>
      <rect>
        0 16 3 6</rect></_>
    <_>
      <rect>
        0 18 5 6</rect></_>
    <_>
      <rect>
        0 18 15 14</rect></_>
    <_>
      <rect>
        0 19 6 11</rect></_>
    <_>
      <rect>
        0 21 5 11</rect></_>
    <_>
      <rect>
        0 23 2 7</rect></_>
    <_>
      <rect>
        0 24 16 12</rect></_>
    <_>
      <rect>
        0 25 4 6</rect></_>
    <_>
      <rect>
        0 27 4 7</rect></_>
    <_>
      <rect>
        0 27 5 10</rect></_>
    <_>
      <rect>
        0 28 2 5</rect></_>
    <_>
      <rect>
        0 28 6 10</rect></_>
    <_>
      <rect>
        0 30 4 6</rect></_>
    <_>
      <rect>
        0 30 16 9</rect></_>
    <_>
      <rect>
        0 33 12 9</rect></_>
    <_>
      <rect>
        0 37 11 7</rect></_>
    <_>
      <rect>
        0 46 8 4</rect></_>
    <_>
      <rect>
        1 0 15 20</rect></_>
    <_>
      <rect>
        1 0 16 13</rect></_>
    <_>
      <rect>
        1 0 16 19</rect></_>
    <_>
      <rect>
        1 2 6 4</rect></_>
    <_>
      <rect>
        1 5 5 13</rect></_>
    <_>
      <rect>
        1 13 2 3</rect></_>
    <_>
      <rect>
        1 21 3 9</rect></_>
    <_>
      <rect>
        1 26 16 11</rect></_>
    <_>
      <rect>
        1 39 5 7</rect></_>
    <_>
      <rect>
        1 39 6 7</rect></_>
    <_>
      <rect>
        1 41 12 4</rect></_>
    <_>
      <rect>
        1 42 12 6</rect></_>
    <_>
      <rect>
        1 47 7 4</rect></_>
    <_>
      <rect>
        2 0 7 4</rect></_>
    <_>
      <rect>
        2 2 16 9</rect></_>
    <_>
      <rect>
        2 15 6 6</rect></_>
    <_>
      <rect>
        2 31 15 7</rect></_>
    <_>
      <rect>
        3 0 5 5</rect></_>
    <_>
      <rect>
        3 9 15 7</rect></_>
    <_>
      <rect>
        3 24 15 12</rect></_>
    <_>
      <rect>
        3 31 5 6</rect></_>
    <_>
      <rect>
        3 38 9 7</rect></_>
    <_>
      <rect>
        4 0 12 11</rect></_>
    <_>
      <rect>
        4 2 12 9</rect></_>
    <_>
      <rect>
        4 39 13 7</rect></_>
    <_>
      <rect>
        5 15 3 6</rect></_>
    <_>
      <rect>
        5 30 4 6</rect></_>
    <_>
      <rect>
        6 1 6 3</rect></_>
    <_>
      <rect>
        6 1 10 5</rect></_>
    <_>
      <rect>
        6 9 3 7</rect></_>
    <_>
      <rect>
        6 30 14 10</rect></_>
    <_>
      <rect>
        7 0 4 4</rect></_>
    <_>
      <rect>
        7 1 4 3</rect></_>
    <_>
      <rect>
        7 4 11 9</rect></_>
    <_>
      <rect>
        7 27 10 11</rect></_>
    <_>
      <rect>
        7 39 9 7</rect></_>
    <_>
      <rect>
        7 46 9 4</rect></_>
    <_>
      <rect>
        7 48 4 4</rect></_>
    <_>
      <rect>
        8 26 10 10</rect></_>
    <_>
      <rect>
        9 0 13 10</rect></_>
    <_>
      <rect>
        9 9 3 10</rect></_>
    <_>
      <rect>
        10 0 13 9</rect></_>
    <_>
      <rect>
        10 11 4 5</rect></_>
    <_>
      <rect>
        10 25 9 2</rect></_>
    <_>
      <rect>
        10 46 6 4</rect></_>
    <_>
      <rect>
        11 32 12 9</rect></_>
    <_>
      <rect>
        12 0 12 10</rect></_>
    <_>
      <rect>
        14 1 11 9</rect></_>
    <_>
      <rect>
        14 23 12 12</rect></_>
    <_>
      <rect>
        14 34 12 8</rect></_>
    <_>
      <rect>
        17 0 10 9</rect></_>
    <_>
      <rect>
        17 42 11 5</rect></_>
    <_>
      <rect>
        18 16 2 10</rect></_>
    <_>
      <rect>
        18 41 10 6</rect></_>
    <_>
      <rect>
        19 7 10 15</rect></_>
    <_>
      <rect>
        19 23 3 3</rect></_>
    <_>
      <rect>
        20 28 2 1</rect></_>
    <_>
      <rect>
        20 29 2 1</rect></_>
    <_>
      <rect>
        22 37 9 7</rect></_>
    <_>
      <rect>
        23 0 9 7</rect></_>
    <_>
      <rect>
        23 28 1 2</rect></_>
    <_>
      <rect>
        24 13 2 10</rect></_>
    <_>
      <rect>
        24 28 1 1</rect></_>
    <_>
      <rect>
        25 26 2 2</rect></_>
    <_>
      <rect>
        25 29 2 2</rect></_>
    <_>
      <rect>
        26 26 2 2</rect></_>
    <_>
      <rect>
        26 27 1 2</rect></_>
    <_>
      <rect>
        30 37 5 5</rect></_>
    <_>
      <rect>
        32 0 6 4</rect></_>
    <_>
      <rect>
        32 39 3 5</rect></_>
    <_>
      <rect>
        34 27 4 6</rect></_>
    <_>
      <rect>
        34 28 5 7</rect></_>
    <_>
      <rect>
        34 34 5 8</rect></_>
    <_>
      <rect>
        35 13 3 5</rect></_>
    <_>
      <rect>
        35 26 5 11</rect></_>
    <_>
      <rect>
        35 31 5 9</rect></_>
    <_>
      <rect>
        35 32 5 8</rect></_>
    <_>
      <rect>
        35 34 5 8</rect></_>
    <_>
      <rect>
        37 22 3 7</rect></_>
    <_>
      <rect>
        38 29 4 6</rect></_>
    <_>
      <rect>
        41 22 3 4</rect></_>
    <_>
      <rect>
        41 28 3 5</rect></_>
    <_>
      <rect>
        41 37 3 4</rect></_>
    <_>
      <rect>
        44 4 2 18</rect></_>
    <_>
      <rect>
        44 13 2 6</rect></_>
    <_>
      <rect>
        47 19 1 4</rect></_></features></cascade>
</opencv_storage>
