<?xml version="1.0"?>
<opencv_storage>
<cascade>
  <stageType>BOOST</stageType>
  <featureType>LBP</featureType>
  <height>60</height>
  <width>50</width>
  <stageParams>
    <boostType>GAB</boostType>
    <minHitRate>9.9900001287460327e-01</minHitRate>
    <maxFalseAlarm>5.0000000000000000e-01</maxFalseAlarm>
    <weightTrimRate>9.4999999999999996e-01</weightTrimRate>
    <maxDepth>1</maxDepth>
    <maxWeakCount>100</maxWeakCount></stageParams>
  <featureParams>
    <maxCatCount>256</maxCatCount>
    <featSize>1</featSize></featureParams>
  <stageNum>20</stageNum>
  <stages>
    <!-- stage 0 -->
    <_>
      <maxWeakCount>3</maxWeakCount>
      <stageThreshold>-1.0114526748657227e+00</stageThreshold>
      <weakClassifiers>
        <_>
          <internalNodes>
            0 -1 29 -181020913 -140678321 1359167833 -7740905 1485504585
            -351606630 -158973397 -5516581</internalNodes>
          <leafValues>
            -9.5238095521926880e-01 9.2337918281555176e-01</leafValues></_>
        <_>
          <internalNodes>
            0 -1 5 -33 -32825 -179 -35065 -1 -1 -1 -59569</internalNodes>
          <leafValues>
            -8.8928002119064331e-01 9.5402956008911133e-01</leafValues></_>
        <_>
          <internalNodes>
            0 -1 26 -715260417 -2676845 -1793731133 -203456501
            -485637937 407541893 -331224081 2140140507</internalNodes>
          <leafValues>
            -9.4578492641448975e-01 8.3020824193954468e-01</leafValues></_></weakClassifiers></_>
    <!-- stage 1 -->
    <_>
      <maxWeakCount>3</maxWeakCount>
      <stageThreshold>-1.0689661502838135e+00</stageThreshold>
      <weakClassifiers>
        <_>
          <internalNodes>
            0 -1 21 -168296449 -1 -134742025 -134742025 -251658769
            -1358954497 -168296449 -152567809</internalNodes>
          <leafValues>
            -8.7168139219284058e-01 8.9156627655029297e-01</leafValues></_>
        <_>
          <internalNodes>
            0 -1 41 -33563661 -784100800 17236118 -171720672 -1207334179
            -2004647912 -930903595 -9442763</internalNodes>
          <leafValues>
            -9.0736144781112671e-01 7.5901335477828979e-01</leafValues></_>
        <_>
          <internalNodes>
            0 -1 75 -351602758 -2029858424 8503571 386392337 -511389302
            -644841471 -619990385 -3157265</internalNodes>
          <leafValues>
            -9.1707479953765869e-01 7.1007674932479858e-01</leafValues></_></weakClassifiers></_>
    <!-- stage 2 -->
    <_>
      <maxWeakCount>3</maxWeakCount>
      <stageThreshold>-1.2270814180374146e+00</stageThreshold>
      <weakClassifiers>
        <_>
          <internalNodes>
            0 -1 22 -607915553 -586968801 -2130638245 -216561129
            -1987342133 -542441318 -536696145 -174063717</internalNodes>
          <leafValues>
            -8.4246575832366943e-01 8.1835937500000000e-01</leafValues></_>
        <_>
          <internalNodes>
            0 -1 58 -2622497 -14990845 -1274953699 -1252798329
            -510540805 -32980607 -117114677 529519583</internalNodes>
          <leafValues>
            -9.7088581323623657e-01 6.2017339468002319e-01</leafValues></_>
        <_>
          <internalNodes>
            0 -1 30 -134755255 -647798773 -1861156653 -150875513
            -469153715 -668335615 -485799171 -3147361</internalNodes>
          <leafValues>
            -9.1567087173461914e-01 5.8627009391784668e-01</leafValues></_></weakClassifiers></_>
    <!-- stage 3 -->
    <_>
      <maxWeakCount>3</maxWeakCount>
      <stageThreshold>-1.0422133207321167e+00</stageThreshold>
      <weakClassifiers>
        <_>
          <internalNodes>
            0 -1 3 -135004161 -524289 -135004161 -201337465 -1207964753
            -6294647 -402653201 -137364529</internalNodes>
          <leafValues>
            -7.9596412181854248e-01 8.0357140302658081e-01</leafValues></_>
        <_>
          <internalNodes>
            0 -1 23 -737944625 -250493617 1610743818 -1111140855
            -788268837 12747145 -490271301 -2405541</internalNodes>
          <leafValues>
            -8.8908177614212036e-01 6.4037066698074341e-01</leafValues></_>
        <_>
          <internalNodes>
            0 -1 63 -820774998 923857288 1665356533 -3282721 1074121867
            -1417510837 -905408853 -7347313</internalNodes>
          <leafValues>
            -8.7530034780502319e-01 6.4283263683319092e-01</leafValues></_></weakClassifiers></_>
    <!-- stage 4 -->
    <_>
      <maxWeakCount>4</maxWeakCount>
      <stageThreshold>-1.7276526689529419e+00</stageThreshold>
      <weakClassifiers>
        <_>
          <internalNodes>
            0 -1 27 -25691137 -2768813 285216905 -217022398 -633216273
            1477755165 -90648643 -71325557</internalNodes>
          <leafValues>
            -8.1242674589157104e-01 7.5740212202072144e-01</leafValues></_>
        <_>
          <internalNodes>
            0 -1 61 -246156170 -216985189 419500948 -410148334
            -670844738 -90922831 -1128748374 -322979153</internalNodes>
          <leafValues>
            -8.1694543361663818e-01 6.2533867359161377e-01</leafValues></_>
        <_>
          <internalNodes>
            0 -1 2 285328804 -846048806 469877082 -544011873 -1719433041
            -1649213438 -2138986257 -1616394609</internalNodes>
          <leafValues>
            -7.4045646190643311e-01 6.9670462608337402e-01</leafValues></_>
        <_>
          <internalNodes>
            0 -1 62 -611200813 1434521871 85 362086417 -1878818630
            -780107648 285321867 194743755</internalNodes>
          <leafValues>
            -8.0889052152633667e-01 6.4217591285705566e-01</leafValues></_></weakClassifiers></_>
    <!-- stage 5 -->
    <_>
      <maxWeakCount>5</maxWeakCount>
      <stageThreshold>-1.2055864334106445e+00</stageThreshold>
      <weakClassifiers>
        <_>
          <internalNodes>
            0 -1 7 -792217093 -331939390 8669393 -591330944 -1970894593
            -1733754161 -998139665 -67638569</internalNodes>
          <leafValues>
            -7.8922718763351440e-01 7.3996174335479736e-01</leafValues></_>
        <_>
          <internalNodes>
            0 -1 54 -620235100 1563459777 -484851444 -48258607
            -2130083605 -71696247 -2146918229 -6556517</internalNodes>
          <leafValues>
            -7.7892810106277466e-01 6.4002466201782227e-01</leafValues></_>
        <_>
          <internalNodes>
            0 -1 34 -680341860 -754802171 21033309 -716099377 -804208468
            -888471401 -116596582 -555029861</internalNodes>
          <leafValues>
            -8.1669127941131592e-01 6.0774600505828857e-01</leafValues></_>
        <_>
          <internalNodes>
            0 -1 68 -784074053 -174772135 -1877997486 2014318879
            -520056661 -1693253500 -662683430 -128189541</internalNodes>
          <leafValues>
            -8.1155133247375488e-01 6.3821417093276978e-01</leafValues></_>
        <_>
          <internalNodes>
            0 -1 42 -771537201 -1793753071 82323 1426265429 193874523
            444729482 210479307 -74743157</internalNodes>
          <leafValues>
            -8.7652546167373657e-01 5.7185864448547363e-01</leafValues></_></weakClassifiers></_>
    <!-- stage 6 -->
    <_>
      <maxWeakCount>5</maxWeakCount>
      <stageThreshold>-1.0106657743453979e+00</stageThreshold>
      <weakClassifiers>
        <_>
          <internalNodes>
            0 -1 40 -671612965 -72775258 1209369087 -34790464 -502560513
            -375254325 -158496267 -13451</internalNodes>
          <leafValues>
            -8.3397191762924194e-01 6.7412710189819336e-01</leafValues></_>
        <_>
          <internalNodes>
            0 -1 71 -783421569 -560311215 -1409224691 -1383475805
            -715161161 -653157179 -2059015781 -1346374145</internalNodes>
          <leafValues>
            -8.0250376462936401e-01 6.5094035863876343e-01</leafValues></_>
        <_>
          <internalNodes>
            0 -1 19 84076849 186840534 -246196457 -678440713 -2086717249
            -62788370 -364009297 -322457677</internalNodes>
          <leafValues>
            -8.1127727031707764e-01 6.1532473564147949e-01</leafValues></_>
        <_>
          <internalNodes>
            0 -1 14 -138433089 -215488717 -1331273793 -1084113850
            2077052415 -290342493 -357832498 -65879</internalNodes>
          <leafValues>
            -6.7924910783767700e-01 7.2425365447998047e-01</leafValues></_>
        <_>
          <internalNodes>
            0 -1 56 1342312714 1435705344 -2130366196 -1748807559
            -2129673953 -1142947678 -1606327154 -59567997</internalNodes>
          <leafValues>
            -7.1376854181289673e-01 6.9545531272888184e-01</leafValues></_></weakClassifiers></_>
    <!-- stage 7 -->
    <_>
      <maxWeakCount>5</maxWeakCount>
      <stageThreshold>-1.2478542327880859e+00</stageThreshold>
      <weakClassifiers>
        <_>
          <internalNodes>
            0 -1 83 -830482517 -2087632209 1132496162 -1551183614
            -266155777 -1182023549 -897011254 -3155537</internalNodes>
          <leafValues>
            -7.8489118814468384e-01 6.3717603683471680e-01</leafValues></_>
        <_>
          <internalNodes>
            0 -1 16 -949104692 -682276594 -1044279021 -888864768
            1207970493 -1148536373 -1970492689 -7693670</internalNodes>
          <leafValues>
            -7.9791188240051270e-01 6.0896760225296021e-01</leafValues></_>
        <_>
          <internalNodes>
            0 -1 6 -1647460419 629219715 -2147434485 -1698557674
            -456676455 -800911357 -1072878965 -537402714</internalNodes>
          <leafValues>
            -7.3206919431686401e-01 6.2932813167572021e-01</leafValues></_>
        <_>
          <internalNodes>
            0 -1 57 -1693059075 -678362861 -1878961956 -57114274
            -1308437832 -1736271382 -930512758 -192184165</internalNodes>
          <leafValues>
            -8.6546313762664795e-01 5.5171740055084229e-01</leafValues></_>
        <_>
          <internalNodes>
            0 -1 72 -208746623 2098234816 -532636587 -576956055
            -1073561398 -335510910 -2002124332 -171589559</internalNodes>
          <leafValues>
            -8.1060552597045898e-01 5.7108378410339355e-01</leafValues></_></weakClassifiers></_>
    <!-- stage 8 -->
    <_>
      <maxWeakCount>4</maxWeakCount>
      <stageThreshold>-3.3276930451393127e-01</stageThreshold>
      <weakClassifiers>
        <_>
          <internalNodes>
            0 -1 44 -67153921 -771438949 1344330079 -545209639
            -103856292 -671087931 -343868737 -78779765</internalNodes>
          <leafValues>
            -7.7398163080215454e-01 6.0491657257080078e-01</leafValues></_>
        <_>
          <internalNodes>
            0 -1 47 -1185155105 -1047285129 1090589183 -170982437
            -377387879 -377454390 731226843 1398534587</internalNodes>
          <leafValues>
            -7.2719377279281616e-01 6.1209368705749512e-01</leafValues></_>
        <_>
          <internalNodes>
            0 -1 37 -455480097 -1278717941 -1040129382 -443760358
            1082689737 -575504245 -1937208328 -114627953</internalNodes>
          <leafValues>
            -6.7446005344390869e-01 6.5005314350128174e-01</leafValues></_>
        <_>
          <internalNodes>
            0 -1 64 -564527217 124518593 423973125 -6351531 -1475560257
            1848443009 -1340292156 -370193771</internalNodes>
          <leafValues>
            -8.1604701280593872e-01 5.1835292577743530e-01</leafValues></_></weakClassifiers></_>
    <!-- stage 9 -->
    <_>
      <maxWeakCount>5</maxWeakCount>
      <stageThreshold>-1.1553963422775269e+00</stageThreshold>
      <weakClassifiers>
        <_>
          <internalNodes>
            0 -1 20 -1817971210 -538738670 1225329884 2143798100
            -1060919042 -1179729912 -2004758897 -6845537</internalNodes>
          <leafValues>
            -7.1253073215484619e-01 6.2615102529525757e-01</leafValues></_>
        <_>
          <internalNodes>
            0 -1 80 -103357442 -205237326 -1879019245 -196961910
            -368974612 -73859071 -1060311398 -1364198482</internalNodes>
          <leafValues>
            -8.4542661905288696e-01 4.9195170402526855e-01</leafValues></_>
        <_>
          <internalNodes>
            0 -1 31 -362297777 -1324121957 -503316081 -5287599
            -903091700 -1466990461 -1391680674 -4265573</internalNodes>
          <leafValues>
            -7.8987264633178711e-01 4.8099464178085327e-01</leafValues></_>
        <_>
          <internalNodes>
            0 -1 92 -274399941 -131405 1878908085 -645927630 -131073 -1
            -587338351 -50736752</internalNodes>
          <leafValues>
            -6.3188022375106812e-01 6.9106328487396240e-01</leafValues></_>
        <_>
          <internalNodes>
            0 -1 67 -1742376289 1359151257 1097077143 896357469
            -750675461 -1860697943 -2088072529 1608177793</internalNodes>
          <leafValues>
            -7.9440027475357056e-01 5.5344653129577637e-01</leafValues></_></weakClassifiers></_>
    <!-- stage 10 -->
    <_>
      <maxWeakCount>5</maxWeakCount>
      <stageThreshold>-1.0287061929702759e+00</stageThreshold>
      <weakClassifiers>
        <_>
          <internalNodes>
            0 -1 52 -1190669954 -45072025 -2062858976 -50163453
            -1458860817 -81786864 -1474123330 -106247301</internalNodes>
          <leafValues>
            -6.9741696119308472e-01 6.1361545324325562e-01</leafValues></_>
        <_>
          <internalNodes>
            0 -1 11 -881548368 32735233 287350877 -1110662585 -259266837
            -1828089842 -1558077238 -335623958</internalNodes>
          <leafValues>
            -7.5423818826675415e-01 5.3753137588500977e-01</leafValues></_>
        <_>
          <internalNodes>
            0 -1 51 -1890746585 929088341 1073873561 1373831225
            430505980 950837409 -913781878 -6315637</internalNodes>
          <leafValues>
            -7.6269394159317017e-01 5.1744365692138672e-01</leafValues></_>
        <_>
          <internalNodes>
            0 -1 82 -796436452 1468072585 -2147483645 -720273385
            -367895910 -83853271 -99556728 -139732278</internalNodes>
          <leafValues>
            -6.7273396253585815e-01 6.1285316944122314e-01</leafValues></_>
        <_>
          <internalNodes>
            0 -1 89 -687697731 -192888063 1107376545 -1853255680
            -2132385585 -1944043392 1096884387 -315629391</internalNodes>
          <leafValues>
            -7.0514333248138428e-01 5.6660729646682739e-01</leafValues></_></weakClassifiers></_>
    <!-- stage 11 -->
    <_>
      <maxWeakCount>5</maxWeakCount>
      <stageThreshold>-1.1106549501419067e+00</stageThreshold>
      <weakClassifiers>
        <_>
          <internalNodes>
            0 -1 25 -656409353 -774602357 -704396969 -789714685
            -2139062017 -256769873 -1065246267 -285217241</internalNodes>
          <leafValues>
            -7.9161030054092407e-01 5.9000861644744873e-01</leafValues></_>
        <_>
          <internalNodes>
            0 -1 1 -1416902861 -880699647 423663770 -582922098
            -1424265285 -1095421813 2030267099 -1598822</internalNodes>
          <leafValues>
            -6.3950002193450928e-01 6.7012357711791992e-01</leafValues></_>
        <_>
          <internalNodes>
            0 -1 79 -779955718 -1918889982 -1521462967 -1784032368
            134332651 -360021981 -1714437925 -1073753377</internalNodes>
          <leafValues>
            -7.9498374462127686e-01 5.1468354463577271e-01</leafValues></_>
        <_>
          <internalNodes>
            0 -1 69 -733753133 -787402751 1358960657 285454595
            -2006163206 839452672 1132966635 1598710767</internalNodes>
          <leafValues>
            -7.3681485652923584e-01 5.8171457052230835e-01</leafValues></_>
        <_>
          <internalNodes>
            0 -1 12 2068925725 -1021595069 1375797535 -1002339581
            -490483025 -939335551 -1859974514 -2668354</internalNodes>
          <leafValues>
            -7.7589905261993408e-01 5.3391462564468384e-01</leafValues></_></weakClassifiers></_>
    <!-- stage 12 -->
    <_>
      <maxWeakCount>5</maxWeakCount>
      <stageThreshold>-1.1213247776031494e+00</stageThreshold>
      <weakClassifiers>
        <_>
          <internalNodes>
            0 -1 39 -1986854905 -766390159 117444704 -684335102
            -1433779526 -1693810296 -1463768901 -136593255</internalNodes>
          <leafValues>
            -6.8680644035339355e-01 6.0330575704574585e-01</leafValues></_>
        <_>
          <internalNodes>
            0 -1 53 -1364731990 522493072 -1865939873 -70450001
            -2133557029 -878073703 -1600092006 -338978421</internalNodes>
          <leafValues>
            -8.4941428899765015e-01 4.4089636206626892e-01</leafValues></_>
        <_>
          <internalNodes>
            0 -1 8 428193725 -1073149053 -267676847 -796017912
            -1869749621 -257613823 -1857338429 -540189202</internalNodes>
          <leafValues>
            -7.1804869174957275e-01 5.0683414936065674e-01</leafValues></_>
        <_>
          <internalNodes>
            0 -1 46 -10748439 -641728443 -2147147498 -742305776
            134617400 134381705 -2130545779 -911286016</internalNodes>
          <leafValues>
            -6.9386857748031616e-01 5.5064564943313599e-01</leafValues></_>
        <_>
          <internalNodes>
            0 -1 90 10968671 -585690221 285872291 1576108447 -1861555431
            671154435 1334045516 -299947137</internalNodes>
          <leafValues>
            -6.4258390665054321e-01 5.5634093284606934e-01</leafValues></_></weakClassifiers></_>
    <!-- stage 13 -->
    <_>
      <maxWeakCount>5</maxWeakCount>
      <stageThreshold>-1.1058520078659058e+00</stageThreshold>
      <weakClassifiers>
        <_>
          <internalNodes>
            0 -1 65 -989965025 -1661043137 -50405377 -32773 -185213729
            -1099137059 -588190211 -303038465</internalNodes>
          <leafValues>
            -6.0044395923614502e-01 6.4164161682128906e-01</leafValues></_>
        <_>
          <internalNodes>
            0 -1 84 -740125309 -674564688 1091195153 -577261391
            -2113011477 269156360 8700065 -70414195</internalNodes>
          <leafValues>
            -6.5973728895187378e-01 5.6691634654998779e-01</leafValues></_>
        <_>
          <internalNodes>
            0 -1 17 -775843569 -796852207 -1056929315 -216981503
            -1207908341 -1736343424 -947258949 -1436579669</internalNodes>
          <leafValues>
            -7.9453355073928833e-01 4.7407662868499756e-01</leafValues></_>
        <_>
          <internalNodes>
            0 -1 87 -686270118 286470400 536942614 960675858 1075847690
            -1173323392 -1039103928 -414717174</internalNodes>
          <leafValues>
            -7.4692273139953613e-01 5.1542747020721436e-01</leafValues></_>
        <_>
          <internalNodes>
            0 -1 43 -179184641 831602966 20631 948633793 -629037605
            2097809544 1118319295 2065910094</internalNodes>
          <leafValues>
            -7.7185881137847900e-01 4.6913191676139832e-01</leafValues></_></weakClassifiers></_>
    <!-- stage 14 -->
    <_>
      <maxWeakCount>5</maxWeakCount>
      <stageThreshold>-1.1316964626312256e+00</stageThreshold>
      <weakClassifiers>
        <_>
          <internalNodes>
            0 -1 28 -258213623 -133049647 17662303 2032242897
            -1333768355 -1610571765 -1165996913 -406785</internalNodes>
          <leafValues>
            -8.1072556972503662e-01 4.8499208688735962e-01</leafValues></_>
        <_>
          <internalNodes>
            0 -1 32 -619077169 -766701487 1175520270 -61013740
            -1194792997 1221173521 -1962374914 -14958351</internalNodes>
          <leafValues>
            -6.4718341827392578e-01 5.3682011365890503e-01</leafValues></_>
        <_>
          <internalNodes>
            0 -1 24 -716844577 -388467495 352933318 -851115968 687911147
            -1668675446 -2004825183 -142374777</internalNodes>
          <leafValues>
            -8.1846392154693604e-01 4.2206177115440369e-01</leafValues></_>
        <_>
          <internalNodes>
            0 -1 76 67847007 -1861812086 285545439 420507923 -463269445
            -1568473087 1493305599 -1086607313</internalNodes>
          <leafValues>
            -6.1869245767593384e-01 5.8394449949264526e-01</leafValues></_>
        <_>
          <internalNodes>
            0 -1 86 -1693534509 -476523237 -1342090862 -1750478344
            -1878865685 281018382 -527851390 -1411390133</internalNodes>
          <leafValues>
            -6.5597099065780640e-01 5.2284318208694458e-01</leafValues></_></weakClassifiers></_>
    <!-- stage 15 -->
    <_>
      <maxWeakCount>5</maxWeakCount>
      <stageThreshold>-9.6680486202239990e-01</stageThreshold>
      <weakClassifiers>
        <_>
          <internalNodes>
            0 -1 36 -737288579 -750681967 -1336897212 -32763878
            -1432827668 -1337851904 -1935636020 -519399419</internalNodes>
          <leafValues>
            -7.0627504587173462e-01 5.4648131132125854e-01</leafValues></_>
        <_>
          <internalNodes>
            0 -1 0 -1064438888 -1055976942 1078296587 -853827581
            -2013232934 -1874681822 -515865905 -291639281</internalNodes>
          <leafValues>
            -6.7092227935791016e-01 5.5223464965820313e-01</leafValues></_>
        <_>
          <internalNodes>
            0 -1 78 1364706999 -150753279 -2147417853 -100531935
            -909995858 -233668336 -498942533 -159450173</internalNodes>
          <leafValues>
            -7.2674542665481567e-01 4.7644686698913574e-01</leafValues></_>
        <_>
          <internalNodes>
            0 -1 88 -242952994 -741404638 23630161 -788315382 -402644822
            -930578302 987139 -172238448</internalNodes>
          <leafValues>
            -6.4529722929000854e-01 6.2272340059280396e-01</leafValues></_>
        <_>
          <internalNodes>
            0 -1 66 -200813893 1494319371 86028 364971011 -804568886
            453607425 151226505 2060421803</internalNodes>
          <leafValues>
            -6.6946643590927124e-01 5.7924282550811768e-01</leafValues></_></weakClassifiers></_>
    <!-- stage 16 -->
    <_>
      <maxWeakCount>5</maxWeakCount>
      <stageThreshold>-1.0500971078872681e+00</stageThreshold>
      <weakClassifiers>
        <_>
          <internalNodes>
            0 -1 77 -13573 -1 -285216509 -553648385 -772 -402718721
            -16777505 -34938881</internalNodes>
          <leafValues>
            -5.6854408979415894e-01 6.6214805841445923e-01</leafValues></_>
        <_>
          <internalNodes>
            0 -1 55 -1558218969 93684321 -1862205237 1602535643
            683874609 1501825536 -519331621 -72705057</internalNodes>
          <leafValues>
            -8.4003102779388428e-01 4.5896232128143311e-01</leafValues></_>
        <_>
          <internalNodes>
            0 -1 10 -1142185821 -1030627193 4625 -800980992 -1475706878
            -2013118327 52936842 -649201777</internalNodes>
          <leafValues>
            -5.6742477416992188e-01 6.7765045166015625e-01</leafValues></_>
        <_>
          <internalNodes>
            0 -1 33 -103296563 -2092858868 -1073686063 1191315972
            1073782801 -1878875726 -1811883789 -71611057</internalNodes>
          <leafValues>
            -8.0620658397674561e-01 4.5552653074264526e-01</leafValues></_>
        <_>
          <internalNodes>
            0 -1 50 -788269649 1359221066 269516825 432736276 1359388938
            -2146664304 1359122874 37980223</internalNodes>
          <leafValues>
            -7.3704826831817627e-01 5.0141721963882446e-01</leafValues></_></weakClassifiers></_>
    <!-- stage 17 -->
    <_>
      <maxWeakCount>7</maxWeakCount>
      <stageThreshold>-1.1408464908599854e+00</stageThreshold>
      <weakClassifiers>
        <_>
          <internalNodes>
            0 -1 13 366315807 2105507831 1576882167 2103250431 -10508353
            -1342193665 -268439553 -268778326</internalNodes>
          <leafValues>
            -5.9824371337890625e-01 6.5217393636703491e-01</leafValues></_>
        <_>
          <internalNodes>
            0 -1 4 -2130616013 -1601105776 -788310954 -884932348
            139201195 -1733804022 -1694377825 -339017713</internalNodes>
          <leafValues>
            -6.5949475765228271e-01 5.5245125293731689e-01</leafValues></_>
        <_>
          <internalNodes>
            0 -1 38 -1311157585 -1310912489 -754708094 -1761538026
            268468493 -69631959 42008765 -1031567185</internalNodes>
          <leafValues>
            -6.4427548646926880e-01 5.4019856452941895e-01</leafValues></_>
        <_>
          <internalNodes>
            0 -1 74 -549894321 1965031425 74047 -394063743 25796875
            -1365700608 -1198589537 1219205435</internalNodes>
          <leafValues>
            -7.1448320150375366e-01 4.7141069173812866e-01</leafValues></_>
        <_>
          <internalNodes>
            0 -1 59 -115550046 305318113 49359 -783089643 -2063433539
            -1976917887 -1433790430 -1467365343</internalNodes>
          <leafValues>
            -7.7998691797256470e-01 4.5262807607650757e-01</leafValues></_>
        <_>
          <internalNodes>
            0 -1 73 16793619 1540538897 1142013959 -213450729 276840466
            -503315840 -1472141126 -119535486</internalNodes>
          <leafValues>
            -6.4885997772216797e-01 5.6622409820556641e-01</leafValues></_>
        <_>
          <internalNodes>
            0 -1 35 -630992161 -184483839 -2079128443 1472422423
            -1073700438 -1744830461 170576121 453738699</internalNodes>
          <leafValues>
            -6.9848537445068359e-01 5.2509516477584839e-01</leafValues></_></weakClassifiers></_>
    <!-- stage 18 -->
    <_>
      <maxWeakCount>5</maxWeakCount>
      <stageThreshold>-9.1558682918548584e-01</stageThreshold>
      <weakClassifiers>
        <_>
          <internalNodes>
            0 -1 18 -549329969 1494810945 537429033 -64220927 2131286538
            452984832 978041454 -116981111</internalNodes>
          <leafValues>
            -6.8085104227066040e-01 5.3310102224349976e-01</leafValues></_>
        <_>
          <internalNodes>
            0 -1 81 -779173354 -1986981357 285212724 -183430912
            1898512555 -777920504 8495247 -7347221</internalNodes>
          <leafValues>
            -5.9077924489974976e-01 6.1043691635131836e-01</leafValues></_>
        <_>
          <internalNodes>
            0 -1 9 -2080001125 -1157168766 -1056862159 -763289598
            -2138857437 -536591872 -527857467 -645020723</internalNodes>
          <leafValues>
            -6.7423141002655029e-01 5.6463038921356201e-01</leafValues></_>
        <_>
          <internalNodes>
            0 -1 85 -691007229 59900041 289493425 663339527 -2080143223
            -1996486400 -1476361583 -3161461</internalNodes>
          <leafValues>
            -6.3713139295578003e-01 6.0088479518890381e-01</leafValues></_>
        <_>
          <internalNodes>
            0 -1 48 -112995365 -777445245 -1065282405 1973092445
            -1027456869 -1828380528 -2130476895 1527758979</internalNodes>
          <leafValues>
            -7.1410840749740601e-01 4.6619012951850891e-01</leafValues></_></weakClassifiers></_>
    <!-- stage 19 -->
    <_>
      <maxWeakCount>6</maxWeakCount>
      <stageThreshold>-1.5376276969909668e+00</stageThreshold>
      <weakClassifiers>
        <_>
          <internalNodes>
            0 -1 60 -708354797 -732479275 -788180729 -736820923
            -1811852197 -196014016 362145411 -1114905635</internalNodes>
          <leafValues>
            -7.2266668081283569e-01 5.5826085805892944e-01</leafValues></_>
        <_>
          <internalNodes>
            0 -1 15 -494672289 -519470845 -939309049 -1811345342
            -615798244 -1744830464 -123548977 -208958965</internalNodes>
          <leafValues>
            -6.0579115152359009e-01 6.0794812440872192e-01</leafValues></_>
        <_>
          <internalNodes>
            0 -1 49 -653692659 -547811295 83902820 -1786691580 428487027
            -1154988032 318781834 -1565854197</internalNodes>
          <leafValues>
            -6.2685984373092651e-01 6.0065937042236328e-01</leafValues></_>
        <_>
          <internalNodes>
            0 -1 45 -729830945 -245132899 134348825 -586051309 16828547
            2046855338 1077969611 1527393097</internalNodes>
          <leafValues>
            -7.1339929103851318e-01 5.4380929470062256e-01</leafValues></_>
        <_>
          <internalNodes>
            0 -1 91 -264035529 -585949168 285286406 -938274800
            1904461977 -2122120909 -1440136660 -870589877</internalNodes>
          <leafValues>
            -6.0349249839782715e-01 6.2552320957183838e-01</leafValues></_>
        <_>
          <internalNodes>
            0 -1 70 -754720425 1363353665 1644371720 -531611504
            143229258 -1603764198 1744964490 -645683030</internalNodes>
          <leafValues>
            -7.6008498668670654e-01 4.9425953626632690e-01</leafValues></_></weakClassifiers></_></stages>
  <features>
    <_>
      <rect>
        0 0 5 13</rect></_>
    <_>
      <rect>
        0 0 9 5</rect></_>
    <_>
      <rect>
        0 0 12 7</rect></_>
    <_>
      <rect>
        0 1 16 13</rect></_>
    <_>
      <rect>
        0 3 8 3</rect></_>
    <_>
      <rect>
        0 3 10 16</rect></_>
    <_>
      <rect>
        0 4 3 12</rect></_>
    <_>
      <rect>
        0 4 12 11</rect></_>
    <_>
      <rect>
        0 7 3 10</rect></_>
    <_>
      <rect>
        0 13 2 9</rect></_>
    <_>
      <rect>
        0 16 1 7</rect></_>
    <_>
      <rect>
        0 20 3 12</rect></_>
    <_>
      <rect>
        0 21 4 9</rect></_>
    <_>
      <rect>
        0 23 2 8</rect></_>
    <_>
      <rect>
        0 25 12 9</rect></_>
    <_>
      <rect>
        0 30 5 7</rect></_>
    <_>
      <rect>
        0 33 13 9</rect></_>
    <_>
      <rect>
        0 37 9 2</rect></_>
    <_>
      <rect>
        0 43 8 3</rect></_>
    <_>
      <rect>
        1 1 5 8</rect></_>
    <_>
      <rect>
        1 1 11 7</rect></_>
    <_>
      <rect>
        1 2 16 12</rect></_>
    <_>
      <rect>
        1 5 16 10</rect></_>
    <_>
      <rect>
        1 7 8 15</rect></_>
    <_>
      <rect>
        1 9 11 2</rect></_>
    <_>
      <rect>
        1 11 7 9</rect></_>
    <_>
      <rect>
        1 13 15 13</rect></_>
    <_>
      <rect>
        1 21 16 13</rect></_>
    <_>
      <rect>
        1 22 6 9</rect></_>
    <_>
      <rect>
        1 24 9 9</rect></_>
    <_>
      <rect>
        1 26 6 8</rect></_>
    <_>
      <rect>
        1 36 6 5</rect></_>
    <_>
      <rect>
        1 46 12 3</rect></_>
    <_>
      <rect>
        2 5 5 16</rect></_>
    <_>
      <rect>
        2 26 4 11</rect></_>
    <_>
      <rect>
        2 37 1 1</rect></_>
    <_>
      <rect>
        2 42 6 6</rect></_>
    <_>
      <rect>
        2 43 9 5</rect></_>
    <_>
      <rect>
        4 4 11 4</rect></_>
    <_>
      <rect>
        5 4 10 3</rect></_>
    <_>
      <rect>
        5 9 6 7</rect></_>
    <_>
      <rect>
        5 10 5 8</rect></_>
    <_>
      <rect>
        5 41 9 3</rect></_>
    <_>
      <rect>
        6 43 1 1</rect></_>
    <_>
      <rect>
        7 32 5 6</rect></_>
    <_>
      <rect>
        8 11 1 1</rect></_>
    <_>
      <rect>
        8 46 7 4</rect></_>
    <_>
      <rect>
        9 11 1 1</rect></_>
    <_>
      <rect>
        10 8 1 1</rect></_>
    <_>
      <rect>
        13 4 12 4</rect></_>
    <_>
      <rect>
        13 6 1 1</rect></_>
    <_>
      <rect>
        13 39 9 5</rect></_>
    <_>
      <rect>
        14 0 12 9</rect></_>
    <_>
      <rect>
        15 33 11 8</rect></_>
    <_>
      <rect>
        16 36 11 8</rect></_>
    <_>
      <rect>
        16 42 7 4</rect></_>
    <_>
      <rect>
        17 0 11 6</rect></_>
    <_>
      <rect>
        17 15 11 2</rect></_>
    <_>
      <rect>
        19 4 8 17</rect></_>
    <_>
      <rect>
        19 41 10 6</rect></_>
    <_>
      <rect>
        20 3 10 18</rect></_>
    <_>
      <rect>
        20 7 10 10</rect></_>
    <_>
      <rect>
        20 27 2 1</rect></_>
    <_>
      <rect>
        20 28 10 10</rect></_>
    <_>
      <rect>
        21 43 9 4</rect></_>
    <_>
      <rect>
        22 0 7 6</rect></_>
    <_>
      <rect>
        22 21 2 3</rect></_>
    <_>
      <rect>
        22 30 2 1</rect></_>
    <_>
      <rect>
        26 17 7 3</rect></_>
    <_>
      <rect>
        26 27 2 2</rect></_>
    <_>
      <rect>
        27 11 7 3</rect></_>
    <_>
      <rect>
        28 13 7 13</rect></_>
    <_>
      <rect>
        28 39 7 7</rect></_>
    <_>
      <rect>
        29 0 7 3</rect></_>
    <_>
      <rect>
        29 9 5 3</rect></_>
    <_>
      <rect>
        30 21 6 12</rect></_>
    <_>
      <rect>
        32 0 4 6</rect></_>
    <_>
      <rect>
        32 11 4 5</rect></_>
    <_>
      <rect>
        33 12 4 6</rect></_>
    <_>
      <rect>
        33 15 5 15</rect></_>
    <_>
      <rect>
        34 11 5 9</rect></_>
    <_>
      <rect>
        35 1 5 13</rect></_>
    <_>
      <rect>
        35 3 5 10</rect></_>
    <_>
      <rect>
        35 26 5 6</rect></_>
    <_>
      <rect>
        35 30 5 9</rect></_>
    <_>
      <rect>
        35 35 5 5</rect></_>
    <_>
      <rect>
        37 26 3 7</rect></_>
    <_>
      <rect>
        38 4 4 11</rect></_>
    <_>
      <rect>
        38 16 4 13</rect></_>
    <_>
      <rect>
        38 23 4 11</rect></_>
    <_>
      <rect>
        41 4 3 6</rect></_>
    <_>
      <rect>
        41 15 3 6</rect></_>
    <_>
      <rect>
        41 21 3 13</rect></_></features></cascade>
</opencv_storage>
