<?xml version="1.0"?>
<opencv_storage>
<cascade>
  <stageType>BOOST</stageType>
  <featureType>LBP</featureType>
  <height>60</height>
  <width>50</width>
  <stageParams>
    <boostType>GAB</boostType>
    <minHitRate>9.9900001287460327e-01</minHitRate>
    <maxFalseAlarm>5.0000000000000000e-01</maxFalseAlarm>
    <weightTrimRate>9.4999999999999996e-01</weightTrimRate>
    <maxDepth>1</maxDepth>
    <maxWeakCount>100</maxWeakCount></stageParams>
  <featureParams>
    <maxCatCount>256</maxCatCount>
    <featSize>1</featSize></featureParams>
  <stageNum>20</stageNum>
  <stages>
    <!-- stage 0 -->
    <_>
      <maxWeakCount>3</maxWeakCount>
      <stageThreshold>-9.5417052507400513e-01</stageThreshold>
      <weakClassifiers>
        <_>
          <internalNodes>
            0 -1 39 -136449025 -205273325 -1878961901 -1114085
            -777662041 713031687 -1866480741 1000297391</internalNodes>
          <leafValues>
            -9.7964376211166382e-01 7.8096950054168701e-01</leafValues></_>
        <_>
          <internalNodes>
            0 -1 28 -1 -33685505 -786953 -143393281 -604045317 -41943556
            -252510209 -239872773</internalNodes>
          <leafValues>
            -7.4978882074356079e-01 8.4416478872299194e-01</leafValues></_>
        <_>
          <internalNodes>
            0 -1 30 1895936991 1426654465 290809459 2138546455 268992651
            427819394 -1064723793 -542119281</internalNodes>
          <leafValues>
            -8.1869155168533325e-01 7.8436547517776489e-01</leafValues></_></weakClassifiers></_>
    <!-- stage 1 -->
    <_>
      <maxWeakCount>4</maxWeakCount>
      <stageThreshold>-1.8335318565368652e+00</stageThreshold>
      <weakClassifiers>
        <_>
          <internalNodes>
            0 -1 14 -543164449 -544634737 -2118925033 -47974973
            -397816133 -1903853437 -1262228497 1364455663</internalNodes>
          <leafValues>
            -9.2624115943908691e-01 6.3012552261352539e-01</leafValues></_>
        <_>
          <internalNodes>
            0 -1 19 -740559881 1460076825 1904432623 2044253991
            252251035 1037964027 1873783771 -3147313</internalNodes>
          <leafValues>
            -7.7297371625900269e-01 6.4286887645721436e-01</leafValues></_>
        <_>
          <internalNodes>
            0 -1 7 -65144833 -44965187 335610069 -547520037 940257467
            -83155871 472655519 2071418735</internalNodes>
          <leafValues>
            -8.4524816274642944e-01 5.2817124128341675e-01</leafValues></_>
        <_>
          <internalNodes>
            0 -1 16 -430977451 -880680825 1090535427 -800207837 475681
            -1474150391 1208696973 -572569393</internalNodes>
          <leafValues>
            -7.0491147041320801e-01 6.3691926002502441e-01</leafValues></_></weakClassifiers></_>
    <!-- stage 2 -->
    <_>
      <maxWeakCount>4</maxWeakCount>
      <stageThreshold>-1.5415430068969727e+00</stageThreshold>
      <weakClassifiers>
        <_>
          <internalNodes>
            0 -1 46 -1323101927 2139053847 -1077969025 1344798591
            34257407 -1659936769 902484122 -8389633</internalNodes>
          <leafValues>
            -7.0581775903701782e-01 7.5126391649246216e-01</leafValues></_>
        <_>
          <internalNodes>
            0 -1 43 -649342753 -571064317 268468699 -573489080
            -2013230454 -352124888 -1052075859 -792558390</internalNodes>
          <leafValues>
            -7.7947199344635010e-01 6.7367589473724365e-01</leafValues></_>
        <_>
          <internalNodes>
            0 -1 0 -1593671629 1224867908 -1056898975 1431371778
            -2147284854 134348800 -260046613 -75250925</internalNodes>
          <leafValues>
            -7.1305584907531738e-01 7.0695585012435913e-01</leafValues></_>
        <_>
          <internalNodes>
            0 -1 15 -349183023 1401094151 245845 -889110463 -805191279
            -671088630 -914144831 -69255141</internalNodes>
          <leafValues>
            -7.4824386835098267e-01 6.5680259466171265e-01</leafValues></_></weakClassifiers></_>
    <!-- stage 3 -->
    <_>
      <maxWeakCount>4</maxWeakCount>
      <stageThreshold>-6.5784227848052979e-01</stageThreshold>
      <weakClassifiers>
        <_>
          <internalNodes>
            0 -1 61 -44827137 -246331941 -586852913 501026509
            -1186869059 680233432 -1316820520 467635179</internalNodes>
          <leafValues>
            -9.1044777631759644e-01 5.7723575830459595e-01</leafValues></_>
        <_>
          <internalNodes>
            0 -1 2 -171442177 -187185997 1073840587 -255577213
            -637076529 171986955 1619286235 2147431279</internalNodes>
          <leafValues>
            -8.8202464580535889e-01 4.6380981802940369e-01</leafValues></_>
        <_>
          <internalNodes>
            0 -1 72 -348028901 -216823293 -401603297 -11024335
            -2011969281 -1173487480 -1442083073 1472717507</internalNodes>
          <leafValues>
            -7.8028470277786255e-01 5.4649430513381958e-01</leafValues></_>
        <_>
          <internalNodes>
            0 -1 85 -740822041 -1186934642 1207976192 2107179791
            -1877949299 411041920 -1073602422 1737183802</internalNodes>
          <leafValues>
            -7.0830303430557251e-01 5.8813583850860596e-01</leafValues></_></weakClassifiers></_>
    <!-- stage 4 -->
    <_>
      <maxWeakCount>4</maxWeakCount>
      <stageThreshold>-3.8252428174018860e-01</stageThreshold>
      <weakClassifiers>
        <_>
          <internalNodes>
            0 -1 66 -788006913 1392612227 409 453034480 67226344
            1409353176 -938835828 1068223214</internalNodes>
          <leafValues>
            -7.3877549171447754e-01 5.5193132162094116e-01</leafValues></_>
        <_>
          <internalNodes>
            0 -1 17 -547357217 1500862877 1124108296 -1898067838
            136378843 421597417 -64694230 2126510811</internalNodes>
          <leafValues>
            -8.2809334993362427e-01 4.6505883336067200e-01</leafValues></_>
        <_>
          <internalNodes>
            0 -1 31 1280164549 -242888609 -1608445364 -368842751
            1648756888 -276758528 -74100194 -11570664</internalNodes>
          <leafValues>
            -6.9842833280563354e-01 5.7743036746978760e-01</leafValues></_>
        <_>
          <internalNodes>
            0 -1 13 -669199612 -343752192 20992019 -778977280 1208189163
            -1962754039 -662068677 -103855549</internalNodes>
          <leafValues>
            -6.8379265069961548e-01 6.2245512008666992e-01</leafValues></_></weakClassifiers></_>
    <!-- stage 5 -->
    <_>
      <maxWeakCount>5</maxWeakCount>
      <stageThreshold>-8.0707108974456787e-01</stageThreshold>
      <weakClassifiers>
        <_>
          <internalNodes>
            0 -1 84 -753674369 -715865840 -1862205157 -42067840 8603
            167780486 806049018 2139838986</internalNodes>
          <leafValues>
            -6.7548078298568726e-01 6.1985015869140625e-01</leafValues></_>
        <_>
          <internalNodes>
            0 -1 101 -896867688 -704593917 -2147434495 -1690120124
            -1004437489 -2004680696 -2147237745 -1372591105</internalNodes>
          <leafValues>
            -6.9713431596755981e-01 5.5524450540542603e-01</leafValues></_>
        <_>
          <internalNodes>
            0 -1 68 -955801281 -250478591 -1878966177 -712835048
            -938962789 -392689535 -1072838482 143198431</internalNodes>
          <leafValues>
            -7.3494726419448853e-01 5.3857237100601196e-01</leafValues></_>
        <_>
          <internalNodes>
            0 -1 55 -1 -537788417 -67437057 1998650872 -66049 -715784712
            -923075330 -578101861</internalNodes>
          <leafValues>
            -5.1377385854721069e-01 7.4881899356842041e-01</leafValues></_>
        <_>
          <internalNodes>
            0 -1 12 -770707232 -149880789 152051952 1460504849
            -2128050017 -1079312376 -1610577781 -519796681</internalNodes>
          <leafValues>
            -7.0070654153823853e-01 5.7245391607284546e-01</leafValues></_></weakClassifiers></_>
    <!-- stage 6 -->
    <_>
      <maxWeakCount>4</maxWeakCount>
      <stageThreshold>-1.6041502952575684e+00</stageThreshold>
      <weakClassifiers>
        <_>
          <internalNodes>
            0 -1 5 -578820351 -607263193 -1243754659 2078700074
            -103715979 -1179520861 -103193275 2144552709</internalNodes>
          <leafValues>
            -9.1349482536315918e-01 4.7503781318664551e-01</leafValues></_>
        <_>
          <internalNodes>
            0 -1 90 -910429953 -685977584 1614876831 -715194286
            -662509429 522780687 -1773016915 2073794763</internalNodes>
          <leafValues>
            -6.6182124614715576e-01 5.6501334905624390e-01</leafValues></_>
        <_>
          <internalNodes>
            0 -1 27 -987758593 -1113610603 34692372 -6567047 -301104195
            -305854808 -539783184 2134092184</internalNodes>
          <leafValues>
            -8.0695480108261108e-01 4.8008689284324646e-01</leafValues></_>
        <_>
          <internalNodes>
            0 -1 47 -1304736365 -1534541568 -535682687 -1358195440
            -762233861 -2003074687 -1593206625 -80100441</internalNodes>
          <leafValues>
            -6.1041212081909180e-01 6.4916121959686279e-01</leafValues></_></weakClassifiers></_>
    <!-- stage 7 -->
    <_>
      <maxWeakCount>5</maxWeakCount>
      <stageThreshold>-6.6767168045043945e-01</stageThreshold>
      <weakClassifiers>
        <_>
          <internalNodes>
            0 -1 57 -1951691777 1602166751 -1073741825 2139062271
            -1886671105 -1073764209 -301989889 -3541</internalNodes>
          <leafValues>
            -5.4226803779602051e-01 6.7311829328536987e-01</leafValues></_>
        <_>
          <internalNodes>
            0 -1 26 -276049489 -16317429 -184519541 -550164219
            -1702196529 -810975232 -376788593 -175900482</internalNodes>
          <leafValues>
            -6.3667899370193481e-01 5.8391642570495605e-01</leafValues></_>
        <_>
          <internalNodes>
            0 -1 49 -2057 -134744587 -1073743873 -134745153 -587234083
            -168569355 255787689 -4210801</internalNodes>
          <leafValues>
            -4.7501879930496216e-01 7.4948972463607788e-01</leafValues></_>
        <_>
          <internalNodes>
            0 -1 9 2118961756 -687521024 -700276672 -779992953
            -556135208 -1165025272 -221599224 -74524996</internalNodes>
          <leafValues>
            -7.0236194133758545e-01 5.2814906835556030e-01</leafValues></_>
        <_>
          <internalNodes>
            0 -1 93 -870454281 -128450125 1367814425 1997562513
            268521623 -754936445 2025406610 1525362817</internalNodes>
          <leafValues>
            -7.4732571840286255e-01 4.7397175431251526e-01</leafValues></_></weakClassifiers></_>
    <!-- stage 8 -->
    <_>
      <maxWeakCount>5</maxWeakCount>
      <stageThreshold>-9.4978266954421997e-01</stageThreshold>
      <weakClassifiers>
        <_>
          <internalNodes>
            0 -1 42 -1325231907 1595757581 -1006583410 1778458760
            193636527 1537179802 1099665643 -7634293</internalNodes>
          <leafValues>
            -7.4612128734588623e-01 5.2812761068344116e-01</leafValues></_>
        <_>
          <internalNodes>
            0 -1 25 -2063433165 -1560130816 -2013130944 -310181888
            -527718209 1124171910 -939324673 -370413001</internalNodes>
          <leafValues>
            -6.6797965764999390e-01 5.5330985784530640e-01</leafValues></_>
        <_>
          <internalNodes>
            0 -1 83 -262145 -206424069 -16777217 -5567973 -1056969473
            -1306349653 -922756609 -609513585</internalNodes>
          <leafValues>
            -4.6207606792449951e-01 7.5982558727264404e-01</leafValues></_>
        <_>
          <internalNodes>
            0 -1 97 167836576 -1154043631 1090704192 30017712 1082663851
            -1954414589 -2144792165 -1895832919</internalNodes>
          <leafValues>
            -7.3408323526382446e-01 4.9338945746421814e-01</leafValues></_>
        <_>
          <internalNodes>
            0 -1 11 1883261068 -788070261 -1071594630 -595586848
            -510984056 -771653632 -2146664228 -375250166</internalNodes>
          <leafValues>
            -7.6073759794235229e-01 4.3918809294700623e-01</leafValues></_></weakClassifiers></_>
    <!-- stage 9 -->
    <_>
      <maxWeakCount>5</maxWeakCount>
      <stageThreshold>-1.1519161462783813e+00</stageThreshold>
      <weakClassifiers>
        <_>
          <internalNodes>
            0 -1 60 -438591197 -1476067059 1879165493 1295636627
            -913517409 -930969430 1082194687 1102037955</internalNodes>
          <leafValues>
            -7.0882350206375122e-01 4.7704917192459106e-01</leafValues></_>
        <_>
          <internalNodes>
            0 -1 74 2032638911 859025435 311164949 -1862262016
            1477066943 345456841 530664 1070329339</internalNodes>
          <leafValues>
            -7.1420937776565552e-01 4.1674244403839111e-01</leafValues></_>
        <_>
          <internalNodes>
            0 -1 65 -1068817785 631648643 35652055 1434735057
            -1702278901 2049318977 -796098309 -74724625</internalNodes>
          <leafValues>
            -6.9863605499267578e-01 4.7990810871124268e-01</leafValues></_>
        <_>
          <internalNodes>
            0 -1 29 -277879884 1375928327 -1878994871 -1870601183
            -1040062775 -2147287037 -902741984 -352368482</internalNodes>
          <leafValues>
            -7.3551136255264282e-01 4.8150363564491272e-01</leafValues></_>
        <_>
          <internalNodes>
            0 -1 37 -393319773 -339459966 85675336 -711946105 -536688405
            -1415954292 -1182725637 -1315492361</internalNodes>
          <leafValues>
            -6.2946826219558716e-01 5.7431232929229736e-01</leafValues></_></weakClassifiers></_>
    <!-- stage 10 -->
    <_>
      <maxWeakCount>6</maxWeakCount>
      <stageThreshold>-1.5874994993209839e+00</stageThreshold>
      <weakClassifiers>
        <_>
          <internalNodes>
            0 -1 35 1448050943 -515426195 143202476 -36765539
            -1993750340 1607303848 2119043116 1617914477</internalNodes>
          <leafValues>
            -6.6391181945800781e-01 4.9574106931686401e-01</leafValues></_>
        <_>
          <internalNodes>
            0 -1 88 -116927016 -87030763 536875095 1465454875 671136459
            -628187005 587274651 263688751</internalNodes>
          <leafValues>
            -7.3680180311203003e-01 4.1155439615249634e-01</leafValues></_>
        <_>
          <internalNodes>
            0 -1 78 -67130385 -100684801 -402657281 -1077957697
            1936981887 322898551 654311423 -28673</internalNodes>
          <leafValues>
            -5.0150424242019653e-01 6.6407454013824463e-01</leafValues></_>
        <_>
          <internalNodes>
            0 -1 96 -1006616492 -715849727 -1390411520 556843843
            -662613368 -257785687 -1912371048 -1466960945</internalNodes>
          <leafValues>
            -6.6389071941375732e-01 5.1389122009277344e-01</leafValues></_>
        <_>
          <internalNodes>
            0 -1 98 -716258413 -1861180157 -2125283183 -1849109434
            -905391149 -1744707454 -1790621567 -1651982202</internalNodes>
          <leafValues>
            -5.8932650089263916e-01 5.5443435907363892e-01</leafValues></_>
        <_>
          <internalNodes>
            0 -1 70 -1827679981 420546368 1361789191 1976418444
            -929041501 149454976 -2123773385 1343989931</internalNodes>
          <leafValues>
            -7.5820255279541016e-01 4.0758380293846130e-01</leafValues></_></weakClassifiers></_>
    <!-- stage 11 -->
    <_>
      <maxWeakCount>6</maxWeakCount>
      <stageThreshold>-1.4650123119354248e+00</stageThreshold>
      <weakClassifiers>
        <_>
          <internalNodes>
            0 -1 59 -209592527 -1719205373 151331159 965020107
            -929236488 1346420745 -523700996 177113803</internalNodes>
          <leafValues>
            -7.2230887413024902e-01 4.4718030095100403e-01</leafValues></_>
        <_>
          <internalNodes>
            0 -1 69 -366245345 -147325181 -1358991493 -201359489
            -1526739761 -545259657 -419436801 -526337</internalNodes>
          <leafValues>
            -5.0085574388504028e-01 5.9076899290084839e-01</leafValues></_>
        <_>
          <internalNodes>
            0 -1 99 -57228040 -323566779 1073938505 -801979434
            -536089521 -519503487 -1391861073 -1421870150</internalNodes>
          <leafValues>
            -6.5520834922790527e-01 4.4850453734397888e-01</leafValues></_>
        <_>
          <internalNodes>
            0 -1 77 -1593482349 -1241340032 16876544 -8382976 -922711551
            273156352 -1157332565 1543425450</internalNodes>
          <leafValues>
            -7.1241807937622070e-01 4.6392154693603516e-01</leafValues></_>
        <_>
          <internalNodes>
            0 -1 51 -1082122 -539312897 1853872751 -93847889 -33667926
            -1101703177 -1373435185 -299672324</internalNodes>
          <leafValues>
            -5.1266080141067505e-01 5.9985208511352539e-01</leafValues></_>
        <_>
          <internalNodes>
            0 -1 71 -988284193 -642922344 537940313 -789794616
            -1920872567 1258631173 -1559708790 2059400074</internalNodes>
          <leafValues>
            -6.9157481193542480e-01 4.6895039081573486e-01</leafValues></_></weakClassifiers></_>
    <!-- stage 12 -->
    <_>
      <maxWeakCount>5</maxWeakCount>
      <stageThreshold>-6.8669873476028442e-01</stageThreshold>
      <weakClassifiers>
        <_>
          <internalNodes>
            0 -1 102 -492382212 -914329576 1073750019 -1575841772
            -1599946609 -1064783230 -1442646577 -1096099670</internalNodes>
          <leafValues>
            -7.3684209585189819e-01 4.2414861917495728e-01</leafValues></_>
        <_>
          <internalNodes>
            0 -1 41 -1 -1 -1073745921 -4212737 -131331 2033481717
            -1912542484 -13128962</internalNodes>
          <leafValues>
            -4.8590835928916931e-01 6.5241330862045288e-01</leafValues></_>
        <_>
          <internalNodes>
            0 -1 79 2131225251 -1593776759 -1174118955 -1789341407
            1887789935 1786822785 -134100817 -552561</internalNodes>
          <leafValues>
            -5.5447566509246826e-01 5.5520355701446533e-01</leafValues></_>
        <_>
          <internalNodes>
            0 -1 10 -496694563 -1549676411 -2140057583 -1727970495
            -1282129669 1644331137 -1056398756 -37046006</internalNodes>
          <leafValues>
            -6.0014569759368896e-01 5.6037920713424683e-01</leafValues></_>
        <_>
          <internalNodes>
            0 -1 23 -1894841933 1340166342 294749083 1661535125
            169599179 1476961481 -1853169505 -324282713</internalNodes>
          <leafValues>
            -5.5732780694961548e-01 5.9086996316909790e-01</leafValues></_></weakClassifiers></_>
    <!-- stage 13 -->
    <_>
      <maxWeakCount>7</maxWeakCount>
      <stageThreshold>-7.1293461322784424e-01</stageThreshold>
      <weakClassifiers>
        <_>
          <internalNodes>
            0 -1 73 -494730721 -686537459 1485331229 -149831353
            1079036043 -208027007 -517805929 2002090201</internalNodes>
          <leafValues>
            -6.8389058113098145e-01 4.4283413887023926e-01</leafValues></_>
        <_>
          <internalNodes>
            0 -1 24 -1154748495 -1549602895 -22298637 -19960030
            -1644597761 1861216245 -285231201 -71303759</internalNodes>
          <leafValues>
            -4.7922694683074951e-01 6.1838030815124512e-01</leafValues></_>
        <_>
          <internalNodes>
            0 -1 6 1373331933 1480759390 -1777315570 -639988328
            -1446004611 -1450655574 -2094680039 -4851997</internalNodes>
          <leafValues>
            -5.4162812232971191e-01 5.5246043205261230e-01</leafValues></_>
        <_>
          <internalNodes>
            0 -1 95 -105125197 -1281298838 930609073 992505656
            -1947306537 -1342210051 1450550806 -332455978</internalNodes>
          <leafValues>
            -4.6333169937133789e-01 6.6568487882614136e-01</leafValues></_>
        <_>
          <internalNodes>
            0 -1 92 -534843045 -21957729 -788524719 -1173200872
            -1034731445 -796329470 -1731623745 2009808163</internalNodes>
          <leafValues>
            -7.8663432598114014e-01 3.6094865202903748e-01</leafValues></_>
        <_>
          <internalNodes>
            0 -1 103 -247267233 -2143842025 -2130198189 127267413
            -1877892332 -1962213102 395223176 -354485301</internalNodes>
          <leafValues>
            -6.1591386795043945e-01 5.1959794759750366e-01</leafValues></_>
        <_>
          <internalNodes>
            0 -1 62 -1 -11346061 -65539 -13434904 -184550145 477462512
            1560071292 -2097665</internalNodes>
          <leafValues>
            -4.6072965860366821e-01 6.9777268171310425e-01</leafValues></_></weakClassifiers></_>
    <!-- stage 14 -->
    <_>
      <maxWeakCount>6</maxWeakCount>
      <stageThreshold>-1.3230122327804565e+00</stageThreshold>
      <weakClassifiers>
        <_>
          <internalNodes>
            0 -1 1 -1661358151 -805617742 -2113667075 -33472 -195
            -1203372033 -663551237 -322995177</internalNodes>
          <leafValues>
            -5.0438594818115234e-01 5.6680160760879517e-01</leafValues></_>
        <_>
          <internalNodes>
            0 -1 64 1460270039 -623179499 -1023387367 298914269
            -2091525423 -1467425655 -351612017 417188593</internalNodes>
          <leafValues>
            -7.6722300052642822e-01 3.8976764678955078e-01</leafValues></_>
        <_>
          <internalNodes>
            0 -1 4 2116384613 2133786538 -17533643 2011688722 -3670023
            -4259844 -131281 -274727017</internalNodes>
          <leafValues>
            -5.2474582195281982e-01 5.7670032978057861e-01</leafValues></_>
        <_>
          <internalNodes>
            0 -1 22 -157364993 -147456391 -1359286721 -1133445332
            1879006622 -948109460 -588450658 -224760074</internalNodes>
          <leafValues>
            -4.7190859913825989e-01 6.4726084470748901e-01</leafValues></_>
        <_>
          <internalNodes>
            0 -1 76 1477788953 -44224479 1092686872 876810503 -769637823
            -2147352576 -402356208 -2084577836</internalNodes>
          <leafValues>
            -6.3333362340927124e-01 4.9947738647460938e-01</leafValues></_>
        <_>
          <internalNodes>
            0 -1 67 -1122845903 -783425523 -2013230592 1137807595
            -1878488875 -1467170655 -829302551 1794022825</internalNodes>
          <leafValues>
            -7.1508210897445679e-01 4.5941537618637085e-01</leafValues></_></weakClassifiers></_>
    <!-- stage 15 -->
    <_>
      <maxWeakCount>7</maxWeakCount>
      <stageThreshold>-1.0715359449386597e+00</stageThreshold>
      <weakClassifiers>
        <_>
          <internalNodes>
            0 -1 44 -1850539713 2136428861 -870840164 2022307914
            92502153 -22456163 294500482 -4538228</internalNodes>
          <leafValues>
            -5.6281405687332153e-01 4.9637681245803833e-01</leafValues></_>
        <_>
          <internalNodes>
            0 -1 105 -4199917 991637163 98155123 1374683110 -67115010
            1040145908 1442184710 -939526146</internalNodes>
          <leafValues>
            -3.8368284702301025e-01 7.0981109142303467e-01</leafValues></_>
        <_>
          <internalNodes>
            0 -1 18 -180530867 2135445995 1612038177 -131889136
            956348415 722151832 582488200 2075893994</internalNodes>
          <leafValues>
            -7.1284884214401245e-01 4.1820636391639709e-01</leafValues></_>
        <_>
          <internalNodes>
            0 -1 63 -721219265 1628684291 21069836 36901206 274923540
            223944736 -511463800 1067180954</internalNodes>
          <leafValues>
            -7.8780519962310791e-01 3.9474058151245117e-01</leafValues></_>
        <_>
          <internalNodes>
            0 -1 86 -354688863 -1998747584 -1843061295 -33049728
            1335384205 -1971286908 -292167261 -399882215</internalNodes>
          <leafValues>
            -6.1690801382064819e-01 4.5677757263183594e-01</leafValues></_>
        <_>
          <internalNodes>
            0 -1 8 -14609 -163582241 251588390 -1216348178 1870595678
            -144703650 -142606522 -45878298</internalNodes>
          <leafValues>
            -4.7892996668815613e-01 6.5428709983825684e-01</leafValues></_>
        <_>
          <internalNodes>
            0 -1 48 2031198935 -1351865855 -935198200 -541064447
            -1063376372 -1693965816 -129326453 1371704345</internalNodes>
          <leafValues>
            -7.9247862100601196e-01 4.1806441545486450e-01</leafValues></_></weakClassifiers></_>
    <!-- stage 16 -->
    <_>
      <maxWeakCount>7</maxWeakCount>
      <stageThreshold>-1.1357529163360596e+00</stageThreshold>
      <weakClassifiers>
        <_>
          <internalNodes>
            0 -1 80 -836676523 -269516938 -769 -3178530 -33580 -33685762
            -33759778 -867731497</internalNodes>
          <leafValues>
            -4.5663532614707947e-01 5.6945919990539551e-01</leafValues></_>
        <_>
          <internalNodes>
            0 -1 58 -1456796897 -686469872 -987698859 -171913978
            1099299039 -343346629 1142547870 -118830975</internalNodes>
          <leafValues>
            -5.0613468885421753e-01 5.3201466798782349e-01</leafValues></_>
        <_>
          <internalNodes>
            0 -1 75 -745409093 -2130509477 1145389312 428901271
            -95877922 377749698 621003969 972549581</internalNodes>
          <leafValues>
            -7.9351359605789185e-01 3.5427689552307129e-01</leafValues></_>
        <_>
          <internalNodes>
            0 -1 89 -934937622 1543099786 1342275930 -174898150
            1208518903 680558603 -897572701 1707311114</internalNodes>
          <leafValues>
            -6.0680615901947021e-01 4.7950097918510437e-01</leafValues></_>
        <_>
          <internalNodes>
            0 -1 20 -111850857 -535723711 558989581 2013466837
            -787937083 1074331648 1929477144 -1350877</internalNodes>
          <leafValues>
            -6.3101786375045776e-01 4.4383108615875244e-01</leafValues></_>
        <_>
          <internalNodes>
            0 -1 3 -1060775131 159694848 1087963223 -455518767 13287583
            -402644935 -402554787 -369237917</internalNodes>
          <leafValues>
            -6.4810991287231445e-01 4.5361268520355225e-01</leafValues></_>
        <_>
          <internalNodes>
            0 -1 82 -616831719 -787414904 406915293 1428160530 269648063
            805503058 1477019805 957589755</internalNodes>
          <leafValues>
            -7.4226921796798706e-01 4.0216523408889771e-01</leafValues></_></weakClassifiers></_>
    <!-- stage 17 -->
    <_>
      <maxWeakCount>8</maxWeakCount>
      <stageThreshold>-1.2978076934814453e+00</stageThreshold>
      <weakClassifiers>
        <_>
          <internalNodes>
            0 -1 40 1073840223 -1748139639 -1996418793 -574027767
            -1954444118 1299647200 -1264549748 -399251320</internalNodes>
          <leafValues>
            -5.2913200855255127e-01 5.1463645696640015e-01</leafValues></_>
        <_>
          <internalNodes>
            0 -1 32 -20987652 -707591768 -1836740524 -201060346
            -828701512 -1157523199 -511283944 -288367896</internalNodes>
          <leafValues>
            -5.3232491016387939e-01 4.9541652202606201e-01</leafValues></_>
        <_>
          <internalNodes>
            0 -1 54 -2088034867 1603227999 1396969600 1933658136
            792504269 -1651273573 -1568636784 -1146451832</internalNodes>
          <leafValues>
            -6.0977244377136230e-01 4.4379019737243652e-01</leafValues></_>
        <_>
          <internalNodes>
            0 -1 38 5452131 -1589260063 1082135301 -202632864 -528414709
            -2113929088 268653266 -554736511</internalNodes>
          <leafValues>
            -5.5012387037277222e-01 5.0575107336044312e-01</leafValues></_>
        <_>
          <internalNodes>
            0 -1 100 -248556961 -511683837 -921579184 -515948158
            -778499560 84017562 -1230999410 -84213989</internalNodes>
          <leafValues>
            -5.5125212669372559e-01 5.2750688791275024e-01</leafValues></_>
        <_>
          <internalNodes>
            0 -1 94 -831042833 -682178559 -1786703845 -1450651519
            1082835481 -752836608 -1577006582 -332551413</internalNodes>
          <leafValues>
            -5.1580715179443359e-01 5.4331439733505249e-01</leafValues></_>
        <_>
          <internalNodes>
            0 -1 53 1476895199 630259713 -2145844851 1083523473
            688390156 1560322208 673917308 1517202222</internalNodes>
          <leafValues>
            -6.6075241565704346e-01 4.6801218390464783e-01</leafValues></_>
        <_>
          <internalNodes>
            0 -1 33 -8652577 -1817645515 -50338097 -256901385 1870652956
            -159547532 -889390084 -275821086</internalNodes>
          <leafValues>
            -4.9138072133064270e-01 6.3192254304885864e-01</leafValues></_></weakClassifiers></_>
    <!-- stage 18 -->
    <_>
      <maxWeakCount>6</maxWeakCount>
      <stageThreshold>-1.1035017967224121e+00</stageThreshold>
      <weakClassifiers>
        <_>
          <internalNodes>
            0 -1 45 -61341697 -134220289 -1 -134219777 1610571231
            -168471235 1061095739 -171993153</internalNodes>
          <leafValues>
            -4.1592919826507568e-01 5.9229898452758789e-01</leafValues></_>
        <_>
          <internalNodes>
            0 -1 34 134575959 -983412224 1342189703 -1087770025
            377743551 -931131374 -1721644749 -2119212893</internalNodes>
          <leafValues>
            -5.1929968595504761e-01 4.7410312294960022e-01</leafValues></_>
        <_>
          <internalNodes>
            0 -1 87 -732585078 -701988735 269488319 -1725757611
            -1206345557 -1291321335 -1971283797 965429417</internalNodes>
          <leafValues>
            -7.1149909496307373e-01 3.9069679379463196e-01</leafValues></_>
        <_>
          <internalNodes>
            0 -1 81 -1039978187 1158610964 142627667 -239386618
            -1039955892 -2004221751 -1966898798 -326800461</internalNodes>
          <leafValues>
            -5.3263252973556519e-01 5.1710355281829834e-01</leafValues></_>
        <_>
          <internalNodes>
            0 -1 36 -94511017 -803978919 -1845162691 1646985770
            327155848 -1959296885 -2113515266 -579657204</internalNodes>
          <leafValues>
            -5.3440260887145996e-01 5.3053194284439087e-01</leafValues></_>
        <_>
          <internalNodes>
            0 -1 104 -1660026959 1577151904 -1210220576 -141697565
            -1074965505 -1241563267 2146957297 -636618819</internalNodes>
          <leafValues>
            -4.8533731698989868e-01 5.8830779790878296e-01</leafValues></_></weakClassifiers></_>
    <!-- stage 19 -->
    <_>
      <maxWeakCount>5</maxWeakCount>
      <stageThreshold>-6.2867575883865356e-01</stageThreshold>
      <weakClassifiers>
        <_>
          <internalNodes>
            0 -1 52 -1624068357 -324075531 -8388689 -1611661467
            -44243457 -676462689 -16851205 -304220299</internalNodes>
          <leafValues>
            -4.0485075116157532e-01 6.4492756128311157e-01</leafValues></_>
        <_>
          <internalNodes>
            0 -1 56 -570558985 -705301131 -1077988485 -172264141
            360709303 1056961655 -1145097281 -4737089</internalNodes>
          <leafValues>
            -4.0623828768730164e-01 6.2304055690765381e-01</leafValues></_>
        <_>
          <internalNodes>
            0 -1 21 -557628857 -268238181 134270978 281268226 -670941109
            1612775424 -266407928 -781719457</internalNodes>
          <leafValues>
            -5.2473932504653931e-01 5.3128415346145630e-01</leafValues></_>
        <_>
          <internalNodes>
            0 -1 91 -572655663 -1285466685 -788414463 -1609195450
            -868007282 -1274700800 -670743487 -1363205673</internalNodes>
          <leafValues>
            -6.7640346288681030e-01 3.9670124650001526e-01</leafValues></_>
        <_>
          <internalNodes>
            0 -1 50 -788257473 -249075668 159391173 -64720119
            -1508342065 -62873337 -2109636213 1535311875</internalNodes>
          <leafValues>
            -6.9550108909606934e-01 4.0098777413368225e-01</leafValues></_></weakClassifiers></_></stages>
  <features>
    <_>
      <rect>
        0 1 7 4</rect></_>
    <_>
      <rect>
        0 4 3 13</rect></_>
    <_>
      <rect>
        0 4 11 18</rect></_>
    <_>
      <rect>
        0 5 5 6</rect></_>
    <_>
      <rect>
        0 6 5 6</rect></_>
    <_>
      <rect>
        0 12 5 12</rect></_>
    <_>
      <rect>
        0 12 6 4</rect></_>
    <_>
      <rect>
        0 19 13 8</rect></_>
    <_>
      <rect>
        0 30 2 3</rect></_>
    <_>
      <rect>
        0 32 5 9</rect></_>
    <_>
      <rect>
        0 35 4 6</rect></_>
    <_>
      <rect>
        0 42 6 6</rect></_>
    <_>
      <rect>
        1 0 16 6</rect></_>
    <_>
      <rect>
        1 2 5 8</rect></_>
    <_>
      <rect>
        1 3 16 12</rect></_>
    <_>
      <rect>
        1 9 4 16</rect></_>
    <_>
      <rect>
        1 13 4 15</rect></_>
    <_>
      <rect>
        1 18 16 14</rect></_>
    <_>
      <rect>
        1 24 14 12</rect></_>
    <_>
      <rect>
        1 25 16 10</rect></_>
    <_>
      <rect>
        1 30 3 5</rect></_>
    <_>
      <rect>
        1 34 2 3</rect></_>
    <_>
      <rect>
        1 47 4 3</rect></_>
    <_>
      <rect>
        2 0 4 5</rect></_>
    <_>
      <rect>
        2 0 7 3</rect></_>
    <_>
      <rect>
        2 1 6 4</rect></_>
    <_>
      <rect>
        2 1 16 12</rect></_>
    <_>
      <rect>
        2 3 12 11</rect></_>
    <_>
      <rect>
        2 5 16 10</rect></_>
    <_>
      <rect>
        2 8 3 17</rect></_>
    <_>
      <rect>
        2 23 16 12</rect></_>
    <_>
      <rect>
        2 38 5 5</rect></_>
    <_>
      <rect>
        2 43 6 5</rect></_>
    <_>
      <rect>
        2 47 3 2</rect></_>
    <_>
      <rect>
        3 4 3 4</rect></_>
    <_>
      <rect>
        3 8 10 6</rect></_>
    <_>
      <rect>
        3 48 5 4</rect></_>
    <_>
      <rect>
        4 1 7 3</rect></_>
    <_>
      <rect>
        4 4 3 3</rect></_>
    <_>
      <rect>
        4 8 15 15</rect></_>
    <_>
      <rect>
        4 11 12 7</rect></_>
    <_>
      <rect>
        4 15 11 7</rect></_>
    <_>
      <rect>
        4 25 15 11</rect></_>
    <_>
      <rect>
        5 3 15 11</rect></_>
    <_>
      <rect>
        5 30 13 7</rect></_>
    <_>
      <rect>
        6 10 9 12</rect></_>
    <_>
      <rect>
        6 28 12 9</rect></_>
    <_>
      <rect>
        7 1 4 3</rect></_>
    <_>
      <rect>
        7 3 14 9</rect></_>
    <_>
      <rect>
        7 14 8 10</rect></_>
    <_>
      <rect>
        7 25 11 6</rect></_>
    <_>
      <rect>
        7 52 2 1</rect></_>
    <_>
      <rect>
        8 1 4 3</rect></_>
    <_>
      <rect>
        8 13 7 4</rect></_>
    <_>
      <rect>
        8 28 13 9</rect></_>
    <_>
      <rect>
        9 9 11 8</rect></_>
    <_>
      <rect>
        9 15 7 12</rect></_>
    <_>
      <rect>
        9 25 13 10</rect></_>
    <_>
      <rect>
        9 29 10 6</rect></_>
    <_>
      <rect>
        10 21 5 6</rect></_>
    <_>
      <rect>
        10 31 7 4</rect></_>
    <_>
      <rect>
        11 13 13 12</rect></_>
    <_>
      <rect>
        11 14 10 5</rect></_>
    <_>
      <rect>
        11 17 7 4</rect></_>
    <_>
      <rect>
        11 19 13 6</rect></_>
    <_>
      <rect>
        11 42 10 4</rect></_>
    <_>
      <rect>
        12 15 7 6</rect></_>
    <_>
      <rect>
        12 29 3 5</rect></_>
    <_>
      <rect>
        13 28 7 4</rect></_>
    <_>
      <rect>
        13 32 9 5</rect></_>
    <_>
      <rect>
        13 36 4 4</rect></_>
    <_>
      <rect>
        14 14 6 9</rect></_>
    <_>
      <rect>
        14 30 8 5</rect></_>
    <_>
      <rect>
        14 30 9 5</rect></_>
    <_>
      <rect>
        15 17 7 4</rect></_>
    <_>
      <rect>
        16 12 8 16</rect></_>
    <_>
      <rect>
        17 9 11 13</rect></_>
    <_>
      <rect>
        17 12 10 7</rect></_>
    <_>
      <rect>
        17 15 8 13</rect></_>
    <_>
      <rect>
        17 42 6 4</rect></_>
    <_>
      <rect>
        18 1 6 5</rect></_>
    <_>
      <rect>
        18 3 5 4</rect></_>
    <_>
      <rect>
        18 22 5 3</rect></_>
    <_>
      <rect>
        20 12 8 11</rect></_>
    <_>
      <rect>
        20 16 7 6</rect></_>
    <_>
      <rect>
        20 27 3 2</rect></_>
    <_>
      <rect>
        20 45 6 4</rect></_>
    <_>
      <rect>
        21 29 3 1</rect></_>
    <_>
      <rect>
        22 30 2 1</rect></_>
    <_>
      <rect>
        22 39 9 5</rect></_>
    <_>
      <rect>
        24 26 2 2</rect></_>
    <_>
      <rect>
        25 0 6 20</rect></_>
    <_>
      <rect>
        27 18 5 8</rect></_>
    <_>
      <rect>
        29 20 5 7</rect></_>
    <_>
      <rect>
        31 5 5 5</rect></_>
    <_>
      <rect>
        34 46 5 4</rect></_>
    <_>
      <rect>
        35 0 5 10</rect></_>
    <_>
      <rect>
        35 33 4 7</rect></_>
    <_>
      <rect>
        35 40 5 6</rect></_>
    <_>
      <rect>
        38 1 4 17</rect></_>
    <_>
      <rect>
        38 14 4 4</rect></_>
    <_>
      <rect>
        40 1 3 16</rect></_>
    <_>
      <rect>
        40 3 3 19</rect></_>
    <_>
      <rect>
        40 15 3 5</rect></_>
    <_>
      <rect>
        42 36 2 4</rect></_>
    <_>
      <rect>
        44 26 2 5</rect></_></features></cascade>
</opencv_storage>
