<?xml version="1.0"?>
<opencv_storage>
<cascade>
  <stageType>BOOST</stageType>
  <featureType>LBP</featureType>
  <height>60</height>
  <width>50</width>
  <stageParams>
    <boostType>GAB</boostType>
    <minHitRate>9.9900001287460327e-01</minHitRate>
    <maxFalseAlarm>5.0000000000000000e-01</maxFalseAlarm>
    <weightTrimRate>9.4999999999999996e-01</weightTrimRate>
    <maxDepth>1</maxDepth>
    <maxWeakCount>100</maxWeakCount></stageParams>
  <featureParams>
    <maxCatCount>256</maxCatCount>
    <featSize>1</featSize></featureParams>
  <stageNum>20</stageNum>
  <stages>
    <!-- stage 0 -->
    <_>
      <maxWeakCount>3</maxWeakCount>
      <stageThreshold>-1.1159205436706543e+00</stageThreshold>
      <weakClassifiers>
        <_>
          <internalNodes>
            0 -1 24 -174194689 -146021089 1895850817 -606141685
            -435564057 -1463246583 -744496469 1071610799</internalNodes>
          <leafValues>
            -9.9753999710083008e-01 8.3808648586273193e-01</leafValues></_>
        <_>
          <internalNodes>
            0 -1 10 1494685151 -205135843 -1048362725 -147341005
            403177706 1486162217 -628123425 -3167541</internalNodes>
          <leafValues>
            -8.7652420997619629e-01 8.1594008207321167e-01</leafValues></_>
        <_>
          <internalNodes>
            0 -1 23 -707404801 -11308267 1426395157 -74113635 -729249557
            -97574776 -528442434 -236869224</internalNodes>
          <leafValues>
            -8.9739060401916504e-01 7.5814366340637207e-01</leafValues></_></weakClassifiers></_>
    <!-- stage 1 -->
    <_>
      <maxWeakCount>2</maxWeakCount>
      <stageThreshold>-2.7080953121185303e-01</stageThreshold>
      <weakClassifiers>
        <_>
          <internalNodes>
            0 -1 2 -69215233 -671884399 -212643297 -7080257 -618925429
            -242317141 -1396573441 2074078975</internalNodes>
          <leafValues>
            -9.6273291110992432e-01 7.9908674955368042e-01</leafValues></_>
        <_>
          <internalNodes>
            0 -1 62 -681182241 -750423269 -1052569259 -540422014
            -128148757 -1200995832 -1803381090 -185665297</internalNodes>
          <leafValues>
            -8.3849400281906128e-01 6.9192337989807129e-01</leafValues></_></weakClassifiers></_>
    <!-- stage 2 -->
    <_>
      <maxWeakCount>3</maxWeakCount>
      <stageThreshold>-9.6332615613937378e-01</stageThreshold>
      <weakClassifiers>
        <_>
          <internalNodes>
            0 -1 30 319920629 1394278465 1091125399 -577646055 169978363
            1061294209 -267679607 -6564869</internalNodes>
          <leafValues>
            -8.8929891586303711e-01 7.5712972879409790e-01</leafValues></_>
        <_>
          <internalNodes>
            0 -1 45 -175778056 1363394568 1085497 -653668095 -1862237992
            -1975508952 151552173 -3681535</internalNodes>
          <leafValues>
            -8.1024342775344849e-01 6.8530344963073730e-01</leafValues></_>
        <_>
          <internalNodes>
            0 -1 15 -195567396 -45514615 -2147384815 -50212669 806027400
            -1191182336 -1031642886 -71306342</internalNodes>
          <leafValues>
            -7.4363797903060913e-01 7.3621612787246704e-01</leafValues></_></weakClassifiers></_>
    <!-- stage 3 -->
    <_>
      <maxWeakCount>2</maxWeakCount>
      <stageThreshold>-3.3026942610740662e-01</stageThreshold>
      <weakClassifiers>
        <_>
          <internalNodes>
            0 -1 70 -803876389 -49184619 301998555 -581889925
            -2113877827 -116766592 -640571733 1804327067</internalNodes>
          <leafValues>
            -9.0742999315261841e-01 7.8313255310058594e-01</leafValues></_>
        <_>
          <internalNodes>
            0 -1 7 -794952757 -1073438005 -2145935329 -765594994
            -91897909 -125763432 -272176641 2147434463</internalNodes>
          <leafValues>
            -9.4449257850646973e-01 5.7716053724288940e-01</leafValues></_></weakClassifiers></_>
    <!-- stage 4 -->
    <_>
      <maxWeakCount>2</maxWeakCount>
      <stageThreshold>-3.5917517542839050e-01</stageThreshold>
      <weakClassifiers>
        <_>
          <internalNodes>
            0 -1 61 -716647201 -654295040 486572509 1599801437
            -1316978242 -91750014 -1467438914 2076936843</internalNodes>
          <leafValues>
            -8.9223057031631470e-01 7.3684209585189819e-01</leafValues></_>
        <_>
          <internalNodes>
            0 -1 21 -184326185 1762460787 -1861581419 -3175857
            -738074435 -105997357 -148258905 1945105407</internalNodes>
          <leafValues>
            -9.6810567378997803e-01 5.3305542469024658e-01</leafValues></_></weakClassifiers></_>
    <!-- stage 5 -->
    <_>
      <maxWeakCount>2</maxWeakCount>
      <stageThreshold>-3.2549348473548889e-01</stageThreshold>
      <weakClassifiers>
        <_>
          <internalNodes>
            0 -1 76 -640681057 -77729378 2031112699 -551698017
            -936801285 -303122304 -2088711169 2065414303</internalNodes>
          <leafValues>
            -8.9646464586257935e-01 7.3104691505432129e-01</leafValues></_>
        <_>
          <internalNodes>
            0 -1 12 1427198415 -606512649 276910150 -1618378745 16861659
            -91526005 -2136151926 -71588977</internalNodes>
          <leafValues>
            -8.3590674400329590e-01 5.7097113132476807e-01</leafValues></_></weakClassifiers></_>
    <!-- stage 6 -->
    <_>
      <maxWeakCount>4</maxWeakCount>
      <stageThreshold>-1.6027549505233765e+00</stageThreshold>
      <weakClassifiers>
        <_>
          <internalNodes>
            0 -1 4 1605351615 -581727659 -918216545 -543070183 705376943
            -1096840052 -461362961 -168560280</internalNodes>
          <leafValues>
            -8.2093662023544312e-01 5.9284496307373047e-01</leafValues></_>
        <_>
          <internalNodes>
            0 -1 13 -92355876 -83197549 -800253029 -582377014
            -2088630056 -859651520 -629014277 -2369</internalNodes>
          <leafValues>
            -7.2107070684432983e-01 5.9745508432388306e-01</leafValues></_>
        <_>
          <internalNodes>
            0 -1 5 1865301809 -276627470 -268435465 -557071 -5259329
            -271122444 -524293 -268435465</internalNodes>
          <leafValues>
            -5.7748323678970337e-01 7.7589601278305054e-01</leafValues></_>
        <_>
          <internalNodes>
            0 -1 74 -581446177 -236890873 -1048316905 -578298083
            -796668469 -70156111 -528366386 993000159</internalNodes>
          <leafValues>
            -9.5967656373977661e-01 5.1673573255538940e-01</leafValues></_></weakClassifiers></_>
    <!-- stage 7 -->
    <_>
      <maxWeakCount>5</maxWeakCount>
      <stageThreshold>-1.0171531438827515e+00</stageThreshold>
      <weakClassifiers>
        <_>
          <internalNodes>
            0 -1 32 -217853300 824252420 26236059 -1257177087 9963736
            1518899360 -2139033153 -74917223</internalNodes>
          <leafValues>
            -7.4441689252853394e-01 6.3985377550125122e-01</leafValues></_>
        <_>
          <internalNodes>
            0 -1 82 -704194632 -1291153408 268439569 -1324627824
            -2130575349 -1736409088 -1744574293 -70286945</internalNodes>
          <leafValues>
            -6.6847461462020874e-01 6.2712156772613525e-01</leafValues></_>
        <_>
          <internalNodes>
            0 -1 68 -669921065 293601408 -534572912 -1106837228
            -2147249978 -754810878 -400244269 -256911177</internalNodes>
          <leafValues>
            -6.9542539119720459e-01 6.5992200374603271e-01</leafValues></_>
        <_>
          <internalNodes>
            0 -1 20 -882845808 -2146811878 1074954759 -372539262
            -527859461 136659072 -1432122625 -74452057</internalNodes>
          <leafValues>
            -6.7015552520751953e-01 6.1753731966018677e-01</leafValues></_>
        <_>
          <internalNodes>
            0 -1 48 -267641719 -652603381 17367317 -183238579 1216530571
            -930315096 -360208742 463194275</internalNodes>
          <leafValues>
            -8.2196974754333496e-01 5.4884612560272217e-01</leafValues></_></weakClassifiers></_>
    <!-- stage 8 -->
    <_>
      <maxWeakCount>4</maxWeakCount>
      <stageThreshold>-7.6279211044311523e-01</stageThreshold>
      <weakClassifiers>
        <_>
          <internalNodes>
            0 -1 77 -214969381 -216940143 -721200872 -6847531
            -1878396486 -114128863 -2109556562 1473240011</internalNodes>
          <leafValues>
            -8.4431135654449463e-01 5.3896105289459229e-01</leafValues></_>
        <_>
          <internalNodes>
            0 -1 29 -485788769 1569948557 -1828271751 -49080815
            -1840543350 -1469348216 -1610053400 -254563703</internalNodes>
          <leafValues>
            -7.8305697441101074e-01 5.0350004434585571e-01</leafValues></_>
        <_>
          <internalNodes>
            0 -1 40 -1414921537 1059258647 -1895706274 -176095069
            -392492406 1535655946 -1954371413 -336409186</internalNodes>
          <leafValues>
            -7.9346054792404175e-01 4.5936098694801331e-01</leafValues></_>
        <_>
          <internalNodes>
            0 -1 60 -733875719 -103399423 -1522396424 366100556
            -1458601297 -1446445056 -1985893442 2144324778</internalNodes>
          <leafValues>
            -8.8134181499481201e-01 4.0946036577224731e-01</leafValues></_></weakClassifiers></_>
    <!-- stage 9 -->
    <_>
      <maxWeakCount>5</maxWeakCount>
      <stageThreshold>-9.2711210250854492e-01</stageThreshold>
      <weakClassifiers>
        <_>
          <internalNodes>
            0 -1 46 -784228994 -619117647 -918002614 -542045952
            -1131231031 -1115160424 -1945081713 -456226123</internalNodes>
          <leafValues>
            -7.9696971178054810e-01 5.0483870506286621e-01</leafValues></_>
        <_>
          <internalNodes>
            0 -1 18 1411435260 1908494569 1342282655 -238190205
            -779419188 -930577724 -1065174900 -13662199</internalNodes>
          <leafValues>
            -7.0113432407379150e-01 5.1512998342514038e-01</leafValues></_>
        <_>
          <internalNodes>
            0 -1 35 -2085639493 -1377141066 -1477511617 -10158490
            -348668433 -20422785 -1753235522 -135790658</internalNodes>
          <leafValues>
            -5.3646576404571533e-01 7.2059077024459839e-01</leafValues></_>
        <_>
          <internalNodes>
            0 -1 86 -779832399 59789328 352321536 -1759935999
            -2147249534 -2145369952 -2138636147 -41828224</internalNodes>
          <leafValues>
            -6.4601725339889526e-01 5.9552204608917236e-01</leafValues></_>
        <_>
          <internalNodes>
            0 -1 34 -221646342 -783052069 -1861189631 -754847167
            -1073570853 -1593814907 114904 -16821037</internalNodes>
          <leafValues>
            -6.6712111234664917e-01 5.3721064329147339e-01</leafValues></_></weakClassifiers></_>
    <!-- stage 10 -->
    <_>
      <maxWeakCount>5</maxWeakCount>
      <stageThreshold>-1.0997424125671387e+00</stageThreshold>
      <weakClassifiers>
        <_>
          <internalNodes>
            0 -1 54 -535318249 -710950795 17368149 2133627078 -116793109
            -74219134 1879817452 2146957739</internalNodes>
          <leafValues>
            -7.0351105928421021e-01 5.6675505638122559e-01</leafValues></_>
        <_>
          <internalNodes>
            0 -1 0 -1413501253 727875506 -67113033 1136918381 2139019263
            -269295626 -4227073 -86016689</internalNodes>
          <leafValues>
            -5.0124853849411011e-01 6.6175377368927002e-01</leafValues></_>
        <_>
          <internalNodes>
            0 -1 28 -471339348 1556329525 17891636 -584738799 137087161
            8946592 814747864 -745549813</internalNodes>
          <leafValues>
            -6.6604751348495483e-01 4.9966457486152649e-01</leafValues></_>
        <_>
          <internalNodes>
            0 -1 11 -214498281 -788196213 1090553367 2030387200
            1208175027 -536738816 38076804 -70594048</internalNodes>
          <leafValues>
            -6.7866486310958862e-01 5.3957378864288330e-01</leafValues></_>
        <_>
          <internalNodes>
            0 -1 55 -782647078 -732950319 268457439 -552304598
            -1203453809 -1199570802 -754530049 2079316878</internalNodes>
          <leafValues>
            -8.7898480892181396e-01 3.9324539899826050e-01</leafValues></_></weakClassifiers></_>
    <!-- stage 11 -->
    <_>
      <maxWeakCount>5</maxWeakCount>
      <stageThreshold>-1.0019288063049316e+00</stageThreshold>
      <weakClassifiers>
        <_>
          <internalNodes>
            0 -1 69 -478952309 -1421536799 -2076168111 -604995297
            167860547 830472258 -1610569549 -167599477</internalNodes>
          <leafValues>
            -6.4473682641983032e-01 5.1754385232925415e-01</leafValues></_>
        <_>
          <internalNodes>
            0 -1 56 -786574441 1342538241 -800061677 -133724879
            -2147186513 -1837049846 -1031150645 2144324287</internalNodes>
          <leafValues>
            -8.3030784130096436e-01 4.0462353825569153e-01</leafValues></_>
        <_>
          <internalNodes>
            0 -1 22 1862745649 1283620854 -164045 -1358987480 2134850559
            -1890058242 -786529 -273711105</internalNodes>
          <leafValues>
            -5.7445418834686279e-01 6.0721331834793091e-01</leafValues></_>
        <_>
          <internalNodes>
            0 -1 26 1447096016 -788168573 4751921 -1794334654 -502789992
            -645922688 -893214038 -343213302</internalNodes>
          <leafValues>
            -7.5894773006439209e-01 4.8751714825630188e-01</leafValues></_>
        <_>
          <internalNodes>
            0 -1 83 -1335224163 -1442801516 70147 -1576939447 -536869926
            -2143649661 -887897685 -94469</internalNodes>
          <leafValues>
            -5.9069430828094482e-01 5.8120793104171753e-01</leafValues></_></weakClassifiers></_>
    <!-- stage 12 -->
    <_>
      <maxWeakCount>6</maxWeakCount>
      <stageThreshold>-6.2414216995239258e-01</stageThreshold>
      <weakClassifiers>
        <_>
          <internalNodes>
            0 -1 38 -1741042339 2071659613 1157648769 -15103968
            865963725 2038956160 -2079809366 -35028850</internalNodes>
          <leafValues>
            -7.2403562068939209e-01 4.7960847616195679e-01</leafValues></_>
        <_>
          <internalNodes>
            0 -1 52 -419184321 -246609647 268550677 -45229055 -448757321
            -80705392 -511704674 2142231453</internalNodes>
          <leafValues>
            -7.2311699390411377e-01 4.4241350889205933e-01</leafValues></_>
        <_>
          <internalNodes>
            0 -1 1 -1216875636 -517472257 -2318 1937227505 1610612716
            -13139985 -1073879042 -277086721</internalNodes>
          <leafValues>
            -5.3004813194274902e-01 6.7090970277786255e-01</leafValues></_>
        <_>
          <internalNodes>
            0 -1 64 1345556506 -637366016 -1073741808 -299663104
            136028217 -578551766 -2147403569 -1003253481</internalNodes>
          <leafValues>
            -7.2916054725646973e-01 4.8650559782981873e-01</leafValues></_>
        <_>
          <internalNodes>
            0 -1 25 -506669608 2042724483 16783617 -1333723069
            -699604853 294912 -760561526 -58504886</internalNodes>
          <leafValues>
            -6.1068576574325562e-01 5.5663645267486572e-01</leafValues></_>
        <_>
          <internalNodes>
            0 -1 75 -145451426 -246169527 -2109406975 -205421501
            -1073634741 1560281231 -926877240 2143244430</internalNodes>
          <leafValues>
            -8.4359198808670044e-01 3.8582333922386169e-01</leafValues></_></weakClassifiers></_>
    <!-- stage 13 -->
    <_>
      <maxWeakCount>5</maxWeakCount>
      <stageThreshold>-8.5655492544174194e-01</stageThreshold>
      <weakClassifiers>
        <_>
          <internalNodes>
            0 -1 37 327776170 385942528 16777441 1359029265 176704234
            1540489424 -1170158949 -71307093</internalNodes>
          <leafValues>
            -7.9666668176651001e-01 4.4461539387702942e-01</leafValues></_>
        <_>
          <internalNodes>
            0 -1 8 -639384569 -1685356190 1409029 -564289292 -2010396933
            -125665136 -517425039 -337647007</internalNodes>
          <leafValues>
            -6.7759341001510620e-01 4.6811461448669434e-01</leafValues></_>
        <_>
          <internalNodes>
            0 -1 41 -364978149 -274419786 -453 -4915440 -1187129925
            -436207626 -445252689 -33739457</internalNodes>
          <leafValues>
            -5.3629237413406372e-01 6.0365861654281616e-01</leafValues></_>
        <_>
          <internalNodes>
            0 -1 84 -542836813 -73334850 -134217869 -1817004116
            1600110318 -826507778 -2066192602 -1366661916</internalNodes>
          <leafValues>
            -5.3867340087890625e-01 6.5821927785873413e-01</leafValues></_>
        <_>
          <internalNodes>
            0 -1 16 -434682755 -1009297135 1749026823 -657932271
            1891913733 -889159166 -242195859 -158421797</internalNodes>
          <leafValues>
            -6.4417278766632080e-01 5.5808353424072266e-01</leafValues></_></weakClassifiers></_>
    <!-- stage 14 -->
    <_>
      <maxWeakCount>6</maxWeakCount>
      <stageThreshold>-1.2692745923995972e+00</stageThreshold>
      <weakClassifiers>
        <_>
          <internalNodes>
            0 -1 3 1628423131 211747341 -2078572137 -23653091
            -1073020919 -2138437367 -1979594101 -544093459</internalNodes>
          <leafValues>
            -6.0049629211425781e-01 5.3382086753845215e-01</leafValues></_>
        <_>
          <internalNodes>
            0 -1 39 -649252463 -473521104 -1073479679 957452304
            -1870468465 -2096492416 -1039576909 -3169549</internalNodes>
          <leafValues>
            -5.4201090335845947e-01 5.5900067090988159e-01</leafValues></_>
        <_>
          <internalNodes>
            0 -1 89 1384923228 1359069763 268488785 1944162895
            -529367038 -1577050101 595800458 -1961892293</internalNodes>
          <leafValues>
            -5.5445957183837891e-01 5.8681118488311768e-01</leafValues></_>
        <_>
          <internalNodes>
            0 -1 53 -1052642497 1502093558 1074283541 1358954730
            -2105481025 -8019327 1785039752 1342172382</internalNodes>
          <leafValues>
            -7.8196501731872559e-01 4.4134327769279480e-01</leafValues></_>
        <_>
          <internalNodes>
            0 -1 72 -631520607 1560891667 1090584598 -775880684 2867450
            722616320 -2004838240 -276774256</internalNodes>
          <leafValues>
            -5.9707665443420410e-01 5.9026497602462769e-01</leafValues></_>
        <_>
          <internalNodes>
            0 -1 17 -8919971 -16777217 -1090519041 -1 -1095988 -32897
            -16842947 -1627455556</internalNodes>
          <leafValues>
            -5.5010956525802612e-01 5.8342546224594116e-01</leafValues></_></weakClassifiers></_>
    <!-- stage 15 -->
    <_>
      <maxWeakCount>6</maxWeakCount>
      <stageThreshold>-7.1671742200851440e-01</stageThreshold>
      <weakClassifiers>
        <_>
          <internalNodes>
            0 -1 31 -603042928 1707213010 -1056898810 1595359888
            135399439 -905345018 -1996279101 -3192089</internalNodes>
          <leafValues>
            -6.1052632331848145e-01 4.9473685026168823e-01</leafValues></_>
        <_>
          <internalNodes>
            0 -1 49 1225051013 1082655054 1359237597 -1718579158
            411644349 11141120 1359184545 -738224115</internalNodes>
          <leafValues>
            -6.3752257823944092e-01 4.6789565682411194e-01</leafValues></_>
        <_>
          <internalNodes>
            0 -1 88 -979713126 -1784852427 1090895939 -956248048
            -515194174 -535805952 -238690166 -1431636994</internalNodes>
          <leafValues>
            -7.2063326835632324e-01 4.2339783906936646e-01</leafValues></_>
        <_>
          <internalNodes>
            0 -1 51 -950459107 -620489447 146807897 1568721024
            -939161151 -670021496 1168147102 1942886553</internalNodes>
          <leafValues>
            -8.1953066587448120e-01 3.8203427195549011e-01</leafValues></_>
        <_>
          <internalNodes>
            0 -1 57 -1060246578 1362429201 1216400578 1361121536
            -2138464117 1753555097 -2138865525 -8280047</internalNodes>
          <leafValues>
            -6.6200739145278931e-01 4.5081579685211182e-01</leafValues></_>
        <_>
          <internalNodes>
            0 -1 73 -233191770 -2125398008 16701 -1874853882 -2139095021
            1342210080 -2147481440 -217857977</internalNodes>
          <leafValues>
            -5.9000170230865479e-01 5.4617375135421753e-01</leafValues></_></weakClassifiers></_>
    <!-- stage 16 -->
    <_>
      <maxWeakCount>7</maxWeakCount>
      <stageThreshold>-1.0025656223297119e+00</stageThreshold>
      <weakClassifiers>
        <_>
          <internalNodes>
            0 -1 50 -1275968621 579907987 -2130706173 21082176 167805067
            -387284860 -2136987441 -120668117</internalNodes>
          <leafValues>
            -5.7195574045181274e-01 5.1977920532226563e-01</leafValues></_>
        <_>
          <internalNodes>
            0 -1 42 -2053127241 1279562568 544293201 520577024
            -2138787821 1208027328 -1031671166 -75275535</internalNodes>
          <leafValues>
            -5.6715059280395508e-01 5.2743035554885864e-01</leafValues></_>
        <_>
          <internalNodes>
            0 -1 79 -1832779371 323241290 17268755 -1308524143
            -1824226407 -1826061565 -1098734618 -1561267065</internalNodes>
          <leafValues>
            -6.8308126926422119e-01 4.3725824356079102e-01</leafValues></_>
        <_>
          <internalNodes>
            0 -1 14 -231653123 1159430146 -1874814972 -1056718519
            -1596895031 -2012741472 612721162 -74514038</internalNodes>
          <leafValues>
            -5.7091528177261353e-01 5.6237518787384033e-01</leafValues></_>
        <_>
          <internalNodes>
            0 -1 44 -740368235 2030637697 -2013246428 -578748190
            159955690 -1164476221 977898204 2074591362</internalNodes>
          <leafValues>
            -7.8695666790008545e-01 3.8003376126289368e-01</leafValues></_>
        <_>
          <internalNodes>
            0 -1 58 -1054395634 956309762 201457694 -1385332326
            671256784 -896990710 -805207877 -1753127797</internalNodes>
          <leafValues>
            -6.2326097488403320e-01 5.3601926565170288e-01</leafValues></_>
        <_>
          <internalNodes>
            0 -1 81 -147982413 -1758855622 -545259933 -1854234644
            526759463 100032375 -715391648 -818426643</internalNodes>
          <leafValues>
            -5.0590050220489502e-01 6.2761217355728149e-01</leafValues></_></weakClassifiers></_>
    <!-- stage 17 -->
    <_>
      <maxWeakCount>6</maxWeakCount>
      <stageThreshold>-6.8999099731445313e-01</stageThreshold>
      <weakClassifiers>
        <_>
          <internalNodes>
            0 -1 43 -1860733551 -1983905214 541085857 -249223392
            -1609990005 8437892 -1597478713 -1229964</internalNodes>
          <leafValues>
            -6.6330933570861816e-01 4.6556016802787781e-01</leafValues></_>
        <_>
          <internalNodes>
            0 -1 6 538695520 1359020224 -2127478306 -235847641 545497919
            1510605321 -909598342 -1316765297</internalNodes>
          <leafValues>
            -6.2285155057907104e-01 4.5755070447921753e-01</leafValues></_>
        <_>
          <internalNodes>
            0 -1 80 182847143 -310396801 -285556984 -1281425804
            -1384135400 -1623392257 -587278882 -1347439157</internalNodes>
          <leafValues>
            -4.8315313458442688e-01 6.2726336717605591e-01</leafValues></_>
        <_>
          <internalNodes>
            0 -1 9 -1286895349 -787775476 1342275858 -720944940
            -1744779680 -922058624 1375832099 -78135179</internalNodes>
          <leafValues>
            -6.6807496547698975e-01 4.9597829580307007e-01</leafValues></_>
        <_>
          <internalNodes>
            0 -1 71 -2108639348 -1185443446 18907483 -70974464
            -2002157424 -741920510 740525544 1072605210</internalNodes>
          <leafValues>
            -8.6739099025726318e-01 3.2259777188301086e-01</leafValues></_>
        <_>
          <internalNodes>
            0 -1 33 2128202492 -150797975 1073971208 -1071710206
            -213792088 -1056964605 -1853513704 -421588924</internalNodes>
          <leafValues>
            -6.9967520236968994e-01 4.2397025227546692e-01</leafValues></_></weakClassifiers></_>
    <!-- stage 18 -->
    <_>
      <maxWeakCount>6</maxWeakCount>
      <stageThreshold>-1.5398249626159668e+00</stageThreshold>
      <weakClassifiers>
        <_>
          <internalNodes>
            0 -1 78 -103751425 -572686335 285279005 1607303301
            -1576464465 -931102680 151029898 1058784971</internalNodes>
          <leafValues>
            -7.6510065793991089e-01 4.2638036608695984e-01</leafValues></_>
        <_>
          <internalNodes>
            0 -1 27 -522451234 -1620803454 -1039073147 -2080178149
            -1869922072 -2109175808 -1836874838 -1062324472</internalNodes>
          <leafValues>
            -6.4075404405593872e-01 4.4654858112335205e-01</leafValues></_>
        <_>
          <internalNodes>
            0 -1 63 -2062825034 -653848256 285278487 591463168 4577526
            -921565183 -2004166481 -912087037</internalNodes>
          <leafValues>
            -6.2496012449264526e-01 4.8217600584030151e-01</leafValues></_>
        <_>
          <internalNodes>
            0 -1 59 -2008887019 1024525312 -1593462626 -225525220
            -914259896 319291585 1786818720 -156501469</internalNodes>
          <leafValues>
            -6.7272788286209106e-01 4.4576749205589294e-01</leafValues></_>
        <_>
          <internalNodes>
            0 -1 87 149193659 2061217789 2122315711 -1880260935
            2003971660 2013036414 -35822563 -1075846789</internalNodes>
          <leafValues>
            -4.8571550846099854e-01 5.9752827882766724e-01</leafValues></_>
        <_>
          <internalNodes>
            0 -1 66 -1265212259 -2004746110 1145208913 3385346 834764937
            -645386240 1087462209 -376461167</internalNodes>
          <leafValues>
            -6.2935042381286621e-01 4.8567745089530945e-01</leafValues></_></weakClassifiers></_>
    <!-- stage 19 -->
    <_>
      <maxWeakCount>7</maxWeakCount>
      <stageThreshold>-8.3644253015518188e-01</stageThreshold>
      <weakClassifiers>
        <_>
          <internalNodes>
            0 -1 36 -289407961 2074279919 -720437308 -138690667
            2004844159 -327155715 -140461585 -1056997382</internalNodes>
          <leafValues>
            -4.7368422150611877e-01 6.0042965412139893e-01</leafValues></_>
        <_>
          <internalNodes>
            0 -1 47 -642035437 956629125 1342195717 -1870646976
            1149818074 -129990528 -804546421 -1364227965</internalNodes>
          <leafValues>
            -5.0687652826309204e-01 5.4860210418701172e-01</leafValues></_>
        <_>
          <internalNodes>
            0 -1 65 -2088531155 2063696145 268488023 -38469624
            -1996451672 -285030246 1275092158 2139166922</internalNodes>
          <leafValues>
            -8.3168435096740723e-01 3.4864696860313416e-01</leafValues></_>
        <_>
          <internalNodes>
            0 -1 67 -50331753 -471400450 -478 -209715330 -680034795
            1324842870 -184552353 -1208092673</internalNodes>
          <leafValues>
            -5.2104502916336060e-01 6.1116927862167358e-01</leafValues></_>
        <_>
          <internalNodes>
            0 -1 90 -472537595 51183684 1074872338 -1139073024
            -1072084352 -770007040 -738031486 -969999226</internalNodes>
          <leafValues>
            -6.1545044183731079e-01 4.9381217360496521e-01</leafValues></_>
        <_>
          <internalNodes>
            0 -1 85 -34213069 -202197066 -134496332 -400394 -16810241
            -1342701579 1726440951 -2134998714</internalNodes>
          <leafValues>
            -4.9409306049346924e-01 6.5454530715942383e-01</leafValues></_>
        <_>
          <internalNodes>
            0 -1 19 -2120433645 -507506621 87038232 1226391814
            -201146294 -1870036848 -830453233 1634975751</internalNodes>
          <leafValues>
            -6.5541565418243408e-01 5.2305126190185547e-01</leafValues></_></weakClassifiers></_></stages>
  <features>
    <_>
      <rect>
        0 0 8 4</rect></_>
    <_>
      <rect>
        0 0 14 5</rect></_>
    <_>
      <rect>
        0 0 16 20</rect></_>
    <_>
      <rect>
        0 2 14 11</rect></_>
    <_>
      <rect>
        0 2 16 11</rect></_>
    <_>
      <rect>
        0 3 6 5</rect></_>
    <_>
      <rect>
        0 3 11 4</rect></_>
    <_>
      <rect>
        0 7 10 16</rect></_>
    <_>
      <rect>
        0 13 4 6</rect></_>
    <_>
      <rect>
        0 17 3 4</rect></_>
    <_>
      <rect>
        0 21 13 13</rect></_>
    <_>
      <rect>
        0 27 2 5</rect></_>
    <_>
      <rect>
        0 27 14 11</rect></_>
    <_>
      <rect>
        0 29 4 10</rect></_>
    <_>
      <rect>
        0 34 3 4</rect></_>
    <_>
      <rect>
        0 34 5 7</rect></_>
    <_>
      <rect>
        0 36 3 5</rect></_>
    <_>
      <rect>
        0 36 5 5</rect></_>
    <_>
      <rect>
        0 39 7 6</rect></_>
    <_>
      <rect>
        1 0 8 4</rect></_>
    <_>
      <rect>
        1 1 5 8</rect></_>
    <_>
      <rect>
        1 1 16 15</rect></_>
    <_>
      <rect>
        1 3 5 5</rect></_>
    <_>
      <rect>
        1 3 15 9</rect></_>
    <_>
      <rect>
        1 6 16 16</rect></_>
    <_>
      <rect>
        1 21 2 13</rect></_>
    <_>
      <rect>
        1 33 5 9</rect></_>
    <_>
      <rect>
        1 42 3 4</rect></_>
    <_>
      <rect>
        1 45 11 4</rect></_>
    <_>
      <rect>
        2 7 14 6</rect></_>
    <_>
      <rect>
        2 26 16 10</rect></_>
    <_>
      <rect>
        3 2 5 6</rect></_>
    <_>
      <rect>
        3 41 13 6</rect></_>
    <_>
      <rect>
        3 42 5 6</rect></_>
    <_>
      <rect>
        4 0 3 20</rect></_>
    <_>
      <rect>
        4 2 6 3</rect></_>
    <_>
      <rect>
        4 4 10 2</rect></_>
    <_>
      <rect>
        4 38 15 6</rect></_>
    <_>
      <rect>
        5 28 15 9</rect></_>
    <_>
      <rect>
        6 5 3 5</rect></_>
    <_>
      <rect>
        6 36 14 5</rect></_>
    <_>
      <rect>
        7 0 5 4</rect></_>
    <_>
      <rect>
        7 5 3 2</rect></_>
    <_>
      <rect>
        7 5 3 5</rect></_>
    <_>
      <rect>
        7 22 10 4</rect></_>
    <_>
      <rect>
        8 2 3 9</rect></_>
    <_>
      <rect>
        8 4 14 6</rect></_>
    <_>
      <rect>
        8 38 8 5</rect></_>
    <_>
      <rect>
        9 27 9 3</rect></_>
    <_>
      <rect>
        9 47 6 3</rect></_>
    <_>
      <rect>
        10 39 8 5</rect></_>
    <_>
      <rect>
        11 28 9 5</rect></_>
    <_>
      <rect>
        12 26 9 5</rect></_>
    <_>
      <rect>
        13 17 7 5</rect></_>
    <_>
      <rect>
        13 19 9 4</rect></_>
    <_>
      <rect>
        13 26 3 2</rect></_>
    <_>
      <rect>
        13 27 2 2</rect></_>
    <_>
      <rect>
        13 40 12 6</rect></_>
    <_>
      <rect>
        14 1 12 5</rect></_>
    <_>
      <rect>
        14 5 7 3</rect></_>
    <_>
      <rect>
        15 24 6 3</rect></_>
    <_>
      <rect>
        15 28 4 1</rect></_>
    <_>
      <rect>
        16 1 11 12</rect></_>
    <_>
      <rect>
        16 2 10 7</rect></_>
    <_>
      <rect>
        16 7 10 4</rect></_>
    <_>
      <rect>
        16 26 8 4</rect></_>
    <_>
      <rect>
        16 46 4 4</rect></_>
    <_>
      <rect>
        17 6 11 2</rect></_>
    <_>
      <rect>
        17 9 8 2</rect></_>
    <_>
      <rect>
        17 46 7 2</rect></_>
    <_>
      <rect>
        18 29 4 1</rect></_>
    <_>
      <rect>
        21 20 6 5</rect></_>
    <_>
      <rect>
        21 45 9 3</rect></_>
    <_>
      <rect>
        22 48 4 1</rect></_>
    <_>
      <rect>
        23 4 9 18</rect></_>
    <_>
      <rect>
        23 19 5 6</rect></_>
    <_>
      <rect>
        25 29 3 1</rect></_>
    <_>
      <rect>
        30 28 2 2</rect></_>
    <_>
      <rect>
        30 30 3 1</rect></_>
    <_>
      <rect>
        31 5 5 6</rect></_>
    <_>
      <rect>
        32 0 6 4</rect></_>
    <_>
      <rect>
        32 53 4 2</rect></_>
    <_>
      <rect>
        34 30 5 10</rect></_>
    <_>
      <rect>
        35 9 3 5</rect></_>
    <_>
      <rect>
        35 43 5 5</rect></_>
    <_>
      <rect>
        36 42 4 6</rect></_>
    <_>
      <rect>
        37 33 4 9</rect></_>
    <_>
      <rect>
        38 0 4 5</rect></_>
    <_>
      <rect>
        38 12 4 13</rect></_>
    <_>
      <rect>
        41 0 3 11</rect></_>
    <_>
      <rect>
        44 17 2 5</rect></_></features></cascade>
</opencv_storage>
