<?xml version="1.0"?>
<opencv_storage>
<cascade>
  <stageType>BOOST</stageType>
  <featureType>LBP</featureType>
  <height>60</height>
  <width>50</width>
  <stageParams>
    <boostType>GAB</boostType>
    <minHitRate>9.9900001287460327e-01</minHitRate>
    <maxFalseAlarm>5.0000000000000000e-01</maxFalseAlarm>
    <weightTrimRate>9.4999999999999996e-01</weightTrimRate>
    <maxDepth>1</maxDepth>
    <maxWeakCount>100</maxWeakCount></stageParams>
  <featureParams>
    <maxCatCount>256</maxCatCount>
    <featSize>1</featSize></featureParams>
  <stageNum>20</stageNum>
  <stages>
    <!-- stage 0 -->
    <_>
      <maxWeakCount>3</maxWeakCount>
      <stageThreshold>-1.0654222965240479e+00</stageThreshold>
      <weakClassifiers>
        <_>
          <internalNodes>
            0 -1 18 -134220833 -549205673 1371633475 -707329277
            -259992933 -1113391096 -83660629 2143288235</internalNodes>
          <leafValues>
            -9.6904760599136353e-01 8.6226415634155273e-01</leafValues></_>
        <_>
          <internalNodes>
            0 -1 13 1360072983 -145497159 -1560165503 -138960679
            201916651 2055274497 -880570149 -5264721</internalNodes>
          <leafValues>
            -9.2415595054626465e-01 8.1214171648025513e-01</leafValues></_>
        <_>
          <internalNodes>
            0 -1 21 -183240193 -76082731 1367413077 -136990947
            -461203269 -40624112 -1065312065 -240006516</internalNodes>
          <leafValues>
            -8.6749875545501709e-01 8.2778120040893555e-01</leafValues></_></weakClassifiers></_>
    <!-- stage 1 -->
    <_>
      <maxWeakCount>2</maxWeakCount>
      <stageThreshold>-2.9302847385406494e-01</stageThreshold>
      <weakClassifiers>
        <_>
          <internalNodes>
            0 -1 29 -2110465 -2641277 -481040293 -14943561 -347080490
            -91649877 -716707073 2078275775</internalNodes>
          <leafValues>
            -9.6469104290008545e-01 7.8139114379882813e-01</leafValues></_>
        <_>
          <internalNodes>
            0 -1 5 -798886913 -540818029 1074845081 -572145323
            -301358197 -1429372280 -1142059777 -136184843</internalNodes>
          <leafValues>
            -8.6940783262252808e-01 6.7166256904602051e-01</leafValues></_></weakClassifiers></_>
    <!-- stage 2 -->
    <_>
      <maxWeakCount>3</maxWeakCount>
      <stageThreshold>-9.8151725530624390e-01</stageThreshold>
      <weakClassifiers>
        <_>
          <internalNodes>
            0 -1 41 285836121 458428441 1359007949 -678376685 184594575
            948568204 -1861514805 -71310417</internalNodes>
          <leafValues>
            -9.0792840719223022e-01 7.2450804710388184e-01</leafValues></_>
        <_>
          <internalNodes>
            0 -1 59 1426289087 1942290695 17830167 -586214399
            -1879012901 -1388150766 1275781358 -184620641</internalNodes>
          <leafValues>
            -7.6661473512649536e-01 6.5252786874771118e-01</leafValues></_>
        <_>
          <internalNodes>
            0 -1 4 -242952912 -1824110330 676305 -754730958 -1065320311
            -2004320248 -931036679 -73401581</internalNodes>
          <leafValues>
            -7.2611671686172485e-01 7.0649504661560059e-01</leafValues></_></weakClassifiers></_>
    <!-- stage 3 -->
    <_>
      <maxWeakCount>2</maxWeakCount>
      <stageThreshold>-2.7323958277702332e-01</stageThreshold>
      <weakClassifiers>
        <_>
          <internalNodes>
            0 -1 72 -78643297 -237666173 1140883533 -171098026
            -770989825 -721354552 -133977397 2074076043</internalNodes>
          <leafValues>
            -8.7799042463302612e-01 7.8383457660675049e-01</leafValues></_>
        <_>
          <internalNodes>
            0 -1 7 -238560257 -188693949 1342669273 -643201401
            -398145905 -2133700480 -649986097 2078241791</internalNodes>
          <leafValues>
            -9.3637520074844360e-01 6.0475087165832520e-01</leafValues></_></weakClassifiers></_>
    <!-- stage 4 -->
    <_>
      <maxWeakCount>4</maxWeakCount>
      <stageThreshold>-5.7421278953552246e-01</stageThreshold>
      <weakClassifiers>
        <_>
          <internalNodes>
            0 -1 62 -266745349 -678362980 -1795107847 -2817647
            -125263623 -1696464694 -2122143489 522922171</internalNodes>
          <leafValues>
            -8.9569753408432007e-01 6.9461607933044434e-01</leafValues></_>
        <_>
          <internalNodes>
            0 -1 22 -10487809 -511579909 -346361927 -724451315
            -773196609 453574809 -485969155 1608514463</internalNodes>
          <leafValues>
            -9.4198441505432129e-01 4.8857140541076660e-01</leafValues></_>
        <_>
          <internalNodes>
            0 -1 11 -12103201 -1046634042 373299357 -572436208 939536827
            -72654632 -293538901 -337</internalNodes>
          <leafValues>
            -7.4825268983840942e-01 5.8292698860168457e-01</leafValues></_>
        <_>
          <internalNodes>
            0 -1 1 -1325107295 1093281154 -1996275693 -242642688
            -771737925 1384202400 -1551292401 -11641</internalNodes>
          <leafValues>
            -6.9789046049118042e-01 6.8054217100143433e-01</leafValues></_></weakClassifiers></_>
    <!-- stage 5 -->
    <_>
      <maxWeakCount>3</maxWeakCount>
      <stageThreshold>-9.8749095201492310e-01</stageThreshold>
      <weakClassifiers>
        <_>
          <internalNodes>
            0 -1 82 -212601377 -238328437 1157693457 -213675749
            -515266405 -637451734 -636882709 2136996575</internalNodes>
          <leafValues>
            -8.7979537248611450e-01 7.0483005046844482e-01</leafValues></_>
        <_>
          <internalNodes>
            0 -1 55 -779765345 -585374898 16957695 2145126238
            -1862029077 -275410809 -1656242500 1543461791</internalNodes>
          <leafValues>
            -7.9400944709777832e-01 5.7401376962661743e-01</leafValues></_>
        <_>
          <internalNodes>
            0 -1 39 -777004225 1459724693 22437725 -1613905279
            -120461137 -123961256 -1534678597 -173297221</internalNodes>
          <leafValues>
            -6.5053749084472656e-01 6.8631392717361450e-01</leafValues></_></weakClassifiers></_>
    <!-- stage 6 -->
    <_>
      <maxWeakCount>4</maxWeakCount>
      <stageThreshold>-1.6033515930175781e+00</stageThreshold>
      <weakClassifiers>
        <_>
          <internalNodes>
            0 -1 42 823201919 2144294175 1208568149 -670060543 983083743
            -73684806 -524111429 -2111473</internalNodes>
          <leafValues>
            -8.0939948558807373e-01 6.3492065668106079e-01</leafValues></_>
        <_>
          <internalNodes>
            0 -1 3 -610022657 -1123447785 -1220473235 -46972851
            -1707588897 -341866488 -58675493 -241979990</internalNodes>
          <leafValues>
            -7.8482961654663086e-01 5.4363185167312622e-01</leafValues></_>
        <_>
          <internalNodes>
            0 -1 84 -1072507503 318787840 -1693478127 -1615757299
            -1073626705 -1807742966 -1043693365 -271585073</internalNodes>
          <leafValues>
            -7.1007233858108521e-01 6.1170154809951782e-01</leafValues></_>
        <_>
          <internalNodes>
            0 -1 14 -262223276 -1853652976 1075155155 -74730491
            1247348940 -796884346 -560053589 -73667861</internalNodes>
          <leafValues>
            -7.4337023496627808e-01 5.7874268293380737e-01</leafValues></_></weakClassifiers></_>
    <!-- stage 7 -->
    <_>
      <maxWeakCount>5</maxWeakCount>
      <stageThreshold>-1.0651334524154663e+00</stageThreshold>
      <weakClassifiers>
        <_>
          <internalNodes>
            0 -1 78 -229125161 -183122943 -1056862912 -673857197
            -796343785 -704364456 -531443204 1004534235</internalNodes>
          <leafValues>
            -9.2654424905776978e-01 5.0345885753631592e-01</leafValues></_>
        <_>
          <internalNodes>
            0 -1 92 -788327441 -107085822 -519962347 -99942125
            -1979578040 -1333231360 -91573534 -156322817</internalNodes>
          <leafValues>
            -6.0860252380371094e-01 6.7482697963714600e-01</leafValues></_>
        <_>
          <internalNodes>
            0 -1 54 -1400665642 -788166650 1426182474 1439416832
            -1178148677 -1341947900 -897393941 1535896203</internalNodes>
          <leafValues>
            -8.8009792566299438e-01 5.0495576858520508e-01</leafValues></_>
        <_>
          <internalNodes>
            0 -1 27 -526726406 -624881520 -1946156970 -2109732334
            -2146836344 -327122816 -1073739110 -235397072</internalNodes>
          <leafValues>
            -6.6117632389068604e-01 6.3207817077636719e-01</leafValues></_>
        <_>
          <internalNodes>
            0 -1 74 -771116293 -1660944384 -737030126 -560529388
            -2122280879 1879048210 -1593784169 -173022501</internalNodes>
          <leafValues>
            -6.5582430362701416e-01 6.2623387575149536e-01</leafValues></_></weakClassifiers></_>
    <!-- stage 8 -->
    <_>
      <maxWeakCount>4</maxWeakCount>
      <stageThreshold>-1.6167006492614746e+00</stageThreshold>
      <weakClassifiers>
        <_>
          <internalNodes>
            0 -1 75 -779496449 2032255131 -1727683107 1434749080
            -801398597 -1087651709 -1588679784 2143019483</internalNodes>
          <leafValues>
            -8.4767276048660278e-01 5.8858102560043335e-01</leafValues></_>
        <_>
          <internalNodes>
            0 -1 43 1107968531 -956268288 -1878679108 -687857520
            -531580419 -1717009518 -670131205 -6827413</internalNodes>
          <leafValues>
            -5.6511718034744263e-01 6.0639345645904541e-01</leafValues></_>
        <_>
          <internalNodes>
            0 -1 52 -245699875 -1744776719 -109014765 1037271170
            -1425280774 -1446496245 1124847791 1069544847</internalNodes>
          <leafValues>
            -8.6953455209732056e-01 4.1720917820930481e-01</leafValues></_>
        <_>
          <internalNodes>
            0 -1 8 -787955297 -1223621584 330193 -1491992317 -2013101396
            -333446768 -2113883955 -208977277</internalNodes>
          <leafValues>
            -6.2111991643905640e-01 6.0209316015243530e-01</leafValues></_></weakClassifiers></_>
    <!-- stage 9 -->
    <_>
      <maxWeakCount>5</maxWeakCount>
      <stageThreshold>-9.6767246723175049e-01</stageThreshold>
      <weakClassifiers>
        <_>
          <internalNodes>
            0 -1 33 -1546652741 -653180902 -1073545086 -16015056
            -2105169031 -527820575 -108230265 -335551771</internalNodes>
          <leafValues>
            -5.9810876846313477e-01 5.7495254278182983e-01</leafValues></_>
        <_>
          <internalNodes>
            0 -1 68 -1957984961 1969034303 -2146089767 -579631714
            -671032949 -847189427 -1869037333 2105513899</internalNodes>
          <leafValues>
            -8.3304870128631592e-01 4.2237833142280579e-01</leafValues></_>
        <_>
          <internalNodes>
            0 -1 34 1999884750 -586079487 2130706507 1460716164
            1149239450 1519947824 1629988606 -70203077</internalNodes>
          <leafValues>
            -7.3256784677505493e-01 4.8564365506172180e-01</leafValues></_>
        <_>
          <internalNodes>
            0 -1 77 -957479655 988700668 -285442743 -1211793601
            -587213583 1977054975 -2072058134 -303848065</internalNodes>
          <leafValues>
            -5.4558944702148438e-01 6.5121299028396606e-01</leafValues></_>
        <_>
          <internalNodes>
            0 -1 17 -117321436 -132820735 -1727985218 -1694465776
            -2003785046 1209696320 -1879018858 -1330921342</internalNodes>
          <leafValues>
            -6.2569898366928101e-01 5.6858104467391968e-01</leafValues></_></weakClassifiers></_>
    <!-- stage 10 -->
    <_>
      <maxWeakCount>5</maxWeakCount>
      <stageThreshold>-1.0182454586029053e+00</stageThreshold>
      <weakClassifiers>
        <_>
          <internalNodes>
            0 -1 53 -1820156929 1364394189 114819 1571168267 -1014988666
            -1181890424 -1472691960 -7690805</internalNodes>
          <leafValues>
            -6.4840763807296753e-01 5.4618835449218750e-01</leafValues></_>
        <_>
          <internalNodes>
            0 -1 47 -1605642274 -753729451 75714838 -50247343
            -2012698435 -37222263 -796227427 -192222553</internalNodes>
          <leafValues>
            -7.0727407932281494e-01 4.8579794168472290e-01</leafValues></_>
        <_>
          <internalNodes>
            0 -1 81 -250610733 1469284383 1342265621 -716079085
            -771710575 -340066238 -1945714002 2073813787</internalNodes>
          <leafValues>
            -7.8873085975646973e-01 4.5589661598205566e-01</leafValues></_>
        <_>
          <internalNodes>
            0 -1 95 -795983664 1493860547 -1341030374 2004975881
            -268230616 1086898944 1073789466 -120367017</internalNodes>
          <leafValues>
            -6.4327341318130493e-01 5.5210101604461670e-01</leafValues></_>
        <_>
          <internalNodes>
            0 -1 20 1907579734 1259569174 -1006469106 2132869525
            42330863 -113508160 -293560149 -181172081</internalNodes>
          <leafValues>
            -6.1822748184204102e-01 5.8721804618835449e-01</leafValues></_></weakClassifiers></_>
    <!-- stage 11 -->
    <_>
      <maxWeakCount>5</maxWeakCount>
      <stageThreshold>-8.4840232133865356e-01</stageThreshold>
      <weakClassifiers>
        <_>
          <internalNodes>
            0 -1 61 -45615125 1891835912 302178505 1375928450
            -1865684824 1074464768 1351319779 1538255791</internalNodes>
          <leafValues>
            -8.2666665315628052e-01 4.5846155285835266e-01</leafValues></_>
        <_>
          <internalNodes>
            0 -1 93 -472416009 -766571887 286720347 1894187669
            -490044530 -2147364223 -1195073366 -23141717</internalNodes>
          <leafValues>
            -5.9383106231689453e-01 6.1960434913635254e-01</leafValues></_>
        <_>
          <internalNodes>
            0 -1 24 -95893772 -242102053 -1073025894 -657385214
            -224591656 -342851438 315142156 -137411544</internalNodes>
          <leafValues>
            -6.2438690662384033e-01 5.3151220083236694e-01</leafValues></_>
        <_>
          <internalNodes>
            0 -1 30 -534066653 -1048051517 16826390 -721103674
            -846093639 -1676539712 436244667 -626540441</internalNodes>
          <leafValues>
            -5.8485025167465210e-01 6.3117551803588867e-01</leafValues></_>
        <_>
          <internalNodes>
            0 -1 16 -26251565 -285279105 -1963989281 -1502871685
            -2797618 -2130049 -92379428 -17150928</internalNodes>
          <leafValues>
            -5.3548014163970947e-01 6.2543344497680664e-01</leafValues></_></weakClassifiers></_>
    <!-- stage 12 -->
    <_>
      <maxWeakCount>6</maxWeakCount>
      <stageThreshold>-1.6405043601989746e+00</stageThreshold>
      <weakClassifiers>
        <_>
          <internalNodes>
            0 -1 40 825980917 -717090394 411042629 -213577312 -796813652
            -1977964149 -670517069 -74591567</internalNodes>
          <leafValues>
            -6.3171356916427612e-01 5.3130590915679932e-01</leafValues></_>
        <_>
          <internalNodes>
            0 -1 60 -695215681 -1651228453 1082229105 -586673702
            -670218005 -97943159 -1862145842 2143273182</internalNodes>
          <leafValues>
            -7.7709078788757324e-01 4.3640291690826416e-01</leafValues></_>
        <_>
          <internalNodes>
            0 -1 94 -1742994861 -142376941 294158483 -1281678326
            965351488 -637337454 -1068424488 -79695181</internalNodes>
          <leafValues>
            -5.6828504800796509e-01 5.9187382459640503e-01</leafValues></_>
        <_>
          <internalNodes>
            0 -1 26 -364592900 -751598570 -2147352100 -61419438
            -2003328848 -1191182336 -804236644 -256688128</internalNodes>
          <leafValues>
            -6.3014745712280273e-01 5.3153008222579956e-01</leafValues></_>
        <_>
          <internalNodes>
            0 -1 63 -1062477110 1493635841 -1878945452 -204926912
            1078567661 1258492040 -1576498486 -211254644</internalNodes>
          <leafValues>
            -6.3814502954483032e-01 5.1567077636718750e-01</leafValues></_>
        <_>
          <internalNodes>
            0 -1 9 -74741612 -721336958 -1073737704 -788021244
            -900841253 -394246142 -511474994 -335915760</internalNodes>
          <leafValues>
            -7.7029377222061157e-01 4.3421402573585510e-01</leafValues></_></weakClassifiers></_>
    <!-- stage 13 -->
    <_>
      <maxWeakCount>6</maxWeakCount>
      <stageThreshold>-1.6254953145980835e+00</stageThreshold>
      <weakClassifiers>
        <_>
          <internalNodes>
            0 -1 0 -217534189 1100718345 1078199114 -970126331
            -2067780593 -662126556 -1030772086 1675621279</internalNodes>
          <leafValues>
            -8.2278478145599365e-01 4.1202673316001892e-01</leafValues></_>
        <_>
          <internalNodes>
            0 -1 2 185016241 185516236 -2063351683 -1348255360
            -2130509653 -485326718 -813407029 -811637521</internalNodes>
          <leafValues>
            -5.7248365879058838e-01 5.4343420267105103e-01</leafValues></_>
        <_>
          <internalNodes>
            0 -1 79 -804159086 -699281023 487611834 -717155183
            -788477509 -1898446720 -1870618213 2100007563</internalNodes>
          <leafValues>
            -8.4182983636856079e-01 3.8664579391479492e-01</leafValues></_>
        <_>
          <internalNodes>
            0 -1 64 -788282463 -855418813 -1879010922 -746549232
            1342832707 2030108672 -1333157703 -200048470</internalNodes>
          <leafValues>
            -6.7254948616027832e-01 4.6276333928108215e-01</leafValues></_>
        <_>
          <internalNodes>
            0 -1 15 -193534380 -989462525 -1735734495 -652148720
            -74841448 -234745855 -804634406 -1052550</internalNodes>
          <leafValues>
            -6.7759323120117188e-01 5.0542938709259033e-01</leafValues></_>
        <_>
          <internalNodes>
            0 -1 89 1554416219 -1770016962 -16974409 -1082544514
            1320148828 1073741694 -830529828 -4337861</internalNodes>
          <leafValues>
            -5.0154143571853638e-01 6.7630523443222046e-01</leafValues></_></weakClassifiers></_>
    <!-- stage 14 -->
    <_>
      <maxWeakCount>6</maxWeakCount>
      <stageThreshold>-1.6644475460052490e+00</stageThreshold>
      <weakClassifiers>
        <_>
          <internalNodes>
            0 -1 36 -777273125 -254594841 -2147401725 1895911949
            -805189558 -1073720694 -2146369778 -234924549</internalNodes>
          <leafValues>
            -6.1843788623809814e-01 5.2100092172622681e-01</leafValues></_>
        <_>
          <internalNodes>
            0 -1 91 -1785666637 -1828704126 286262401 -171404592
            -938822997 -402604031 -769062864 -2003907806</internalNodes>
          <leafValues>
            -6.3459545373916626e-01 5.0858253240585327e-01</leafValues></_>
        <_>
          <internalNodes>
            0 -1 71 -598480253 -1526492012 -2079817709 -733700029
            25856007 553651200 -1425309311 -754802184</internalNodes>
          <leafValues>
            -6.9425153732299805e-01 4.3221122026443481e-01</leafValues></_>
        <_>
          <internalNodes>
            0 -1 58 -268188971 -1853816435 17801 1368391684 -1701732209
            -1719008631 184584891 2145117342</internalNodes>
          <leafValues>
            -7.6925605535507202e-01 4.5236724615097046e-01</leafValues></_>
        <_>
          <internalNodes>
            0 -1 85 -1071769833 311562518 -2146234095 -1674767856
            -234747112 -1173188478 -1015018798 -460135797</internalNodes>
          <leafValues>
            -7.4084937572479248e-01 4.3440392613410950e-01</leafValues></_>
        <_>
          <internalNodes>
            0 -1 19 -72643279 -878542986 -1074336267 2078469798
            -67123522 -1484857571 -134316101 -4981378</internalNodes>
          <leafValues>
            -5.5514329671859741e-01 5.6859457492828369e-01</leafValues></_></weakClassifiers></_>
    <!-- stage 15 -->
    <_>
      <maxWeakCount>7</maxWeakCount>
      <stageThreshold>-9.7517812252044678e-01</stageThreshold>
      <weakClassifiers>
        <_>
          <internalNodes>
            0 -1 48 -138690157 1068498915 -167775265 -1074300939
            1144291551 2138505215 1358879967 -201326593</internalNodes>
          <leafValues>
            -4.2507067322731018e-01 6.5673422813415527e-01</leafValues></_>
        <_>
          <internalNodes>
            0 -1 88 146754077 -1150291974 -268439945 -608436549
            1743750980 -10485964 -1342534336 -1347163493</internalNodes>
          <leafValues>
            -4.9957215785980225e-01 5.5177491903305054e-01</leafValues></_>
        <_>
          <internalNodes>
            0 -1 23 -262203649 -683442174 1090556253 -238567296
            -483694446 -536837312 1076748800 -15736313</internalNodes>
          <leafValues>
            -5.2289789915084839e-01 5.5804687738418579e-01</leafValues></_>
        <_>
          <internalNodes>
            0 -1 57 -1253732358 -686567344 -2130706424 -1567305520
            -1197635702 -903823351 -1979540504 1409278154</internalNodes>
          <leafValues>
            -8.1475627422332764e-01 3.2637488842010498e-01</leafValues></_>
        <_>
          <internalNodes>
            0 -1 66 -2130489257 1627455491 -1342177128 -1676951411
            -2147481592 194642088 -401417680 -487595621</internalNodes>
          <leafValues>
            -6.3260877132415771e-01 4.8036637902259827e-01</leafValues></_>
        <_>
          <internalNodes>
            0 -1 44 -1857871618 -679271150 125830369 285343810
            -197129525 1520664737 -263663477 -89480638</internalNodes>
          <leafValues>
            -5.8065968751907349e-01 5.1184105873107910e-01</leafValues></_>
        <_>
          <internalNodes>
            0 -1 97 -1819811508 -1581182896 285283208 -1169092464
            -2109726328 -2097152000 -1879029094 -1370830150</internalNodes>
          <leafValues>
            -7.2440522909164429e-01 4.2536991834640503e-01</leafValues></_></weakClassifiers></_>
    <!-- stage 16 -->
    <_>
      <maxWeakCount>8</maxWeakCount>
      <stageThreshold>-1.5999559164047241e+00</stageThreshold>
      <weakClassifiers>
        <_>
          <internalNodes>
            0 -1 50 -2086433793 353176021 -1941421023 -853423585
            -536573776 2076213263 -1739568916 -68424088</internalNodes>
          <leafValues>
            -6.6176468133926392e-01 4.5081967115402222e-01</leafValues></_>
        <_>
          <internalNodes>
            0 -1 37 -853258735 -947470190 -2147282815 -1190517792
            1091442319 -1064791936 -1476198193 -341901133</internalNodes>
          <leafValues>
            -5.8456200361251831e-01 4.7082915902137756e-01</leafValues></_>
        <_>
          <internalNodes>
            0 -1 87 -108332109 -1826062157 -1018752235 -142045182
            -578190408 -1071898555 1073754435 -1904213725</internalNodes>
          <leafValues>
            -5.2694046497344971e-01 5.2430456876754761e-01</leafValues></_>
        <_>
          <internalNodes>
            0 -1 76 -804939759 -234694056 1426068495 -1174335399
            -2025291773 -1794080511 -1052405627 1502200008</internalNodes>
          <leafValues>
            -7.1528011560440063e-01 4.5955592393875122e-01</leafValues></_>
        <_>
          <internalNodes>
            0 -1 10 -148976944 1665659650 -2130616053 1076035969
            -397885205 69634 -760996662 -207138638</internalNodes>
          <leafValues>
            -6.3331300020217896e-01 4.6349310874938965e-01</leafValues></_>
        <_>
          <internalNodes>
            0 -1 46 -1860489181 -813559678 -2146575619 -82718473
            151617935 943785120 1611366571 -648720353</internalNodes>
          <leafValues>
            -5.8512467145919800e-01 4.9824559688568115e-01</leafValues></_>
        <_>
          <internalNodes>
            0 -1 49 -805138210 294649984 218103961 -782956480 -668827216
            -1157627661 134244603 2139621512</internalNodes>
          <leafValues>
            -7.5725382566452026e-01 4.0997654199600220e-01</leafValues></_>
        <_>
          <internalNodes>
            0 -1 86 150922267 -1611407701 2146369327 -104857729
            -864614020 -1250000899 787873258 -320146485</internalNodes>
          <leafValues>
            -4.8972648382186890e-01 6.5489250421524048e-01</leafValues></_></weakClassifiers></_>
    <!-- stage 17 -->
    <_>
      <maxWeakCount>8</maxWeakCount>
      <stageThreshold>-1.3044550418853760e+00</stageThreshold>
      <weakClassifiers>
        <_>
          <internalNodes>
            0 -1 65 -33554946 -536870916 -917520385 -26 -573583362
            -537068290 -570635009 -36241417</internalNodes>
          <leafValues>
            -5.0956130027770996e-01 5.4698318243026733e-01</leafValues></_>
        <_>
          <internalNodes>
            0 -1 70 -1066405946 1394018307 -1862267044 1896390676
            1619852267 2083195329 -1444444018 -243165118</internalNodes>
          <leafValues>
            -5.6023055315017700e-01 4.6953704953193665e-01</leafValues></_>
        <_>
          <internalNodes>
            0 -1 6 -26755279 -806723698 -65545 -2097174 -1048581
            -4915331 -2 -806371433</internalNodes>
          <leafValues>
            -4.7899144887924194e-01 6.0246795415878296e-01</leafValues></_>
        <_>
          <internalNodes>
            0 -1 80 -153947375 -1289711609 1090588993 -1266395049
            -401961475 956989577 -494916639 -1009847046</internalNodes>
          <leafValues>
            -4.7040534019470215e-01 5.7990705966949463e-01</leafValues></_>
        <_>
          <internalNodes>
            0 -1 12 -1729167186 -788233967 1342787842 -1794568056
            -402060386 146800674 -267756566 -84181184</internalNodes>
          <leafValues>
            -7.2599500417709351e-01 3.9565244317054749e-01</leafValues></_>
        <_>
          <internalNodes>
            0 -1 98 2138244381 1030717182 1878916540 930017020
            1305866056 -545263633 1551822316 -427586545</internalNodes>
          <leafValues>
            -5.1027774810791016e-01 6.2059432268142700e-01</leafValues></_>
        <_>
          <internalNodes>
            0 -1 45 1107817239 172834961 -1862237823 -1761180526
            -1878914885 268468360 2038976689 -477370343</internalNodes>
          <leafValues>
            -4.8480558395385742e-01 6.1365681886672974e-01</leafValues></_>
        <_>
          <internalNodes>
            0 -1 83 -1018187173 -201256686 268486228 1416778251
            -2097151869 671219850 1543733642 2137675994</internalNodes>
          <leafValues>
            -8.2383942604064941e-01 3.5470297932624817e-01</leafValues></_></weakClassifiers></_>
    <!-- stage 18 -->
    <_>
      <maxWeakCount>6</maxWeakCount>
      <stageThreshold>-7.7019846439361572e-01</stageThreshold>
      <weakClassifiers>
        <_>
          <internalNodes>
            0 -1 96 483193776 595722371 1124122784 -1515372252 268445854
            -528449408 -528430880 -336606773</internalNodes>
          <leafValues>
            -6.0000002384185791e-01 4.7359308600425720e-01</leafValues></_>
        <_>
          <internalNodes>
            0 -1 56 1500611223 -728526635 29 -619673340 -884878453
            -643768116 811116694 2074067882</internalNodes>
          <leafValues>
            -7.7071988582611084e-01 3.6800977587699890e-01</leafValues></_>
        <_>
          <internalNodes>
            0 -1 28 -1543033199 -1559478068 -108642146 554897473
            1074332307 -1022754794 -1870515985 -2130741089</internalNodes>
          <leafValues>
            -6.2994503974914551e-01 5.2482634782791138e-01</leafValues></_>
        <_>
          <internalNodes>
            0 -1 38 1480736945 1420886016 81925 -130481894 -763297063
            -2004843352 -494882911 -1161064448</internalNodes>
          <leafValues>
            -5.5080860853195190e-01 5.5547940731048584e-01</leafValues></_>
        <_>
          <internalNodes>
            0 -1 31 -1492516599 553845784 168001963 957186049 59277314
            -2011001856 -2013233089 -1247770104</internalNodes>
          <leafValues>
            -8.5439628362655640e-01 3.5518696904182434e-01</leafValues></_>
        <_>
          <internalNodes>
            0 -1 25 -1073351580 1292042761 -716918576 293667203
            1211208106 153274507 -1047936629 1619015695</internalNodes>
          <leafValues>
            -7.1707731485366821e-01 4.0730690956115723e-01</leafValues></_></weakClassifiers></_>
    <!-- stage 19 -->
    <_>
      <maxWeakCount>7</maxWeakCount>
      <stageThreshold>-9.3747204542160034e-01</stageThreshold>
      <weakClassifiers>
        <_>
          <internalNodes>
            0 -1 51 -1549074405 2052800666 -389575585 -188727231
            -455505789 2080899456 -1434418646 -326594424</internalNodes>
          <leafValues>
            -6.2585967779159546e-01 4.7314578294754028e-01</leafValues></_>
        <_>
          <internalNodes>
            0 -1 67 -1936751886 23364613 1082953944 -66383228 478330886
            -58163055 553822214 -190580313</internalNodes>
          <leafValues>
            -6.9696998596191406e-01 4.2967757582664490e-01</leafValues></_>
        <_>
          <internalNodes>
            0 -1 90 -640750671 -1121387622 -134256976 -1612611928
            -16779297 -9 -134365188 -127410964</internalNodes>
          <leafValues>
            -5.3862226009368896e-01 5.6601411104202271e-01</leafValues></_>
        <_>
          <internalNodes>
            0 -1 69 285852128 -686814208 17891354 -1090125802
            -2013232984 -618364791 536903816 2040189066</internalNodes>
          <leafValues>
            -7.7410060167312622e-01 4.3397560715675354e-01</leafValues></_>
        <_>
          <internalNodes>
            0 -1 73 -759709565 -1225261121 -16846867 -1493827593
            -318771505 -524289 -33556489 -17436673</internalNodes>
          <leafValues>
            -4.1811084747314453e-01 7.7886646986007690e-01</leafValues></_>
        <_>
          <internalNodes>
            0 -1 35 -88028969 -720731895 -2147467007 550518810
            1653140122 -1945075707 -1836539185 -301983712</internalNodes>
          <leafValues>
            -5.8341836929321289e-01 6.0813915729522705e-01</leafValues></_>
        <_>
          <internalNodes>
            0 -1 32 -888688226 -1409023999 134218842 -184352767
            142771336 -309256191 -1576825720 -1836152829</internalNodes>
          <leafValues>
            -6.6062873601913452e-01 4.9596792459487915e-01</leafValues></_></weakClassifiers></_></stages>
  <features>
    <_>
      <rect>
        0 0 16 15</rect></_>
    <_>
      <rect>
        0 1 6 7</rect></_>
    <_>
      <rect>
        0 2 5 5</rect></_>
    <_>
      <rect>
        0 2 16 11</rect></_>
    <_>
      <rect>
        0 3 6 7</rect></_>
    <_>
      <rect>
        0 3 13 10</rect></_>
    <_>
      <rect>
        0 4 5 7</rect></_>
    <_>
      <rect>
        0 5 9 17</rect></_>
    <_>
      <rect>
        0 11 16 3</rect></_>
    <_>
      <rect>
        0 15 2 12</rect></_>
    <_>
      <rect>
        0 18 3 14</rect></_>
    <_>
      <rect>
        0 21 13 13</rect></_>
    <_>
      <rect>
        0 22 2 7</rect></_>
    <_>
      <rect>
        0 25 13 11</rect></_>
    <_>
      <rect>
        0 27 5 11</rect></_>
    <_>
      <rect>
        0 28 4 10</rect></_>
    <_>
      <rect>
        0 43 5 3</rect></_>
    <_>
      <rect>
        0 47 12 2</rect></_>
    <_>
      <rect>
        1 0 16 20</rect></_>
    <_>
      <rect>
        1 1 7 4</rect></_>
    <_>
      <rect>
        1 1 11 6</rect></_>
    <_>
      <rect>
        1 6 15 7</rect></_>
    <_>
      <rect>
        1 14 16 15</rect></_>
    <_>
      <rect>
        1 30 2 4</rect></_>
    <_>
      <rect>
        1 41 6 6</rect></_>
    <_>
      <rect>
        1 42 10 6</rect></_>
    <_>
      <rect>
        1 44 5 5</rect></_>
    <_>
      <rect>
        1 45 4 5</rect></_>
    <_>
      <rect>
        2 0 4 5</rect></_>
    <_>
      <rect>
        2 0 16 20</rect></_>
    <_>
      <rect>
        2 3 7 3</rect></_>
    <_>
      <rect>
        2 3 15 8</rect></_>
    <_>
      <rect>
        2 6 16 4</rect></_>
    <_>
      <rect>
        2 14 5 4</rect></_>
    <_>
      <rect>
        2 41 14 6</rect></_>
    <_>
      <rect>
        2 45 3 4</rect></_>
    <_>
      <rect>
        4 2 3 19</rect></_>
    <_>
      <rect>
        4 3 4 5</rect></_>
    <_>
      <rect>
        4 42 4 4</rect></_>
    <_>
      <rect>
        5 6 15 6</rect></_>
    <_>
      <rect>
        5 10 4 4</rect></_>
    <_>
      <rect>
        5 26 15 10</rect></_>
    <_>
      <rect>
        5 27 12 10</rect></_>
    <_>
      <rect>
        6 0 6 4</rect></_>
    <_>
      <rect>
        7 39 13 5</rect></_>
    <_>
      <rect>
        8 49 6 2</rect></_>
    <_>
      <rect>
        9 0 4 4</rect></_>
    <_>
      <rect>
        9 5 12 5</rect></_>
    <_>
      <rect>
        9 39 8 5</rect></_>
    <_>
      <rect>
        10 25 4 1</rect></_>
    <_>
      <rect>
        10 28 13 8</rect></_>
    <_>
      <rect>
        10 31 11 7</rect></_>
    <_>
      <rect>
        11 30 2 1</rect></_>
    <_>
      <rect>
        12 23 12 12</rect></_>
    <_>
      <rect>
        12 25 4 4</rect></_>
    <_>
      <rect>
        13 18 8 5</rect></_>
    <_>
      <rect>
        13 20 7 5</rect></_>
    <_>
      <rect>
        13 22 4 6</rect></_>
    <_>
      <rect>
        13 22 5 2</rect></_>
    <_>
      <rect>
        14 3 12 11</rect></_>
    <_>
      <rect>
        14 22 8 4</rect></_>
    <_>
      <rect>
        14 23 1 3</rect></_>
    <_>
      <rect>
        15 29 5 1</rect></_>
    <_>
      <rect>
        15 43 11 5</rect></_>
    <_>
      <rect>
        15 45 9 2</rect></_>
    <_>
      <rect>
        16 1 10 8</rect></_>
    <_>
      <rect>
        16 6 6 2</rect></_>
    <_>
      <rect>
        16 8 7 2</rect></_>
    <_>
      <rect>
        16 24 8 6</rect></_>
    <_>
      <rect>
        17 21 8 3</rect></_>
    <_>
      <rect>
        17 43 11 5</rect></_>
    <_>
      <rect>
        17 47 6 2</rect></_>
    <_>
      <rect>
        18 26 2 2</rect></_>
    <_>
      <rect>
        18 38 4 4</rect></_>
    <_>
      <rect>
        19 9 7 2</rect></_>
    <_>
      <rect>
        20 23 4 3</rect></_>
    <_>
      <rect>
        21 19 8 6</rect></_>
    <_>
      <rect>
        22 0 7 5</rect></_>
    <_>
      <rect>
        22 5 9 17</rect></_>
    <_>
      <rect>
        26 30 5 1</rect></_>
    <_>
      <rect>
        28 48 7 4</rect></_>
    <_>
      <rect>
        29 29 3 2</rect></_>
    <_>
      <rect>
        31 27 1 2</rect></_>
    <_>
      <rect>
        32 25 3 4</rect></_>
    <_>
      <rect>
        32 33 6 9</rect></_>
    <_>
      <rect>
        33 10 5 4</rect></_>
    <_>
      <rect>
        34 0 5 3</rect></_>
    <_>
      <rect>
        34 42 5 6</rect></_>
    <_>
      <rect>
        35 0 5 4</rect></_>
    <_>
      <rect>
        35 2 5 6</rect></_>
    <_>
      <rect>
        35 36 5 7</rect></_>
    <_>
      <rect>
        35 40 5 6</rect></_>
    <_>
      <rect>
        36 14 3 3</rect></_>
    <_>
      <rect>
        37 15 3 4</rect></_>
    <_>
      <rect>
        38 0 4 7</rect></_>
    <_>
      <rect>
        38 0 4 9</rect></_>
    <_>
      <rect>
        38 36 4 4</rect></_>
    <_>
      <rect>
        40 13 3 8</rect></_>
    <_>
      <rect>
        44 13 2 5</rect></_></features></cascade>
</opencv_storage>
